tree
version=v3
num_class=5
num_tree_per_iteration=5
label_index=0
max_feature_idx=47
objective=multiclass num_class:5
feature_names=duration src_bytes dst_bytes land wrong_fragment urgent hot num_failed_logins logged_in num_compromised root_shell su_attempted num_root num_file_creations num_shells num_access_files num_outbound_cmds is_host_login is_guest_login count srv_count serror_rate srv_serror_rate rerror_rate srv_rerror_rate same_srv_rate diff_srv_rate srv_diff_host_rate dst_host_count dst_host_srv_count dst_host_same_srv_rate dst_host_diff_srv_rate dst_host_same_src_port_rate dst_host_srv_diff_host_rate dst_host_serror_rate dst_host_srv_serror_rate dst_host_rerror_rate dst_host_srv_rerror_rate feature0 feature1 feature2 feature3 feature4 feature5 feature6 feature7 feature8 feature9
feature_infos=[-0.067791720533848326:57.954456597141942] [-0.003061685831230673:5.1938510122693105] [-0.026287326600058027:156.0110317562204] [-0.0066734176481231472:149.84825657978121] [-0.047720185394377876:22.206628815910801] [-0.0025714681001558137:362.95721204820705] [-0.044135911646576681:35.756830593454978] [-0.0097821846314220823:322.16386006868646] [-0.41719170438758463:2.3969795887191636] [-0.0056786841552395762:21.125102396541138] [-0.01055195222316461:94.769193306685992] [-0.0046756707303497649:-0.0046756707303497649] [-0.0056400120680036962:26.823774699014688] [-0.011232081539976346:41.475752250876134] [-0.0099189749306474607:181.47830007000971] [-0.027631815673041748:54.794445335378192] none none [-0.037262662385766712:26.836515052181909] [-1.5542577893345018:0.83845489282227337] [-1.1850581083787985:0.88539773305459135] [-0.46408975211861997:2.1625361321649903] [-0.4635204714740499:2.1610398570186433] [-0.24796047607757601:4.0693956008947678] [-0.24863128177301883:4.0589888568724621] [-2.039076684066409:0.53698740327617223] [-0.25524338928175266:11.909406159748098] [-0.20363306829960715:6.8189708658241033] [-3.5750969490003421:0.34796683739228829] [-1.7697575108983687:0.62555755961896153] [-1.8349935901354413:0.59939618703564601] [-0.28286667702562751:8.8696972767182309] [-1.25062080884941:0.8270475709512366] [-0.15862929281970367:23.575830460248426] [-0.46441762593404301:2.1630630578708772] [-0.46320239184163192:2.1620272130196336] [-0.25203952228869597:4.0846756423426704] [-0.24946400466852289:4.0957154713221344] [0:61.843765258789062] [0:44.723873138427734] [0:35.882724761962891] [0:85.288963317871094] [0:45.605033874511719] [0:205.13246154785156] [0:50.017978668212891] [0:51.558570861816406] none [0:215.84278869628906]
tree_sizes=2562 239 2523 2540 2618

Tree=0
num_leaves=23
num_cat=0
split_feature=38 19 4 33 1 47 31 21 8 28 3 1 4 0 42 30 19 32 44 0 22 26
split_gain=151068 19094.8 14072.1 5859.09 4566.7 3245.08 2614.56 1674.54 943.887 904.584 723.085 503.189 415.295 403.753 280.175 169.8 162.981 2361.04 274.492 121.695 112.714 77.598
threshold=4.6197571754455575 -1.5519119925872891 1.0000000180025095e-35 1.3841105911297251 -0.0017355602270045592 4.1333465576171884 -0.054052578182031047 2.1494030027435724 1.0000000180025095e-35 -3.5210389834398135 1.0000000180025095e-35 -0.0025886116458237987 1.0000000180025095e-35 -0.067085252150581837 0.69716757535934459 0.56288034037807966 -1.542528805598439 -0.97013557757632263 5.3669533729553232 0.07420842450271363 2.0166890389515455 4.1848536961141436
decision_type=2 2 2 2 2 2 2 2 2 2 2 2 2 2 2 2 2 2 2 2 2 2
left_child=1 4 10 5 7 6 9 12 -5 11 -2 20 -1 -6 -7 -9 17 -11 -19 21 -3 -18
right_child=2 3 -4 8 13 14 -8 15 -10 16 -12 -13 -14 -15 -16 -17 19 18 -20 -21 -22 -23
leaf_value=-5.990458728615085 -6.0014230566686724 -6.0189006447764228 0.067669413752581023 0.067669413752580967 0.067669413752581037 0.067669413752581134 -6.018900644776437 0.06766941375258087 -6.0189006447764335 0.059733859569361961 0.067669413752581023 0.067669413752581023 0.067669413752580398 -5.3426150827176251 -6.0189006447764308 -4.8015866330705812 0.067132806737355111 -6.018900644776437 0.067669413752580038 -6.018900644776437 0.067669413752578553 -0.45107235259932393
leaf_weight=7.0318749099969864 45.772905372083187 0.41074035689234734 4.2059812545776358 0.2957330569624893 2.0537017844617353 0.082148071378468357 0.70647341385483642 0.55860688537359238 1.8401167988777161 12.601514149457214 0.19715537130832572 0.2464442141354074 0.11500729992985714 0.14786652848124493 0.95291762799024582 0.082148071378469356 4286.1906314715743 0.7557622566819181 0.082148071378469467 0.032859228551386788 0.032859228551387787 2.8916121125221244
leaf_count=428 2786 25 256 18 125 5 43 34 112 767 12 15 7 9 58 5 260882 46 5 2 2 176
internal_value=-0.0134107 0.0499956 -5.46884 0.0601238 -4.31706 0.0627217 0.0640681 -5.4539 -5.17614 0.0650667 -5.97539 -3.55529 -5.89297 -0.295708 -5.53584 -0.556594 0.0656474 -0.282048 -5.42218 0.0667368 -5.56804 0.0667834
internal_weight=0 4317.11 50.176 4307.12 9.98921 4304.99 4303.95 7.78764 2.13585 4303.24 45.9701 0.690044 7.14688 2.20157 1.03507 0.640755 4302.55 13.4394 0.83791 4289.12 0.4436 4289.08
internal_count=265818 262764 3054 262156 608 262026 261963 474 130 261920 2798 42 435 134 63 39 261878 818 51 261060 27 261058
is_linear=0
shrinkage=1


Tree=1
num_leaves=1
num_cat=0
split_feature=
split_gain=
threshold=
decision_type=
left_child=
right_child=
leaf_value=-34.538776391283193
leaf_weight=
leaf_count=
internal_value=
internal_weight=
internal_count=
is_linear=0
shrinkage=1


Tree=2
num_leaves=23
num_cat=0
split_feature=38 1 31 39 8 47 1 21 2 44 44 1 32 2 1 1 0 41 21 0 1 38
split_gain=172639 25353.2 3361.26 1006.85 538.49 531.304 2838.11 219.902 155.8 106.977 2532.21 822.027 380.458 150.269 145.575 399.415 140.523 102.713 287.667 93.6972 77.7961 68.3209
threshold=5.0790045261383066 -0.0030384115932320455 -0.054052578182031047 1.0040613412857058 1.0000000180025095e-35 4.1333465576171884 -0.003028292359319599 2.1494030027435724 0.10886716342186332 1.7078226804733279 3.1134353876113896 -0.0025132233531760723 -1.1155723641623678 -0.026226793853435282 -0.0030384115932320455 -0.0030611798695350501 -0.067085252150581837 1.1995251178741457 2.1494030027435724 -0.030348896220725032 -0.001403649354676314 0.079064339399337782
decision_type=2 2 2 2 2 2 2 2 2 2 2 2 2 2 2 2 2 2 2 2 2 2
left_child=2 3 5 -2 -4 9 7 -7 -5 16 11 12 21 -14 15 -12 17 18 -1 -18 -8 -11
right_child=1 -3 4 8 -6 6 20 -9 -10 10 14 -13 13 -15 -16 -17 19 -19 -20 -21 -22 -23
leaf_value=3.1567831231130619 -4.6513208453392663 -4.6307189879027169 3.1567831231130619 3.1507373592969934 -4.6513208453392654 3.1567831231130503 -4.6513208453392663 -4.6513208453392645 -4.6513208453392663 3.1567831231124597 -4.6513208453392663 -4.6513208453392663 3.1567831231130503 -4.6513208453392636 -4.6513208453392663 3.1567831231127563 3.1567831231130619 -4.6511406104930542 -4.6513208453392663 -4.6513208453392636 3.1567831231127945 -4.6513208453392654
leaf_weight=0.064036031253634884 0.1664936812594523 4.8539311690255991 0.64036031253635783 33.081013745628297 0.10245765000581741 0.58913148753345002 3.4963673064485192 0.03842161875218153 0.025614412501453354 0.012807206250727177 0.24333691876381636 0.24333691876381525 0.65316751878708601 0.025614412501454353 30.724487795494497 0.08965044375509279 0.038421618752180531 3328.9899279577658 0.17930088751018047 0.025614412501454353 0.012807206250726622 0.089650443755090237
leaf_count=5 13 379 50 2583 8 46 273 3 2 1 19 19 51 2 2399 7 3 259931 14 2 1 7
internal_value=-4.57048 2.12077 -4.64627 3.10569 2.0798 -4.64776 -3.51516 2.67874 3.1447 -4.64915 -4.46742 0.423947 2.00477 2.86214 -4.62878 -2.54914 -4.6509 -4.65099 -2.59656 0.0335415 -4.62282 -3.67531
internal_weight=0 38.1271 3366.26 33.2731 0.742818 3365.52 4.13673 0.627553 33.1066 3361.38 32.0821 1.02458 0.78124 0.678782 31.0575 0.332987 3329.3 3329.23 0.243337 0.064036 3.50917 0.102458
internal_count=265818 2977 262841 2598 58 262783 323 49 2585 262460 2505 80 61 53 2425 26 259955 259950 19 5 274 8
is_linear=0
shrinkage=1


Tree=3
num_leaves=23
num_cat=0
split_feature=6 8 2 2 40 15 18 6 23 38 9 2 0 27 20 28 1 1 29 45 35 34
split_gain=63254.2 29775.3 96392.2 14138.3 3475.76 1439.03 845.717 282.821 282.207 263.981 242.432 141.232 141.419 9.91078 1404.23 1.61887 5.54286 63.9751 212.128 5.99631 19.2844 257.125
threshold=3.1523789548803482 1.0000000180025095e-35 -0.026226793853435282 -0.021656571483418461 11.645721912384035 1.0000000180025095e-35 1.0000000180025095e-35 1.873773008269578 3.8319410166612893 0.20974339544773105 1.662540874847106 -0.02400221541504961 -0.06143350508445003 1.6573569742431766 -0.72225033205839362 1.0000000180025095e-35 -0.0025132233531760723 -0.0020214285850311724 -1.7461815751649301 2.2358832359313969 0.49500641393273015 1.0989333809298845
decision_type=2 2 2 2 2 2 2 2 2 2 2 2 2 2 2 2 2 2 2 2 2 2
left_child=1 3 8 7 -2 6 11 13 -3 -6 -7 12 -4 15 -15 16 19 18 -18 20 -1 -22
right_child=4 2 5 -5 9 10 -8 -9 -10 -11 -12 -13 -14 14 -16 -17 17 -19 -20 -21 21 -23
leaf_value=-5.9454023425907323 22.338326006692462 22.338326006692469 22.338326006685378 22.338326006692462 22.338326006684493 22.338326006691279 22.338326006690096 22.338326006692462 -5.9454023425907083 -5.9454023425907323 -5.945402342590711 -5.9454023425907332 -5.945402342590711 -5.9454023425907332 22.338326006692462 -5.9454023425907332 -5.9454023425907261 -5.9454023425907332 22.338326006684476 -5.9454023425907332 22.338326006684493 -5.9454023425907314
leaf_weight=0.11667485861107785 0.83793762093409796 1.5839495956897722 0.0035356017760931327 0.17678008880466123 0.0035356017760932437 0.021213610656559356 0.010606805328279623 0.0035356017760922445 0.0035356017760933547 0.049498424865305424 0.0035356017760932437 5.349365487229079 0.0035356017760932446 2.4925992521457379 0.017678008880465224 926.80143597442657 0.010606805328279734 0.13435286749154229 0.0035356017760932454 2.1602526851929724 0.0035356017760932437 0.035356017760932446
leaf_count=33 237 448 1 50 1 6 3 1 1 14 1 1513 1 705 5 262134 3 38 1 611 1 10
internal_value=-5.86517 -5.89045 0.616881 -5.93918 20.767 -5.75994 -5.87087 -5.94454 22.2753 -4.05982 18.2978 -5.92673 8.19646 -5.94465 -5.74622 -5.94519 -5.86424 -5.27198 1.12553 -5.90222 -5.30259 -3.37415
internal_weight=0 938.936 6.97928 931.956 0.890972 5.39179 5.36704 931.78 1.58749 0.053034 0.0247492 5.35644 0.0070712 931.776 2.51028 929.266 2.46431 0.148495 0.0141424 2.31582 0.155566 0.0388916
internal_count=265818 265566 1974 263592 252 1525 1518 263542 449 15 7 1515 2 263541 710 262831 697 42 4 655 44 11
is_linear=0
shrinkage=1


Tree=4
num_leaves=23
num_cat=0
split_feature=10 13 2 2 0 28 2 1 2 0 0 19 43 39 0 0 38 31 0 31 1 1
split_gain=89470.9 27064.3 9470.09 404.675 462.982 238.365 13437.3 17578.9 501.422 55.1733 812.849 5.80314 104.658 757.607 2.77556e-17 2.77556e-17 2.77556e-17 1.38778e-17 6.93889e-18 6.93889e-18 3.46945e-18 3.46945e-18
threshold=1.0000000180025095e-35 1.0000000180025095e-35 0.20717234393719211 0.59191848147132364 -0.054368821251785257 -3.5210389834398135 0.10886716342186332 0.041711876537780114 -0.026226793853435282 -0.039532985203189229 0.1660493143273557 -1.5519119925872891 4.2824566364288339 3.2189369201660161 7.0767230394400373 -0.051542947718719347 0.40363115072250372 6.3527421894386711 -0.064259378617515933 4.5222293986898991 0.051885754313353821 -0.0019015156631686815
decision_type=2 2 2 2 2 2 2 2 2 2 2 2 2 2 2 2 2 2 2 2 2 2
left_child=1 3 -2 5 -5 6 8 -8 14 11 -11 12 16 -14 15 -1 18 19 20 -18 21 -7
right_child=2 -3 -4 4 -6 9 7 -9 -10 10 -12 -13 13 -15 -16 -17 17 -19 -20 -21 -22 -23
leaf_value=-9.0152296131953076 598.64877790484707 377.68004789828626 251.41220218002539 -9.0152296131953076 77.793914317878318 -9.0152296131952383 511.83963397324646 -9.0152296131952543 41.623437679949312 77.793914317953607 -9.015229613195304 -9.0152296131953076 77.793914317878247 -9.0152296131952987 -9.0152296131952543 -9.0152296131952792 -9.0152296131953076 -9.0152296131953076 -9.0152296131952383 -9.0152296131953022 -9.015229613195304 -9.0152296131953076
leaf_weight=0.19517364664352399 0.0024684693926236836 0.001810210887923768 0.0011519523832248524 0.0013165170093988312 0.0011519523832248524 0.0011519523832248515 0.0011519523832248515 0.0014810816355748102 0.0019747755140997461 0.0011519523832238523 0.016950156496022828 43.342537548087421 0.0011519523832248533 0.0078991020563989878 0.0014810816355748093 0.0027975986449746406 0.048217435469268821 0.053318938880693167 0.0011519523832248515 0.012177782336948439 0.016950156496022828 0.029621632711495205
leaf_count=1186 15 11 7 8 7 7 7 9 12 7 103 263377 7 48 9 17 293 324 7 74 103 180
internal_value=-8.93522 -8.97636 488.164 -8.99237 31.4957 -8.99465 -5.58487 218.859 -8.51877 -9.01064 -3.49101 -9.01293 -8.43262 2.03321 -9.01523 -9.01523 -9.01523 -9.01523 -9.01523 -9.01523 -9.01523 -9.01523
internal_weight=0 43.7406 0.00362042 43.7388 0.00246847 43.7363 0.20406 0.00263303 0.201427 43.5323 0.0181021 43.5142 0.171641 0.00905105 0.199452 0.197971 0.16259 0.113714 0.0488757 0.0603952 0.0477237 0.0307736
internal_count=265818 265796 22 265785 15 265770 1240 16 1224 264530 110 264420 1043 55 1212 1203 988 691 297 367 290 187
is_linear=0
shrinkage=1


end of trees

feature_importances:
src_bytes=13
duration=11
dst_bytes=9
feature0=5
dst_host_diff_srv_rate=4
logged_in=3
count=3
serror_rate=3
dst_host_count=3
feature6=3
wrong_fragment=2
hot=2
dst_host_same_src_port_rate=2
feature1=2
feature9=2
land=1
num_compromised=1
root_shell=1
num_file_creations=1
num_access_files=1
is_guest_login=1
srv_count=1
srv_serror_rate=1
rerror_rate=1
diff_srv_rate=1
srv_diff_host_rate=1
dst_host_srv_count=1
dst_host_same_srv_rate=1
dst_host_srv_diff_host_rate=1
dst_host_serror_rate=1
dst_host_srv_serror_rate=1
feature2=1
feature3=1
feature4=1
feature5=1
feature7=1

parameters:
[boosting: gbdt]
[objective: multiclass]
[metric: multi_error]
[tree_learner: serial]
[device_type: cpu]
[data: ]
[valid: ]
[num_iterations: 100]
[learning_rate: 0.1]
[num_leaves: 23]
[num_threads: 0]
[deterministic: 0]
[force_col_wise: 0]
[force_row_wise: 0]
[histogram_pool_size: -1]
[max_depth: -1]
[min_data_in_leaf: 1]
[min_sum_hessian_in_leaf: 0.001]
[bagging_fraction: 1]
[pos_bagging_fraction: 1]
[neg_bagging_fraction: 1]
[bagging_freq: 0]
[bagging_seed: 5587]
[feature_fraction: 1]
[feature_fraction_bynode: 1]
[feature_fraction_seed: 28]
[extra_trees: 0]
[extra_seed: 6082]
[early_stopping_round: 0]
[first_metric_only: 0]
[max_delta_step: 0]
[lambda_l1: 0]
[lambda_l2: 0]
[linear_lambda: 0]
[min_gain_to_split: 0]
[drop_rate: 0.1]
[max_drop: 50]
[skip_drop: 0.5]
[xgboost_dart_mode: 0]
[uniform_drop: 0]
[drop_seed: 26336]
[top_rate: 0.2]
[other_rate: 0.1]
[min_data_per_group: 100]
[max_cat_threshold: 32]
[cat_l2: 10]
[cat_smooth: 10]
[max_cat_to_onehot: 4]
[top_k: 20]
[monotone_constraints: ]
[monotone_constraints_method: basic]
[monotone_penalty: 0]
[feature_contri: ]
[forcedsplits_filename: ]
[refit_decay_rate: 0.9]
[cegb_tradeoff: 1]
[cegb_penalty_split: 0]
[cegb_penalty_feature_lazy: ]
[cegb_penalty_feature_coupled: ]
[path_smooth: 0]
[interaction_constraints: ]
[verbosity: -1]
[saved_feature_importance_type: 0]
[linear_tree: 0]
[max_bin: 255]
[max_bin_by_feature: ]
[min_data_in_bin: 3]
[bin_construct_sample_cnt: 200000]
[data_random_seed: 6628]
[is_enable_sparse: 1]
[enable_bundle: 1]
[use_missing: 1]
[zero_as_missing: 0]
[feature_pre_filter: 1]
[pre_partition: 0]
[two_round: 0]
[header: 0]
[label_column: ]
[weight_column: ]
[group_column: ]
[ignore_column: ]
[categorical_feature: ]
[forcedbins_filename: ]
[precise_float_parser: 0]
[objective_seed: 15986]
[num_class: 5]
[is_unbalance: 0]
[scale_pos_weight: 1]
[sigmoid: 1]
[boost_from_average: 1]
[reg_sqrt: 0]
[alpha: 0.9]
[fair_c: 1]
[poisson_max_delta_step: 0.7]
[tweedie_variance_power: 1.5]
[lambdarank_truncation_level: 30]
[lambdarank_norm: 1]
[label_gain: ]
[eval_at: ]
[multi_error_top_k: 1]
[auc_mu_weights: ]
[num_machines: 1]
[local_listen_port: 12400]
[time_out: 120]
[machine_list_filename: ]
[machines: ]
[gpu_platform_id: -1]
[gpu_device_id: -1]
[gpu_use_dp: 0]
[num_gpu: 1]

end of parameters

pandas_categorical:[]
