tree
version=v3
num_class=5
num_tree_per_iteration=5
label_index=0
max_feature_idx=47
objective=multiclass num_class:5
feature_names=duration src_bytes dst_bytes land wrong_fragment urgent hot num_failed_logins logged_in num_compromised root_shell su_attempted num_root num_file_creations num_shells num_access_files num_outbound_cmds is_host_login is_guest_login count srv_count serror_rate srv_serror_rate rerror_rate srv_rerror_rate same_srv_rate diff_srv_rate srv_diff_host_rate dst_host_count dst_host_srv_count dst_host_same_srv_rate dst_host_diff_srv_rate dst_host_same_src_port_rate dst_host_srv_diff_host_rate dst_host_serror_rate dst_host_srv_serror_rate dst_host_rerror_rate dst_host_srv_rerror_rate feature0 feature1 feature2 feature3 feature4 feature5 feature6 feature7 feature8 feature9
feature_infos=[-0.067791720533848326:56.777480270619989] [-0.003061685831230673:5.1938510122693105] [-0.026287326600058027:156.0110317562204] [-0.0066734176481231472:149.84825657978121] [-0.047720185394377876:22.206628815910801] [-0.0025714681001558137:362.95721204820705] [-0.044135911646576681:38.31404248667652] [-0.0097821846314220823:322.16386006868646] [-0.41719170438758463:2.3969795887191636] [-0.0056786841552395762:426.50245523411104] [-0.01055195222316461:94.769193306685992] [-0.0046756707303497649:256.64860542683869] [-0.0056400120680036962:425.78710827307771] [-0.011232081539976346:259.2824199960607] [-0.0099189749306474607:181.47830007000971] [-0.027631815673041748:164.43859963748065] none none [-0.037262662385766712:26.836515052181909] [-1.5589493828289269:0.83845489282227337] [-1.1891178257149424:0.88539773305459135] [-0.46408975211861997:2.1625361321649903] [-0.4635204714740499:2.1610398570186433] [-0.24796047607757601:4.0693956008947678] [-0.24863128177301883:4.0589888568724621] [-2.039076684066409:0.53698740327617223] [-0.25524338928175266:11.909406159748098] [-0.20363306829960715:6.8189708658241033] [-3.5905420820176364:0.34796683739228829] [-1.779187885191744:0.62555755961896153] [-1.8349935901354413:0.59939618703564601] [-0.28286667702562751:8.8696972767182309] [-1.25062080884941:0.8270475709512366] [-0.15862929281970367:23.575830460248426] [-0.46441762593404301:2.1630630578708772] [-0.46320239184163192:2.1620272130196336] [-0.25203952228869597:4.0846756423426704] [-0.24946400466852289:4.0957154713221344] [0:60.383262634277344] [0:44.723873138427734] [0:98.570625305175781] [0:367.89743041992188] [0:220.31747436523438] [0:205.13246154785156] [0:53.177536010742188] [0:92.859909057617188] none [0:215.84278869628906]
tree_sizes=2533 2579 239 239 239 2584 2590 221 221 221 2575 2581 222 222 222 2581 2587 222 222 222 2578 2582 222 222 222 2576 2584 222 222 222 2592 2602 222 222 222 2588 2598 222 222 222 2597 2605 222 222 222 2606 2614 222 222 222 2576 2582 222 222 222 2584 2594 222 222 222 2588 2590 222 222 222 2590 2592 222 222 222 2608 2614 222 222 222 2616 2624 222 222 222 2595 2601 222 222 222 2606 2612 222 222 222 2617 2623 222 222 222 2588 2592 222 222 222 2602 2610 223 223 223 2598 2598 223 223 223 2607 2611 223 223 223 2610 2618 223 223 223 2606 2604 223 223 223 2600 2608 223 223 223 2608 2612 223 223 223 2599 2603 223 223 223 2604 2612 223 223 223 2610 2616 223 223 223 2619 2627 223 223 223 2594 2592 223 223 223 2623 2633 223 223 223 2609 2615 223 223 223 2620 2626 223 223 223 2624 2630 223 223 223 2600 2604 223 223 223 2623 2627 223 223 223 2623 2623 223 223 223 2627 2629 223 223 223 2626 2630 223 223 223 2616 2610 223 223 223 2618 2618 223 223 223 2614 2614 223 223 223 2632 2638 223 223 223 2634 2641 223 223 223 2607 2611 223 223 223 2643 2647 223 223 223 2630 2632 223 223 223 2610 2613 223 223 223 2619 2625 223 223 223 2630 2636 223 223 223 2641 2638 223 223 223 2623 2625 223 223 223 2651 2655 223 223 223 2630 2636 223 223 223 2638 2645 223 223 223 2640 2640 223 223 223 2647 2645 223 223 223 2636 2636 223 223 223 2666 2669 223 223 223 2648 2652 223 223 223 2658 2662 223 223 223 2651 2651 223 223 223 2649 2657 223 223 223 2645 2645 223 223 223

Tree=0
num_leaves=23
num_cat=0
split_feature=44 6 1 28 43 19 1 4 33 32 34 2 2 47 2 30 47 1 39 32 39 23
split_gain=235230 6123.72 6048.61 4227.05 3127.1 1329.31 969.147 793.679 562.464 712.106 507.901 380.879 374.193 361.294 196.179 153.59 149.806 148.567 137.267 148.088 135.989 125.469
threshold=1.0884374976158144 1.873773008269578 -0.0030328460145802 0.015896477520471127 6.4570820331573495 -1.5331456186095889 -0.0019288375947322872 1.0000000180025095e-35 2.3334889812524504 0.13102866371802005 -0.39873060883892003 -0.026272193413402339 -0.026272193413402339 5.7765164375305185 -0.025757665067109053 -0.070061001686403085 2.8966739177703862 -0.0028132586386801109 1.8562069535255434 0.81665922905223354 1.0000000180025095e-35 0.4212297158531374
decision_type=2 2 2 2 2 2 2 2 2 2 2 2 2 2 2 2 2 2 2 2 2 2
left_child=5 2 3 4 13 10 -3 8 20 -10 16 15 -7 18 -6 -5 -1 -11 19 -2 -4 -22
right_child=1 6 7 11 14 12 -8 -9 9 17 -12 -13 -14 -15 -16 -17 -18 -19 -20 -21 21 -23
leaf_value=-1.2251517475026104 -1.231070631950919 -1.2710654877121965 -1.4815974406875241 -1.7229755460657759 -1.7212289202758551 -1.7245832752037387 -1.7162176509103777 -1.7246241711326422 -1.2199082873729137 -1.2647220096224001 -1.7029430692328735 -1.2647220096224001 -1.2187317934713759 -1.6530356271239723 -1.3135866142828634 -1.2187317934713759 -1.5559933785788866 -1.7065565862161682 -1.2240706834286763 -1.6699331032773701 -1.2212712528992904 -1.4855761245454504
leaf_weight=77.882178753614426 16.208981364965439 57.32444629073143 20.1623914539814 424.59624356031418 176.71743097901344 51349.855293706059 333.07479999959469 31.824951216578484 84.998316913843155 8.6975021958351117 41.510805934667587 19.569379940629005 14.627617329359053 20.953073471784592 12.650912284851072 6.1277856379747382 16.604322373867035 60.882515370845795 767.94990979135036 14.627617329359056 11852.916458383203 17.988015905022621
leaf_count=394 82 290 102 2148 894 259775 1685 161 430 44 210 99 74 106 64 31 84 308 3885 74 59963 91
internal_value=-1.62501 -1.26039 -1.24913 -1.44143 -1.32774 -1.72361 -1.65085 -1.22589 -1.22458 -1.4141 -1.41138 -1.6962 -1.72444 -1.24313 -1.694 -1.7158 -1.28329 -1.65133 -1.23238 -1.43925 -1.22211 -1.22167
internal_weight=0 13927.3 13536.9 1459.4 1009.11 51500.5 390.399 12077.5 12045.6 154.578 135.997 450.293 51364.5 819.74 189.368 430.724 94.4865 69.58 798.787 30.8366 11891.1 11870.9
internal_count=330994 70457 68482 7383 5105 260537 1975 61099 60938 782 688 2278 259849 4147 958 2179 478 352 4041 156 60156 60054
is_linear=0
shrinkage=1


Tree=1
num_leaves=23
num_cat=0
split_feature=44 6 1 28 43 19 1 4 33 32 34 2 2 47 2 30 47 1 39 32 39 23
split_gain=235230 6123.72 6048.61 4227.05 3127.1 1329.31 969.147 793.679 562.464 712.106 507.901 380.879 374.193 361.294 196.179 153.59 149.806 148.567 137.267 148.088 135.989 125.469
threshold=1.0884374976158144 1.873773008269578 -0.0030328460145802 0.015896477520471127 6.4570820331573495 -1.5331456186095889 -0.0019288375947322872 1.0000000180025095e-35 2.3334889812524504 0.13102866371802005 -0.39873060883892003 -0.026272193413402339 -0.026272193413402339 5.7765164375305185 -0.025757665067109053 -0.070061001686403085 2.8966739177703862 -0.0028132586386801109 1.8562069535255434 0.81665922905223354 1.0000000180025095e-35 0.4212297158531374
decision_type=2 2 2 2 2 2 2 2 2 2 2 2 2 2 2 2 2 2 2 2 2 2
left_child=5 2 3 4 13 10 -3 8 20 -10 16 15 -7 18 -6 -5 -1 -11 19 -2 -4 -22
right_child=1 6 7 11 14 12 -8 -9 9 17 -12 -13 -14 -15 -16 -17 -18 -19 -20 -21 21 -23
leaf_value=-0.61914558206161519 -0.6132266976133065 -0.57323184185202891 -0.36269988887670146 -0.12132178349844966 -0.12306840928837036 -0.11971405436048677 -0.1280796786538477 -0.11967315843158334 -0.62438904219131175 -0.57957531994182532 -0.1413542603313519 -0.57957531994182532 -0.62556553609284948 -0.19126170244025309 -0.53071071528136216 -0.62556553609284948 -0.28830395098533873 -0.13774074334805714 -0.62022664613554912 -0.17436422628685538 -0.62302607666493504 -0.35872120501877508
leaf_weight=77.882178753614426 16.208981364965439 57.32444629073143 20.1623914539814 424.59624356031418 176.71743097901344 51349.855293706059 333.07479999959469 31.824951216578484 84.998316913843155 8.6975021958351117 41.510805934667587 19.569379940629005 14.627617329359053 20.953073471784592 12.650912284851072 6.1277856379747382 16.604322373867035 60.882515370845795 767.94990979135036 14.627617329359056 11852.916458383203 17.988015905022621
leaf_count=394 82 290 102 2148 894 259775 1685 161 430 44 210 99 74 106 64 31 84 308 3885 74 59963 91
internal_value=-0.219288 -0.583906 -0.595167 -0.402871 -0.516558 -0.120685 -0.193444 -0.618403 -0.619721 -0.430195 -0.432915 -0.148099 -0.119858 -0.601168 -0.150301 -0.128496 -0.561006 -0.19297 -0.61192 -0.405048 -0.622185 -0.622626
internal_weight=0 13927.3 13536.9 1459.4 1009.11 51500.5 390.399 12077.5 12045.6 154.578 135.997 450.293 51364.5 819.74 189.368 430.724 94.4865 69.58 798.787 30.8366 11891.1 11870.9
internal_count=330994 70457 68482 7383 5105 260537 1975 61099 60938 782 688 2278 259849 4147 958 2179 478 352 4041 156 60156 60054
is_linear=0
shrinkage=1


Tree=2
num_leaves=1
num_cat=0
split_feature=
split_gain=
threshold=
decision_type=
left_child=
right_child=
leaf_value=-34.538776391283193
leaf_weight=
leaf_count=
internal_value=
internal_weight=
internal_count=
is_linear=0
shrinkage=1


Tree=3
num_leaves=1
num_cat=0
split_feature=
split_gain=
threshold=
decision_type=
left_child=
right_child=
leaf_value=-34.538776391283193
leaf_weight=
leaf_count=
internal_value=
internal_weight=
internal_count=
is_linear=0
shrinkage=1


Tree=4
num_leaves=1
num_cat=0
split_feature=
split_gain=
threshold=
decision_type=
left_child=
right_child=
leaf_value=-34.538776391283193
leaf_weight=
leaf_count=
internal_value=
internal_weight=
internal_count=
is_linear=0
shrinkage=1


Tree=5
num_leaves=23
num_cat=0
split_feature=44 9 31 4 33 19 32 1 34 6 2 1 28 2 2 0 31 25 41 29 20 1
split_gain=125630 2289.51 2057.42 1354.28 1073.14 924.979 294.341 732.695 275.315 266.777 215.466 166.272 402.367 162.147 132.167 102.918 88.7076 87.4966 69.0715 63.8397 62.4646 52.5451
threshold=1.0884374976158144 1.0000000180025095e-35 8.0917293406500068 1.0000000180025095e-35 10.877894492356978 -1.5237624316207388 0.81665922905223354 -0.0027242093802505815 -0.39873060883892003 29.363800860401131 -0.026272193413402339 -0.0030429652484926461 -3.5673743824916948 -0.026272193413402339 -0.026272193413402339 -0.030348896220725032 -0.054052578182031047 -1.5367441870346055 1.0000000180025095e-35 -1.7556119494583056 0.083603559166170807 -0.003053084482405093
decision_type=2 2 2 2 2 2 2 2 2 2 2 2 2 2 2 2 2 2 2 2 2 2
left_child=5 2 3 4 6 8 9 11 19 17 -9 12 -8 -7 -6 -11 -3 21 -4 -1 -19 -2
right_child=1 16 18 -5 14 13 7 10 -10 15 -12 -13 -14 -15 -16 -17 -18 20 -20 -21 -22 -23
leaf_value=-0.0085819735013689426 -0.092828636827533742 -0.093882468862082416 0.21566130112380325 -0.096174148289652595 -0.081869992798969837 -0.096035675972151818 0.21311643405026912 -0.093530039375294458 -0.077909481664452468 -0.096344458757499335 0.22452451121926942 0.22270997573816512 -0.084678673612852307 0.22477674815177986 0.23845008425670253 0.47157012632441603 0.22782285890097459 0.22432753858507809 -0.093811573457110026 0.22249148652037418 -0.12398204900713546 0.21159827975264933
leaf_weight=13.233021572232245 13.927768036723139 257.21376098692417 7.4513838589191428 138.14266303181648 132.97981838881969 45225.603066504002 151.32296276092529 120.84990909695625 48.076398968696594 33.98398420214653 25.857065036892891 797.66264019906521 64.801706179976463 15.760091841220854 14.26271668076515 3.5216563940048209 8.8667247444391233 17539.246937915683 224.45601332187653 123.90628296136856 5.1502736806869498 9.5625470131635648
leaf_count=59 75 1455 28 791 744 259708 543 538 270 193 91 2797 355 55 53 20 32 61414 1276 445 18 34
internal_value=0 0.20817 0.21219 0.215794 0.218073 -0.0950109 0.220183 0.171403 0.128007 0.223398 -0.037473 0.20163 0.123827 -0.0959239 -0.050842 -0.0430191 -0.0831621 0.223967 -0.0838679 0.200194 0.224225 0.0310989
internal_weight=0 19549.3 19283.2 19051.3 18913.1 45426.6 18765.9 1160.49 185.216 17605.4 146.707 1013.79 216.125 45241.4 147.243 37.5056 266.08 17567.9 231.907 137.139 17544.4 23.4903
internal_count=330994 70457 68970 67666 66875 260537 66078 4324 774 61754 629 3695 898 259763 797 213 1487 61541 1304 504 61432 109
is_linear=0
shrinkage=0.1


Tree=6
num_leaves=23
num_cat=0
split_feature=44 9 31 4 33 19 32 1 34 6 2 1 28 2 2 0 31 25 41 29 20 1
split_gain=125630 2289.51 2057.42 1354.28 1073.14 924.979 294.341 732.695 275.315 266.777 215.466 166.272 402.367 162.147 132.167 102.918 88.7076 87.4966 69.0715 63.8397 62.4646 52.5451
threshold=1.0884374976158144 1.0000000180025095e-35 8.0917293406500068 1.0000000180025095e-35 10.877894492356978 -1.5237624316207388 0.81665922905223354 -0.0027242093802505815 -0.39873060883892003 29.363800860401131 -0.026272193413402339 -0.0030429652484926461 -3.5673743824916948 -0.026272193413402339 -0.026272193413402339 -0.030348896220725032 -0.054052578182031047 -1.5367441870346055 1.0000000180025095e-35 -1.7556119494583056 0.083603559166170807 -0.003053084482405093
decision_type=2 2 2 2 2 2 2 2 2 2 2 2 2 2 2 2 2 2 2 2 2 2
left_child=5 2 3 4 6 8 9 11 19 17 -9 12 -8 -7 -6 -11 -3 21 -4 -1 -19 -2
right_child=1 16 18 -5 14 13 7 10 -10 15 -12 -13 -14 -15 -16 -17 -18 20 -20 -21 -22 -23
leaf_value=0.0085819735013689426 0.092828636827533742 0.093882468862082416 -0.21566130112380325 0.096174148289652595 0.081869992798969837 0.096035675972151818 -0.21311643405026912 0.093530039375294458 0.077909481664452468 0.096344458757499335 -0.22452451121926942 -0.22270997573816512 0.084678673612852307 -0.22477674815177986 -0.23845008425670253 -0.47157012632441603 -0.22782285890097459 -0.22432753858507809 0.093811573457110026 -0.22249148652037418 0.12398204900713546 -0.21159827975264933
leaf_weight=13.233021572232245 13.927768036723139 257.21376098692417 7.4513838589191428 138.14266303181648 132.97981838881969 45225.603066504002 151.32296276092529 120.84990909695625 48.076398968696594 33.98398420214653 25.857065036892891 797.66264019906521 64.801706179976463 15.760091841220854 14.26271668076515 3.5216563940048209 8.8667247444391233 17539.246937915683 224.45601332187653 123.90628296136856 5.1502736806869498 9.5625470131635648
leaf_count=59 75 1455 28 791 744 259708 543 538 270 193 91 2797 355 55 53 20 32 61414 1276 445 18 34
internal_value=0 -0.20817 -0.21219 -0.215794 -0.218073 0.0950109 -0.220183 -0.171403 -0.128007 -0.223398 0.037473 -0.20163 -0.123827 0.0959239 0.050842 0.0430191 0.0831621 -0.223967 0.0838679 -0.200194 -0.224225 -0.0310989
internal_weight=0 19549.3 19283.2 19051.3 18913.1 45426.6 18765.9 1160.49 185.216 17605.4 146.707 1013.79 216.125 45241.4 147.243 37.5056 266.08 17567.9 231.907 137.139 17544.4 23.4903
internal_count=330994 70457 68970 67666 66875 260537 66078 4324 774 61754 629 3695 898 259763 797 213 1487 61541 1304 504 61432 109
is_linear=0
shrinkage=0.1


Tree=7
num_leaves=1
num_cat=0
split_feature=
split_gain=
threshold=
decision_type=
left_child=
right_child=
leaf_value=0
leaf_weight=
leaf_count=
internal_value=
internal_weight=
internal_count=
is_linear=0
shrinkage=1


Tree=8
num_leaves=1
num_cat=0
split_feature=
split_gain=
threshold=
decision_type=
left_child=
right_child=
leaf_value=0
leaf_weight=
leaf_count=
internal_value=
internal_weight=
internal_count=
is_linear=0
shrinkage=1


Tree=9
num_leaves=1
num_cat=0
split_feature=
split_gain=
threshold=
decision_type=
left_child=
right_child=
leaf_value=0
leaf_weight=
leaf_count=
internal_value=
internal_weight=
internal_count=
is_linear=0
shrinkage=1


Tree=10
num_leaves=23
num_cat=0
split_feature=44 9 31 4 19 33 34 6 32 1 2 2 29 1 28 1 28 32 0 25 37 20
split_gain=88053.9 1380.97 1236.12 817.662 729.264 628.355 171.746 156.992 158.287 443.658 149.687 120.55 103.525 90.2988 252.083 70.2199 52.1319 51.8054 50.3993 48.4965 46.3899 38.6537
threshold=1.0884374976158144 1.0000000180025095e-35 8.0917293406500068 1.0000000180025095e-35 -1.5237624316207388 10.877894492356978 -0.39873060883892003 29.363800860401131 0.81665922905223354 -0.0027242093802505815 -0.026272193413402339 -0.026272193413402339 -1.7084600779914287 -0.0030429652484926461 -3.5673743824916948 0.0051065597828961412 -3.551929249474401 0.81665922905223354 -0.030348896220725032 -1.5367441870346055 1.0000000180025095e-35 0.083603559166170807
decision_type=2 2 2 2 2 2 2 2 2 2 2 2 2 2 2 2 2 2 2 2 2 2
left_child=4 2 3 5 6 7 17 8 19 13 -11 -6 -7 14 20 -3 -4 -1 -9 -2 -10 -21
right_child=1 15 16 -5 11 12 -8 18 9 10 -12 -13 -14 -15 -16 -17 -18 -19 -20 21 -22 -23
leaf_value=0.16737389333317679 0.025667695768369875 0.13689192371303557 0.16067976340263401 -0.093346544363282297 -0.093221504874469396 0.14489931340329421 -0.07342666343150131 -0.09347989821234047 -0.044773588844762208 -0.086906142966666225 0.1714288170363821 0.17235495158638248 -0.087239840103872507 0.17040479556629828 -0.080251661016352893 -0.093546444491590858 -0.091007555543881694 -0.086423585063332101 0.23247861712997936 0.171668921570414 0.17554885866273057 -0.11432306324921651
leaf_weight=140.69875821471214 22.800182044506073 14.061267852783201 8.5882154852151853 120.98322086036205 39604.255764245987 23.185775488615036 43.261363953351974 29.771966144442558 10.183164075016974 110.16577273607254 28.163269758224487 17.099182158708572 112.06009468436241 867.1509570479393 58.013042733073235 221.98302590847015 197.1123404353857 8.5302835106849653 5.6425172090530387 19064.051178202033 155.33424907922745 4.7270565032958975
leaf_count=468 109 53 34 791 259708 89 270 193 42 538 91 55 708 2797 355 1434 1270 36 20 61414 501 18
internal_value=0 0.160699 0.163426 0.16586 -0.0921636 0.16739 0.102008 0.168818 0.169184 0.134399 -0.0343101 -0.0931069 -0.0474432 0.155796 0.0991237 -0.0798191 -0.0804993 0.152866 -0.0415456 0.171424 0.161994 0.171598
internal_weight=0 21054 20817.9 20612.2 39813.8 20491.2 192.49 20356 20320.6 1229.01 138.329 39621.4 135.246 1090.68 223.53 236.044 205.701 149.229 35.4145 19091.6 165.517 19068.8
internal_count=330994 70457 68970 67666 260537 66875 774 66078 65865 4324 629 259763 797 3695 898 1487 1304 504 213 61541 543 61432
is_linear=0
shrinkage=0.1


Tree=11
num_leaves=23
num_cat=0
split_feature=44 9 31 4 19 33 34 6 32 1 2 2 29 1 28 1 28 32 0 25 37 20
split_gain=88053.9 1380.97 1236.12 817.662 729.264 628.355 171.746 156.992 158.287 443.658 149.687 120.55 103.525 90.2988 252.083 70.2199 52.1319 51.8054 50.3993 48.4965 46.3899 38.6537
threshold=1.0884374976158144 1.0000000180025095e-35 8.0917293406500068 1.0000000180025095e-35 -1.5237624316207388 10.877894492356978 -0.39873060883892003 29.363800860401131 0.81665922905223354 -0.0027242093802505815 -0.026272193413402339 -0.026272193413402339 -1.7084600779914287 -0.0030429652484926461 -3.5673743824916948 0.0051065597828961412 -3.551929249474401 0.81665922905223354 -0.030348896220725032 -1.5367441870346055 1.0000000180025095e-35 0.083603559166170807
decision_type=2 2 2 2 2 2 2 2 2 2 2 2 2 2 2 2 2 2 2 2 2 2
left_child=4 2 3 5 6 7 17 8 19 13 -11 -6 -7 14 20 -3 -4 -1 -9 -2 -10 -21
right_child=1 15 16 -5 11 12 -8 18 9 10 -12 -13 -14 -15 -16 -17 -18 -19 -20 21 -22 -23
leaf_value=-0.16737389333317679 -0.025667695768369875 -0.13689192371303557 -0.16067976340263401 0.093346544363282297 0.093221504874469396 -0.14489931340329421 0.07342666343150131 0.09347989821234047 0.044773588844762208 0.086906142966666225 -0.1714288170363821 -0.17235495158638248 0.087239840103872507 -0.17040479556629828 0.080251661016352893 0.093546444491590858 0.091007555543881694 0.086423585063332101 -0.23247861712997936 -0.171668921570414 -0.17554885866273057 0.11432306324921651
leaf_weight=140.69875821471214 22.800182044506073 14.061267852783201 8.5882154852151853 120.98322086036205 39604.255764245987 23.185775488615036 43.261363953351974 29.771966144442558 10.183164075016974 110.16577273607254 28.163269758224487 17.099182158708572 112.06009468436241 867.1509570479393 58.013042733073235 221.98302590847015 197.1123404353857 8.5302835106849653 5.6425172090530387 19064.051178202033 155.33424907922745 4.7270565032958975
leaf_count=468 109 53 34 791 259708 89 270 193 42 538 91 55 708 2797 355 1434 1270 36 20 61414 501 18
internal_value=0 -0.160699 -0.163426 -0.16586 0.0921636 -0.16739 -0.102008 -0.168818 -0.169184 -0.134399 0.0343101 0.0931069 0.0474432 -0.155796 -0.0991237 0.0798191 0.0804993 -0.152866 0.0415456 -0.171424 -0.161994 -0.171598
internal_weight=0 21054 20817.9 20612.2 39813.8 20491.2 192.49 20356 20320.6 1229.01 138.329 39621.4 135.246 1090.68 223.53 236.044 205.701 149.229 35.4145 19091.6 165.517 19068.8
internal_count=330994 70457 68970 67666 260537 66875 774 66078 65865 4324 629 259763 797 3695 898 1487 1304 504 213 61541 543 61432
is_linear=0
shrinkage=0.1


Tree=12
num_leaves=1
num_cat=0
split_feature=
split_gain=
threshold=
decision_type=
left_child=
right_child=
leaf_value=0
leaf_weight=
leaf_count=
internal_value=
internal_weight=
internal_count=
is_linear=0
shrinkage=1


Tree=13
num_leaves=1
num_cat=0
split_feature=
split_gain=
threshold=
decision_type=
left_child=
right_child=
leaf_value=0
leaf_weight=
leaf_count=
internal_value=
internal_weight=
internal_count=
is_linear=0
shrinkage=1


Tree=14
num_leaves=1
num_cat=0
split_feature=
split_gain=
threshold=
decision_type=
left_child=
right_child=
leaf_value=0
leaf_weight=
leaf_count=
internal_value=
internal_weight=
internal_count=
is_linear=0
shrinkage=1


Tree=15
num_leaves=23
num_cat=0
split_feature=44 9 31 19 4 33 21 6 32 1 2 2 32 1 28 1 37 1 35 0 19 6
split_gain=66486.5 954.01 852.447 596.544 565.666 428.18 136.755 106.649 102.046 305.925 111.281 91.5843 80.0725 58.0598 178.034 54.9585 53.4738 43.7454 43.2096 35.6654 33.3222 32.2531
threshold=1.0884374976158144 1.0000000180025095e-35 8.0917293406500068 -1.5190708381263136 1.0000000180025095e-35 10.877894492356978 1.2563502020871453 29.363800860401131 0.81665922905223354 -0.0027242093802505815 -0.026272193413402339 -0.026272193413402339 0.81665922905223354 -0.0030429652484926461 -3.5673743824916948 0.0051065597828961412 3.6394716263431159 -0.0030540964057963376 0.24560960147090979 -0.030348896220725032 0.17928600685555399 1.0000000180025095e-35
decision_type=2 2 2 2 2 2 2 2 2 2 2 2 2 2 2 2 2 2 2 2 2 2
left_child=3 2 4 6 5 7 16 8 18 13 -11 -5 -7 14 -10 -3 -1 -4 20 -9 21 -2
right_child=1 15 17 11 -6 12 -8 19 9 10 -12 -13 -14 -15 -16 -17 -18 -19 -20 -21 -22 -23
leaf_value=0.14441512822076871 0.14489003106243881 0.10885335087790621 -0.090773733603972145 -0.090970569359831568 -0.091075567910003263 0.1658718334976739 -0.092173535667439452 -0.091181267908071351 0.13620965808169003 -0.081074361774076731 0.14404528269231776 0.14542664250203194 -0.075398684039164943 0.14329495062530884 -0.076149130175826252 -0.091234963039572736 -0.043166252443349588 0.10372392214146325 -0.024495422195138495 0.1757812623182381 -0.089318795827030353 0.094516707580463571
leaf_weight=142.04321703314781 18884.361203834414 14.775426536798475 169.4845752120018 34513.014166221023 105.450404047966 15.770720481872557 35.721966087818146 25.955962836742401 165.1725746691227 100.06185951828957 28.131398469209671 16.396174639463425 107.64483265578747 865.56822741031647 51.878288865089417 193.55227133631706 17.017856538295746 12.410655960440634 15.146035462617872 6.19962453842163 6.0943028777837744 127.96873658895493
leaf_count=477 61041 53 1252 259673 791 52 250 193 543 538 91 53 745 2797 355 1434 84 52 57 20 29 414
internal_value=0 0.135881 0.138026 -0.0898739 0.139937 0.141132 0.0846376 0.142262 0.142551 0.114402 -0.0316729 -0.0908583 -0.0445678 0.131698 0.0854528 -0.0770439 0.124346 -0.0775032 0.144342 -0.0397107 0.144476 0.144551
internal_weight=0 20895.6 20687.3 34724.2 20505.4 20400 194.783 20276.5 20244.4 1210.81 128.193 34529.4 123.416 1082.62 217.051 208.328 159.061 181.895 19033.6 32.1556 19018.4 19012.3
internal_count=330994 70457 68970 260537 67666 66875 811 66078 65865 4324 629 259726 797 3695 898 1487 561 1304 61541 213 61484 61455
is_linear=0
shrinkage=0.1


Tree=16
num_leaves=23
num_cat=0
split_feature=44 9 31 19 4 33 21 6 32 1 2 2 32 1 28 1 37 1 35 0 19 6
split_gain=66486.5 954.01 852.447 596.544 565.666 428.18 136.755 106.649 102.046 305.925 111.281 91.5843 80.0725 58.0598 178.034 54.9585 53.4738 43.7454 43.2096 35.6654 33.3222 32.2531
threshold=1.0884374976158144 1.0000000180025095e-35 8.0917293406500068 -1.5190708381263136 1.0000000180025095e-35 10.877894492356978 1.2563502020871453 29.363800860401131 0.81665922905223354 -0.0027242093802505815 -0.026272193413402339 -0.026272193413402339 0.81665922905223354 -0.0030429652484926461 -3.5673743824916948 0.0051065597828961412 3.6394716263431159 -0.0030540964057963376 0.24560960147090979 -0.030348896220725032 0.17928600685555399 1.0000000180025095e-35
decision_type=2 2 2 2 2 2 2 2 2 2 2 2 2 2 2 2 2 2 2 2 2 2
left_child=3 2 4 6 5 7 16 8 18 13 -11 -5 -7 14 -10 -3 -1 -4 20 -9 21 -2
right_child=1 15 17 11 -6 12 -8 19 9 10 -12 -13 -14 -15 -16 -17 -18 -19 -20 -21 -22 -23
leaf_value=-0.14441512822076871 -0.14489003106243881 -0.10885335087790621 0.090773733603972145 0.090970569359831568 0.091075567910003263 -0.1658718334976739 0.092173535667439452 0.091181267908071351 -0.13620965808169003 0.081074361774076731 -0.14404528269231776 -0.14542664250203194 0.075398684039164943 -0.14329495062530884 0.076149130175826252 0.091234963039572736 0.043166252443349588 -0.10372392214146325 0.024495422195138495 -0.1757812623182381 0.089318795827030353 -0.094516707580463571
leaf_weight=142.04321703314781 18884.361203834414 14.775426536798475 169.4845752120018 34513.014166221023 105.450404047966 15.770720481872557 35.721966087818146 25.955962836742401 165.1725746691227 100.06185951828957 28.131398469209671 16.396174639463425 107.64483265578747 865.56822741031647 51.878288865089417 193.55227133631706 17.017856538295746 12.410655960440634 15.146035462617872 6.19962453842163 6.0943028777837744 127.96873658895493
leaf_count=477 61041 53 1252 259673 791 52 250 193 543 538 91 53 745 2797 355 1434 84 52 57 20 29 414
internal_value=0 -0.135881 -0.138026 0.0898739 -0.139937 -0.141132 -0.0846376 -0.142262 -0.142551 -0.114402 0.0316729 0.0908583 0.0445678 -0.131698 -0.0854528 0.0770439 -0.124346 0.0775032 -0.144342 0.0397107 -0.144476 -0.144551
internal_weight=0 20895.6 20687.3 34724.2 20505.4 20400 194.783 20276.5 20244.4 1210.81 128.193 34529.4 123.416 1082.62 217.051 208.328 159.061 181.895 19033.6 32.1556 19018.4 19012.3
internal_count=330994 70457 68970 260537 67666 66875 811 66078 65865 4324 629 259726 797 3695 898 1487 561 1304 61541 213 61484 61455
is_linear=0
shrinkage=0.1


Tree=17
num_leaves=1
num_cat=0
split_feature=
split_gain=
threshold=
decision_type=
left_child=
right_child=
leaf_value=0
leaf_weight=
leaf_count=
internal_value=
internal_weight=
internal_count=
is_linear=0
shrinkage=1


Tree=18
num_leaves=1
num_cat=0
split_feature=
split_gain=
threshold=
decision_type=
left_child=
right_child=
leaf_value=0
leaf_weight=
leaf_count=
internal_value=
internal_weight=
internal_count=
is_linear=0
shrinkage=1


Tree=19
num_leaves=1
num_cat=0
split_feature=
split_gain=
threshold=
decision_type=
left_child=
right_child=
leaf_value=0
leaf_weight=
leaf_count=
internal_value=
internal_weight=
internal_count=
is_linear=0
shrinkage=1


Tree=20
num_leaves=23
num_cat=0
split_feature=44 9 31 19 4 33 21 2 19 39 6 2 29 32 1 43 23 1 6 1 41 37
split_gain=52059.7 703.574 628.289 493.77 417.743 313.242 101.052 82.9011 285.89 128.876 80.1503 74.1292 67.9647 57.9772 226.103 54.7553 52.0284 64.3425 44.6654 44.4528 37.3492 37.1942
threshold=1.0884374976158144 1.0000000180025095e-35 8.0917293406500068 -1.5190708381263136 1.0000000180025095e-35 10.877894492356978 1.2563502020871453 -0.026272193413402339 -1.4440053422155128 12.492636680603029 29.363800860401131 -0.026272193413402339 -1.6613082065245524 0.81665922905223354 -0.0028527236509386521 6.0089774131774911 0.4212297158531374 0.0051065597828961412 1.0000000180025095e-35 -0.001498770153453311 1.0000000180025095e-35 4.0739895739421819
decision_type=2 2 2 2 2 2 2 2 2 2 2 2 2 2 2 2 2 2 2 2 2 2
left_child=3 2 4 6 5 7 18 8 9 13 16 -5 -7 -2 15 -15 -9 -18 21 -3 -4 -1
right_child=1 19 20 11 -6 12 -8 10 -10 -11 -12 -13 -14 14 -16 -17 17 -19 -20 -21 -22 -23
leaf_value=0.13597283449042388 0.12353645362403683 0.12196792591778732 0.13328503839308245 -0.089133631079669859 -0.089232706787624905 0.09971855081789828 -0.090126108563148691 0.129137965866395 -0.10051965215957315 -0.093676196682321661 -0.038227724383114912 0.12891461594393155 -0.084649611399568586 0.12137189979779772 -0.074587520727582665 -0.098938723580469567 0.14797466227920894 -0.14960174566500481 -0.098265037125147101 -0.087001489207982882 -0.086107553749094942 -0.055693025472179351
leaf_weight=134.02091370522976 2364.9783041924238 10.81872448325157 8.1766167134046537 29965.556459724903 91.559744045138359 26.046656891703606 31.073937729001045 16337.380964025855 62.912945792078972 29.300264090299606 28.745494477450848 15.599482148885725 86.051328375935555 389.80611389875412 74.598449803888798 11.61741006374359 14.159514859318735 14.925012707710264 9.8789550960063917 172.33329682052135 152.12859386205673 10.952192708849905
leaf_count=458 8017 36 28 259673 791 105 250 55380 297 187 213 53 692 1369 448 73 46 48 52 1451 1276 51
internal_value=0 0.120434 0.122248 -0.0880127 0.123867 0.12487 0.0744485 0.125837 0.110353 0.114976 0.128607 -0.0890202 -0.0418105 0.117127 0.0852859 0.114996 0.1289 -0.00472961 0.107473 -0.0746577 -0.0749171 0.121493
internal_weight=0 19875.5 19692.4 30167.1 19532.1 19440.5 185.926 19328.4 2933.21 2870.3 16395.2 29981.2 112.098 2841 476.022 401.424 16366.5 29.0845 154.852 183.152 160.305 144.973
internal_count=330994 70457 68970 260537 67666 66875 811 66078 10391 10094 55687 259726 797 9907 1890 1442 55474 94 561 1487 1304 509
is_linear=0
shrinkage=0.1


Tree=21
num_leaves=23
num_cat=0
split_feature=44 9 31 19 4 33 21 2 19 39 6 2 29 32 1 43 23 1 6 1 41 37
split_gain=52059.7 703.574 628.289 493.77 417.743 313.242 101.052 82.9011 285.89 128.876 80.1503 74.1292 67.9647 57.9772 226.103 54.7553 52.0284 64.3425 44.6654 44.4528 37.3492 37.1942
threshold=1.0884374976158144 1.0000000180025095e-35 8.0917293406500068 -1.5190708381263136 1.0000000180025095e-35 10.877894492356978 1.2563502020871453 -0.026272193413402339 -1.4440053422155128 12.492636680603029 29.363800860401131 -0.026272193413402339 -1.6613082065245524 0.81665922905223354 -0.0028527236509386521 6.0089774131774911 0.4212297158531374 0.0051065597828961412 1.0000000180025095e-35 -0.001498770153453311 1.0000000180025095e-35 4.0739895739421819
decision_type=2 2 2 2 2 2 2 2 2 2 2 2 2 2 2 2 2 2 2 2 2 2
left_child=3 2 4 6 5 7 18 8 9 13 16 -5 -7 -2 15 -15 -9 -18 21 -3 -4 -1
right_child=1 19 20 11 -6 12 -8 10 -10 -11 -12 -13 -14 14 -16 -17 17 -19 -20 -21 -22 -23
leaf_value=-0.13597283449042388 -0.12353645362403683 -0.12196792591778732 -0.13328503839308245 0.089133631079669859 0.089232706787624905 -0.09971855081789828 0.090126108563148691 -0.129137965866395 0.10051965215957315 0.093676196682321661 0.038227724383114912 -0.12891461594393155 0.084649611399568586 -0.12137189979779772 0.074587520727582665 0.098938723580469567 -0.14797466227920894 0.14960174566500481 0.098265037125147101 0.087001489207982882 0.086107553749094942 0.055693025472179351
leaf_weight=134.02091370522976 2364.9783041924238 10.81872448325157 8.1766167134046537 29965.556459724903 91.559744045138359 26.046656891703606 31.073937729001045 16337.380964025855 62.912945792078972 29.300264090299606 28.745494477450848 15.599482148885725 86.051328375935555 389.80611389875412 74.598449803888798 11.61741006374359 14.159514859318735 14.925012707710264 9.8789550960063917 172.33329682052135 152.12859386205673 10.952192708849905
leaf_count=458 8017 36 28 259673 791 105 250 55380 297 187 213 53 692 1369 448 73 46 48 52 1451 1276 51
internal_value=0 -0.120434 -0.122248 0.0880127 -0.123867 -0.12487 -0.0744485 -0.125837 -0.110353 -0.114976 -0.128607 0.0890202 0.0418105 -0.117127 -0.0852859 -0.114996 -0.1289 0.00472961 -0.107473 0.0746577 0.0749171 -0.121493
internal_weight=0 19875.5 19692.4 30167.1 19532.1 19440.5 185.926 19328.4 2933.21 2870.3 16395.2 29981.2 112.098 2841 476.022 401.424 16366.5 29.0845 154.852 183.152 160.305 144.973
internal_count=330994 70457 68970 260537 67666 66875 811 66078 10391 10094 55687 259726 797 9907 1890 1442 55474 94 561 1487 1304 509
is_linear=0
shrinkage=0.1


Tree=22
num_leaves=1
num_cat=0
split_feature=
split_gain=
threshold=
decision_type=
left_child=
right_child=
leaf_value=0
leaf_weight=
leaf_count=
internal_value=
internal_weight=
internal_count=
is_linear=0
shrinkage=1


Tree=23
num_leaves=1
num_cat=0
split_feature=
split_gain=
threshold=
decision_type=
left_child=
right_child=
leaf_value=0
leaf_weight=
leaf_count=
internal_value=
internal_weight=
internal_count=
is_linear=0
shrinkage=1


Tree=24
num_leaves=1
num_cat=0
split_feature=
split_gain=
threshold=
decision_type=
left_child=
right_child=
leaf_value=0
leaf_weight=
leaf_count=
internal_value=
internal_weight=
internal_count=
is_linear=0
shrinkage=1


Tree=25
num_leaves=23
num_cat=0
split_feature=44 1 31 19 4 33 21 30 2 19 39 6 29 2 2 32 1 43 39 34 47 1
split_gain=41658.3 543.643 483.947 413.626 320.828 238.528 94.4459 75.4084 69.1685 219.32 98.7246 63.305 56.4472 56.3042 56.0891 44.733 168.904 41.4449 37.0284 35.629 35.519 31.4586
threshold=1.0884374976158144 0.051885754313353821 8.0917293406500068 -1.5096876511374637 1.0000000180025095e-35 10.877894492356978 1.2563502020871453 0.58722423814979063 -0.026272193413402339 -1.4440053422155128 12.492636680603029 23.610074100652671 -1.5858652121775498 -0.026272193413402339 0.052314444889569059 0.81665922905223354 -0.0028527236509386521 6.0089774131774911 1.0000000180025095e-35 -0.37245580200087075 2.3773924112319951 -0.0012422475737727922
decision_type=2 2 2 2 2 2 2 2 2 2 2 2 2 2 2 2 2 2 2 2 2 2
left_child=3 2 4 6 5 8 20 -3 9 10 15 18 -7 -5 -13 19 17 -17 -10 -2 -1 -18
right_child=1 7 -4 13 -6 12 -8 -9 11 -11 -12 14 -14 -15 -16 16 21 -19 -20 -21 -22 -23
leaf_value=0.12546250613694021 0.11355433175315593 0.10469411929586106 -0.07300147008264378 -0.087643871464136811 -0.087724780332496699 0.078407267489780996 -0.088315640536311607 -0.090372676813667674 -0.036677839309233656 -0.093245004285210875 -0.088637841486840757 -0.1041636813938579 -0.085869201809759904 0.11779765642950142 0.14094516953996869 0.10858176126542479 -0.090634423604623038 -0.095783639596126846 0.11789999858340557 0.0022364116100545509 0.0073012485664139528 0.16074314342019902
leaf_weight=113.95259304344654 2155.889542773366 22.76627005636692 140.91769096255302 25930.564498364925 79.251532159745693 29.37627762556076 32.930353656411171 153.0149687230587 15.512614399194716 57.43970650434494 26.269322454929352 24.113174885511398 72.633545972406864 13.347122073173521 15.234342157840727 367.85191777348518 60.80541880428791 10.198412820696829 15144.819877132773 29.141025692224503 32.751261934638023 5.422305963933467
leaf_count=419 7844 83 1305 259608 791 127 310 1461 57 297 187 203 671 49 51 1369 397 73 55405 102 151 34
internal_value=0 0.109911 0.111598 -0.0864911 0.113036 0.113919 0.0647295 -0.0651086 0.114788 0.100079 0.104261 0.117413 -0.0385617 -0.0875382 -0.00926387 0.106188 0.0772618 0.103069 0.117742 0.11207 0.0990833 -0.0700532
internal_weight=0 18410.7 18234.9 26123.5 18094 18014.7 179.634 175.781 17912.7 2713.02 2655.58 15199.7 102.01 25943.9 39.3475 2629.31 444.278 378.05 15160.3 2185.03 146.704 66.2277
internal_count=330994 70457 68913 260537 67608 66817 880 1544 66019 10303 10006 55716 798 259657 254 9819 1873 1442 55462 7946 570 431
is_linear=0
shrinkage=0.1


Tree=26
num_leaves=23
num_cat=0
split_feature=44 1 31 19 4 33 21 30 2 19 39 6 29 2 2 32 1 43 39 34 47 1
split_gain=41658.3 543.643 483.947 413.626 320.828 238.528 94.4459 75.4084 69.1685 219.32 98.7246 63.305 56.4472 56.3042 56.0891 44.733 168.904 41.4449 37.0284 35.629 35.519 31.4586
threshold=1.0884374976158144 0.051885754313353821 8.0917293406500068 -1.5096876511374637 1.0000000180025095e-35 10.877894492356978 1.2563502020871453 0.58722423814979063 -0.026272193413402339 -1.4440053422155128 12.492636680603029 23.610074100652671 -1.5858652121775498 -0.026272193413402339 0.052314444889569059 0.81665922905223354 -0.0028527236509386521 6.0089774131774911 1.0000000180025095e-35 -0.37245580200087075 2.3773924112319951 -0.0012422475737727922
decision_type=2 2 2 2 2 2 2 2 2 2 2 2 2 2 2 2 2 2 2 2 2 2
left_child=3 2 4 6 5 8 20 -3 9 10 15 18 -7 -5 -13 19 17 -17 -10 -2 -1 -18
right_child=1 7 -4 13 -6 12 -8 -9 11 -11 -12 14 -14 -15 -16 16 21 -19 -20 -21 -22 -23
leaf_value=-0.12546250613694021 -0.11355433175315593 -0.10469411929586106 0.07300147008264378 0.087643871464136811 0.087724780332496699 -0.078407267489780996 0.088315640536311607 0.090372676813667674 0.036677839309233656 0.093245004285210875 0.088637841486840757 0.1041636813938579 0.085869201809759904 -0.11779765642950142 -0.14094516953996869 -0.10858176126542479 0.090634423604623038 0.095783639596126846 -0.11789999858340557 -0.0022364116100545509 -0.0073012485664139528 -0.16074314342019902
leaf_weight=113.95259304344654 2155.889542773366 22.76627005636692 140.91769096255302 25930.564498364925 79.251532159745693 29.37627762556076 32.930353656411171 153.0149687230587 15.512614399194716 57.43970650434494 26.269322454929352 24.113174885511398 72.633545972406864 13.347122073173521 15.234342157840727 367.85191777348518 60.80541880428791 10.198412820696829 15144.819877132773 29.141025692224503 32.751261934638023 5.422305963933467
leaf_count=419 7844 83 1305 259608 791 127 310 1461 57 297 187 203 671 49 51 1369 397 73 55405 102 151 34
internal_value=0 -0.109911 -0.111598 0.0864911 -0.113036 -0.113919 -0.0647295 0.0651086 -0.114788 -0.100079 -0.104261 -0.117413 0.0385617 0.0875382 0.00926387 -0.106188 -0.0772618 -0.103069 -0.117742 -0.11207 -0.0990833 0.0700532
internal_weight=0 18410.7 18234.9 26123.5 18094 18014.7 179.634 175.781 17912.7 2713.02 2655.58 15199.7 102.01 25943.9 39.3475 2629.31 444.278 378.05 15160.3 2185.03 146.704 66.2277
internal_count=330994 70457 68913 260537 67608 66817 880 1544 66019 10303 10006 55716 798 259657 254 9819 1873 1442 55462 7946 570 431
is_linear=0
shrinkage=0.1


Tree=27
num_leaves=1
num_cat=0
split_feature=
split_gain=
threshold=
decision_type=
left_child=
right_child=
leaf_value=0
leaf_weight=
leaf_count=
internal_value=
internal_weight=
internal_count=
is_linear=0
shrinkage=1


Tree=28
num_leaves=1
num_cat=0
split_feature=
split_gain=
threshold=
decision_type=
left_child=
right_child=
leaf_value=0
leaf_weight=
leaf_count=
internal_value=
internal_weight=
internal_count=
is_linear=0
shrinkage=1


Tree=29
num_leaves=1
num_cat=0
split_feature=
split_gain=
threshold=
decision_type=
left_child=
right_child=
leaf_value=0
leaf_weight=
leaf_count=
internal_value=
internal_weight=
internal_count=
is_linear=0
shrinkage=1


Tree=30
num_leaves=23
num_cat=0
split_feature=44 1 31 19 4 33 41 30 2 19 40 29 6 1 2 29 31 32 1 1 40 1
split_gain=33808 425.966 380.529 348.717 252.757 189.119 75.1333 61.8746 61.7671 171.484 79.1906 110.794 58.7417 72.5549 46.6762 44.8704 41.1537 39.7063 121.462 82.9927 40.8906 50.2041
threshold=1.0884374976158144 0.051885754313353821 8.1832549801874439 -1.5096876511374637 1.0000000180025095e-35 10.877894492356978 2.1363888978958134 0.58722423814979063 -0.026272193413402339 -1.4440053422155128 2.8634289503097539 -1.7556119494583056 1.0000000180025095e-35 -0.0020745545630715162 -0.026272193413402339 -1.5858652121775498 -0.054052578182031047 0.21413539891004577 -0.0028527236509386521 -0.0026847443679920402 0.41283050179481512 -0.0030328460145802
decision_type=2 2 2 2 2 2 2 2 2 2 2 2 2 2 2 2 2 2 2 2 2 2
left_child=3 2 4 6 5 8 -1 -3 9 10 17 -12 -10 -14 -5 -7 -15 -2 20 -20 21 -19
right_child=1 7 -4 14 -6 15 -8 -9 12 -11 11 -13 13 16 -16 -17 -18 18 19 -21 -22 -23
leaf_value=-0.082316788357336967 0.10682836514532364 0.095318104323438235 -0.069763721411655474 -0.086403783575742063 -0.086488834411577203 0.064702848799171028 0.091565418684053934 -0.088906776131803256 0.11001653634243198 -0.086755598312489302 -0.12062756736469381 0.10466929866098938 0.099421107225909577 -0.11287263203162153 0.10986393160745958 -0.084099928703408322 0.079968609862041684 -0.086125772411134338 -0.11283868271216224 0.081431373136304372 0.10783925528388305 0.10220316287371348
leaf_weight=30.467127099633217 1793.5724690556526 21.143437519669533 125.3417347446084 22387.364015042782 68.546353429555893 29.853775858879089 134.77832462638617 132.36305698752403 13684.73129568994 52.390236362814903 39.762777201831341 48.392282098531723 88.242336541414261 34.336357727646828 12.123634666204451 63.089234359562397 16.329365015029907 25.705687925219536 51.662023901939392 38.28732094168663 409.20829804241657 31.500661700963974
leaf_count=296 7132 83 1300 259608 792 127 584 1461 55077 298 254 187 327 227 49 671 86 152 368 178 1613 124
internal_value=0 0.102283 0.103817 -0.0852298 0.105137 0.105938 0.0595059 -0.0635323 0.106748 0.0922514 0.096098 0.00304803 0.10936 0.044658 -0.0862976 -0.0363037 -0.0507207 0.0995886 0.0762497 -0.0301468 0.0967685 0.0175775
internal_weight=0 16754.5 16601 22564.7 16475.6 16407.1 165.245 153.506 16314.1 2490.48 2438.09 88.1551 13823.6 138.908 22399.5 92.943 50.6657 2349.94 556.364 89.9493 466.415 57.2063
internal_count=330994 70457 68913 260537 67613 66821 880 1544 66023 10306 10008 441 55717 640 259657 798 313 9567 2435 546 1889 276
is_linear=0
shrinkage=0.1


Tree=31
num_leaves=23
num_cat=0
split_feature=44 1 31 19 4 33 41 30 2 19 40 29 6 1 2 29 31 32 1 1 40 1
split_gain=33808 425.966 380.529 348.717 252.757 189.119 75.1333 61.8746 61.7671 171.484 79.1906 110.794 58.7417 72.5549 46.6762 44.8704 41.1537 39.7063 121.462 82.9927 40.8906 50.2041
threshold=1.0884374976158144 0.051885754313353821 8.1832549801874439 -1.5096876511374637 1.0000000180025095e-35 10.877894492356978 2.1363888978958134 0.58722423814979063 -0.026272193413402339 -1.4440053422155128 2.8634289503097539 -1.7556119494583056 1.0000000180025095e-35 -0.0020745545630715162 -0.026272193413402339 -1.5858652121775498 -0.054052578182031047 0.21413539891004577 -0.0028527236509386521 -0.0026847443679920402 0.41283050179481512 -0.0030328460145802
decision_type=2 2 2 2 2 2 2 2 2 2 2 2 2 2 2 2 2 2 2 2 2 2
left_child=3 2 4 6 5 8 -1 -3 9 10 17 -12 -10 -14 -5 -7 -15 -2 20 -20 21 -19
right_child=1 7 -4 14 -6 15 -8 -9 12 -11 11 -13 13 16 -16 -17 -18 18 19 -21 -22 -23
leaf_value=0.082316788357336967 -0.10682836514532364 -0.095318104323438235 0.069763721411655474 0.086403783575742063 0.086488834411577203 -0.064702848799171028 -0.091565418684053934 0.088906776131803256 -0.11001653634243198 0.086755598312489302 0.12062756736469381 -0.10466929866098938 -0.099421107225909577 0.11287263203162153 -0.10986393160745958 0.084099928703408322 -0.079968609862041684 0.086125772411134338 0.11283868271216224 -0.081431373136304372 -0.10783925528388305 -0.10220316287371348
leaf_weight=30.467127099633217 1793.5724690556526 21.143437519669533 125.3417347446084 22387.364015042782 68.546353429555893 29.853775858879089 134.77832462638617 132.36305698752403 13684.73129568994 52.390236362814903 39.762777201831341 48.392282098531723 88.242336541414261 34.336357727646828 12.123634666204451 63.089234359562397 16.329365015029907 25.705687925219536 51.662023901939392 38.28732094168663 409.20829804241657 31.500661700963974
leaf_count=296 7132 83 1300 259608 792 127 584 1461 55077 298 254 187 327 227 49 671 86 152 368 178 1613 124
internal_value=0 -0.102283 -0.103817 0.0852298 -0.105137 -0.105938 -0.0595059 0.0635323 -0.106748 -0.0922514 -0.096098 -0.00304803 -0.10936 -0.044658 0.0862976 0.0363037 0.0507207 -0.0995886 -0.0762497 0.0301468 -0.0967685 -0.0175775
internal_weight=0 16754.5 16601 22564.7 16475.6 16407.1 165.245 153.506 16314.1 2490.48 2438.09 88.1551 13823.6 138.908 22399.5 92.943 50.6657 2349.94 556.364 89.9493 466.415 57.2063
internal_count=330994 70457 68913 260537 67613 66821 880 1544 66023 10306 10008 441 55717 640 259657 798 313 9567 2435 546 1889 276
is_linear=0
shrinkage=0.1


Tree=32
num_leaves=1
num_cat=0
split_feature=
split_gain=
threshold=
decision_type=
left_child=
right_child=
leaf_value=0
leaf_weight=
leaf_count=
internal_value=
internal_weight=
internal_count=
is_linear=0
shrinkage=1


Tree=33
num_leaves=1
num_cat=0
split_feature=
split_gain=
threshold=
decision_type=
left_child=
right_child=
leaf_value=0
leaf_weight=
leaf_count=
internal_value=
internal_weight=
internal_count=
is_linear=0
shrinkage=1


Tree=34
num_leaves=1
num_cat=0
split_feature=
split_gain=
threshold=
decision_type=
left_child=
right_child=
leaf_value=0
leaf_weight=
leaf_count=
internal_value=
internal_weight=
internal_count=
is_linear=0
shrinkage=1


Tree=35
num_leaves=23
num_cat=0
split_feature=44 1 31 19 4 33 47 2 19 40 29 6 6 1 2 2 1 32 40 38 23 41
split_gain=27716.7 339.969 304.628 296.065 202.294 153.443 60.2375 54.6037 136.186 63.3584 88.21 52.1335 51.7473 56.2902 38.936 38.9153 35.5805 33.2372 83.6471 52.5594 32.6785 31.9187
threshold=1.0884374976158144 0.051885754313353821 8.1832549801874439 -1.5096876511374637 1.0000000180025095e-35 10.877894492356978 2.3724100589752202 -0.026272193413402339 -1.4440053422155128 2.8634289503097539 -1.7178904522848042 1.0000000180025095e-35 1.0000000180025095e-35 -0.0020745545630715162 -0.026272193413402339 -0.026272193413402339 -0.0030540964057963376 0.089475296122007081 0.46987542510032659 2.2339031696319585 4.047808820509907 1.3838748931884768
decision_type=2 2 2 2 2 2 2 2 2 2 2 2 2 2 2 2 2 2 2 2 2 2
left_child=3 2 4 6 5 7 -1 8 9 17 -11 -3 -9 -14 -5 20 -4 -2 19 -19 -7 -20
right_child=1 11 16 14 -6 15 -8 12 -10 10 -12 -13 13 -15 -16 -17 -18 18 21 -21 -22 -23
leaf_value=0.097641513654822348 0.1005225555229087 0.087939006807058226 -0.085056453122505649 -0.085374661842328961 -0.085458825647740211 -0.084281860281996662 -0.03380256254012981 0.10403061035439808 -0.080821107140750803 -0.11101333786866657 0.099585898393761085 -0.088094175209915762 0.09091418522048085 -0.045762655491180991 0.10397289093458731 0.11584644231524124 0.10012924762020031 0.069778983883166473 0.011538139876394772 -0.06875261431453665 0.17190517206031058 0.10163834348439518
leaf_weight=103.04158855974674 1598.7361185401678 19.73545928299427 100.83365285396576 19288.148695349693 59.056982010602951 65.084826752543449 52.693785645067692 12274.720916882157 47.647791460156441 36.823282495141029 43.24638457596302 114.04002942144871 81.6258445084095 47.766531765460968 10.86616502702236 14.376208469271658 11.565226078033445 50.200384676456451 43.971021570265293 60.267061650753021 5.3915172219276419 371.57504786550999
leaf_count=507 7044 84 1249 259608 792 726 373 55077 298 259 182 1460 327 313 49 54 51 218 207 478 18 1620
internal_value=0 0.096581 0.0980047 -0.0841599 0.0992502 0.0999902 0.0531668 0.100766 0.086443 0.0900577 0.0027333 -0.0621246 0.103367 0.0404585 -0.0852681 -0.0340969 -0.0660019 0.0933484 0.0715438 -0.00579887 -0.0646833 0.0921044
internal_weight=0 15046.7 14912.9 19454.8 14800.5 14741.4 155.735 14656.6 2252.47 2204.82 80.0697 133.775 12404.1 129.392 19299 84.8526 112.399 2124.75 526.014 110.467 70.4763 415.546
internal_count=330994 70457 68913 260537 67613 66821 880 66023 10306 10008 441 1544 55717 640 259657 798 1300 9567 2523 696 744 1827
is_linear=0
shrinkage=0.1


Tree=36
num_leaves=23
num_cat=0
split_feature=44 1 31 19 4 33 47 2 19 40 29 6 6 1 2 2 1 32 40 38 23 41
split_gain=27716.7 339.969 304.628 296.065 202.294 153.443 60.2375 54.6037 136.186 63.3584 88.21 52.1335 51.7473 56.2902 38.936 38.9153 35.5805 33.2372 83.6471 52.5594 32.6785 31.9187
threshold=1.0884374976158144 0.051885754313353821 8.1832549801874439 -1.5096876511374637 1.0000000180025095e-35 10.877894492356978 2.3724100589752202 -0.026272193413402339 -1.4440053422155128 2.8634289503097539 -1.7178904522848042 1.0000000180025095e-35 1.0000000180025095e-35 -0.0020745545630715162 -0.026272193413402339 -0.026272193413402339 -0.0030540964057963376 0.089475296122007081 0.46987542510032659 2.2339031696319585 4.047808820509907 1.3838748931884768
decision_type=2 2 2 2 2 2 2 2 2 2 2 2 2 2 2 2 2 2 2 2 2 2
left_child=3 2 4 6 5 7 -1 8 9 17 -11 -3 -9 -14 -5 20 -4 -2 19 -19 -7 -20
right_child=1 11 16 14 -6 15 -8 12 -10 10 -12 -13 13 -15 -16 -17 -18 18 21 -21 -22 -23
leaf_value=-0.097641513654822348 -0.1005225555229087 -0.087939006807058226 0.085056453122505649 0.085374661842328961 0.085458825647740211 0.084281860281996662 0.03380256254012981 -0.10403061035439808 0.080821107140750803 0.11101333786866657 -0.099585898393761085 0.088094175209915762 -0.09091418522048085 0.045762655491180991 -0.10397289093458731 -0.11584644231524124 -0.10012924762020031 -0.069778983883166473 -0.011538139876394772 0.06875261431453665 -0.17190517206031058 -0.10163834348439518
leaf_weight=103.04158855974674 1598.7361185401678 19.73545928299427 100.83365285396576 19288.148695349693 59.056982010602951 65.084826752543449 52.693785645067692 12274.720916882157 47.647791460156441 36.823282495141029 43.24638457596302 114.04002942144871 81.6258445084095 47.766531765460968 10.86616502702236 14.376208469271658 11.565226078033445 50.200384676456451 43.971021570265293 60.267061650753021 5.3915172219276419 371.57504786550999
leaf_count=507 7044 84 1249 259608 792 726 373 55077 298 259 182 1460 327 313 49 54 51 218 207 478 18 1620
internal_value=0 -0.096581 -0.0980047 0.0841599 -0.0992502 -0.0999902 -0.0531668 -0.100766 -0.086443 -0.0900577 -0.0027333 0.0621246 -0.103367 -0.0404585 0.0852681 0.0340969 0.0660019 -0.0933484 -0.0715438 0.00579887 0.0646833 -0.0921044
internal_weight=0 15046.7 14912.9 19454.8 14800.5 14741.4 155.735 14656.6 2252.47 2204.82 80.0697 133.775 12404.1 129.392 19299 84.8526 112.399 2124.75 526.014 110.467 70.4763 415.546
internal_count=330994 70457 68913 260537 67613 66821 880 66023 10306 10008 441 1544 55717 640 259657 798 1300 9567 2523 696 744 1827
is_linear=0
shrinkage=0.1


Tree=37
num_leaves=1
num_cat=0
split_feature=
split_gain=
threshold=
decision_type=
left_child=
right_child=
leaf_value=0
leaf_weight=
leaf_count=
internal_value=
internal_weight=
internal_count=
is_linear=0
shrinkage=1


Tree=38
num_leaves=1
num_cat=0
split_feature=
split_gain=
threshold=
decision_type=
left_child=
right_child=
leaf_value=0
leaf_weight=
leaf_count=
internal_value=
internal_weight=
internal_count=
is_linear=0
shrinkage=1


Tree=39
num_leaves=1
num_cat=0
split_feature=
split_gain=
threshold=
decision_type=
left_child=
right_child=
leaf_value=0
leaf_weight=
leaf_count=
internal_value=
internal_weight=
internal_count=
is_linear=0
shrinkage=1


Tree=40
num_leaves=23
num_cat=0
split_feature=44 1 19 31 4 33 21 2 19 40 31 6 30 1 21 31 2 28 37 1 32 1
split_gain=22883.7 274.73 253.93 247.065 163.82 124.475 56.9182 50.9489 108.867 50.9235 72.2687 47.5628 43.6774 43.6677 32.9159 32.7343 32.6236 31.3816 29.6117 28.6595 28.4199 66.8738
threshold=1.0884374976158144 0.051885754313353821 -1.5096876511374637 8.1832549801874439 1.0000000180025095e-35 10.877894492356978 1.2563502020871453 -0.026272193413402339 -1.4440053422155128 2.8634289503097539 0.76967817765491631 1.0000000180025095e-35 0.58722423814979063 -0.0020745545630715162 1.2563502020871453 -0.054052578182031047 -0.026272193413402339 -3.551929249474401 3.6394716263431159 -0.0030540964057963376 1.0000000180025095e-35 -0.0028527236509386521
decision_type=2 2 2 2 2 2 2 2 2 2 2 2 2 2 2 2 2 2 2 2 2 2
left_child=2 3 6 4 5 7 18 8 9 14 -11 -9 -3 -13 20 -15 -4 -7 -1 -5 -2 -22
right_child=1 12 16 19 -6 17 -8 11 -10 10 -12 13 -14 15 -16 -17 -18 -19 -20 -21 21 -23
leaf_value=0.0964470669302398 0.096095315614523655 0.083146174254248029 -0.084516101379141298 -0.083955435312301763 -0.084601717049870462 -0.060230361159318679 -0.086434946802248294 0.099448283530590764 -0.075273421975780463 0.095149772413092942 -0.10542848326232471 0.083761899337379112 -0.086972663975213069 -0.10131915668986653 -0.11238731673581344 0.074328592567947244 0.09947200382235008 0.11997141942732999 -0.049148670322491733 0.0815423075504315 0.086664030171565765 -0.005616494061925951
leaf_weight=104.15479244291782 1413.5916678905487 17.823560923337936 16589.425436139107 86.958907335996628 50.792670048773289 63.820870615541935 25.927278757095337 10900.764990344644 43.345496743917465 38.90299591422081 33.372740007936954 74.990691214799881 98.483666509389877 30.172314375638962 8.1584849804639799 16.364698149263859 9.6428426355123502 11.388482168316839 16.132716342806816 11.894974797964094 391.09227596223354 98.260522216558456
leaf_count=485 6970 83 259608 1249 792 750 310 55077 298 182 259 327 1461 227 30 86 49 48 85 51 1936 631
internal_value=0 0.0921197 -0.0832535 0.0934605 0.0946422 0.0953359 0.0479534 0.0960753 0.0815033 0.0849296 0.00253438 0.0987547 -0.0609027 0.0365406 0.0880457 -0.0395528 -0.0844092 -0.0329435 0.0769201 -0.0640413 0.088905 0.0681344
internal_weight=0 13390.2 16745.3 13273.9 13175 13124.2 146.215 13049 2026.72 1983.38 72.2757 11022.3 116.307 121.528 1911.1 46.537 16599.1 75.2094 120.288 98.8539 1902.94 489.353
internal_count=330994 70457 260537 68913 67613 66821 880 66023 10306 10008 441 55717 1544 640 9567 313 259657 798 570 1300 9537 2567
is_linear=0
shrinkage=0.1


Tree=41
num_leaves=23
num_cat=0
split_feature=44 1 19 31 4 33 21 2 19 40 31 6 30 1 21 31 2 28 37 1 32 1
split_gain=22883.7 274.73 253.93 247.065 163.82 124.475 56.9182 50.9489 108.867 50.9235 72.2687 47.5628 43.6774 43.6677 32.9159 32.7343 32.6236 31.3816 29.6117 28.6595 28.4199 66.8738
threshold=1.0884374976158144 0.051885754313353821 -1.5096876511374637 8.1832549801874439 1.0000000180025095e-35 10.877894492356978 1.2563502020871453 -0.026272193413402339 -1.4440053422155128 2.8634289503097539 0.76967817765491631 1.0000000180025095e-35 0.58722423814979063 -0.0020745545630715162 1.2563502020871453 -0.054052578182031047 -0.026272193413402339 -3.551929249474401 3.6394716263431159 -0.0030540964057963376 1.0000000180025095e-35 -0.0028527236509386521
decision_type=2 2 2 2 2 2 2 2 2 2 2 2 2 2 2 2 2 2 2 2 2 2
left_child=2 3 6 4 5 7 18 8 9 14 -11 -9 -3 -13 20 -15 -4 -7 -1 -5 -2 -22
right_child=1 12 16 19 -6 17 -8 11 -10 10 -12 13 -14 15 -16 -17 -18 -19 -20 -21 21 -23
leaf_value=-0.0964470669302398 -0.096095315614523655 -0.083146174254248029 0.084516101379141298 0.083955435312301763 0.084601717049870462 0.060230361159318679 0.086434946802248294 -0.099448283530590764 0.075273421975780463 -0.095149772413092942 0.10542848326232471 -0.083761899337379112 0.086972663975213069 0.10131915668986653 0.11238731673581344 -0.074328592567947244 -0.09947200382235008 -0.11997141942732999 0.049148670322491733 -0.0815423075504315 -0.086664030171565765 0.005616494061925951
leaf_weight=104.15479244291782 1413.5916678905487 17.823560923337936 16589.425436139107 86.958907335996628 50.792670048773289 63.820870615541935 25.927278757095337 10900.764990344644 43.345496743917465 38.90299591422081 33.372740007936954 74.990691214799881 98.483666509389877 30.172314375638962 8.1584849804639799 16.364698149263859 9.6428426355123502 11.388482168316839 16.132716342806816 11.894974797964094 391.09227596223354 98.260522216558456
leaf_count=485 6970 83 259608 1249 792 750 310 55077 298 182 259 327 1461 227 30 86 49 48 85 51 1936 631
internal_value=0 -0.0921197 0.0832535 -0.0934605 -0.0946422 -0.0953359 -0.0479534 -0.0960753 -0.0815033 -0.0849296 -0.00253438 -0.0987547 0.0609027 -0.0365406 -0.0880457 0.0395528 0.0844092 0.0329435 -0.0769201 0.0640413 -0.088905 -0.0681344
internal_weight=0 13390.2 16745.3 13273.9 13175 13124.2 146.215 13049 2026.72 1983.38 72.2757 11022.3 116.307 121.528 1911.1 46.537 16599.1 75.2094 120.288 98.8539 1902.94 489.353
internal_count=330994 70457 260537 68913 67613 66821 880 66023 10306 10008 441 55717 1544 640 9567 313 259657 798 570 1300 9537 2567
is_linear=0
shrinkage=0.1


Tree=42
num_leaves=1
num_cat=0
split_feature=
split_gain=
threshold=
decision_type=
left_child=
right_child=
leaf_value=0
leaf_weight=
leaf_count=
internal_value=
internal_weight=
internal_count=
is_linear=0
shrinkage=1


Tree=43
num_leaves=1
num_cat=0
split_feature=
split_gain=
threshold=
decision_type=
left_child=
right_child=
leaf_value=0
leaf_weight=
leaf_count=
internal_value=
internal_weight=
internal_count=
is_linear=0
shrinkage=1


Tree=44
num_leaves=1
num_cat=0
split_feature=
split_gain=
threshold=
decision_type=
left_child=
right_child=
leaf_value=0
leaf_weight=
leaf_count=
internal_value=
internal_weight=
internal_count=
is_linear=0
shrinkage=1


Tree=45
num_leaves=23
num_cat=0
split_feature=44 1 19 31 4 33 2 19 41 6 29 1 6 1 30 32 40 38 39 13 29 2
split_gain=18988.4 223.888 216.931 202.035 133.718 102.99 51.1299 87.0826 46.5244 43.5191 43.4204 128.475 37.2937 34.3159 31.871 31.3814 67.8392 32.4232 30.8007 29.8549 27.595 27.4246
threshold=1.0884374976158144 0.051885754313353821 -1.5096876511374637 8.1832549801874439 1.0000000180025095e-35 10.877894492356978 -0.026272193413402339 -1.4440053422155128 2.1363888978958134 1.0000000180025095e-35 -1.6613082065245524 -0.0030429652484926461 1.0000000180025095e-35 -0.0020745545630715162 -1.7011021523910312 0.35957218549609121 0.50323882699012767 2.2339031696319585 1.2909044623374941 1.0000000180025095e-35 -1.7556119494583056 -0.026272193413402339
decision_type=2 2 2 2 2 2 2 2 2 2 2 2 2 2 2 2 2 2 2 2 2 2
left_child=2 3 8 4 5 6 7 10 -1 -8 11 14 -3 19 -2 -12 17 -17 -13 -11 -10 -4
right_child=1 12 21 -5 -6 -7 9 -9 20 13 15 18 -14 -15 -16 16 -18 -19 -20 -21 -22 -23
leaf_value=-0.080780357399198421 -0.12711522113749893 0.077542039269900401 -0.083796411379698593 -0.062104393834088438 -0.083885789362475302 -0.03049025736865776 0.095859478378673993 -0.070006116874256702 -0.043115504676313213 0.088414567438329816 0.093550701024732813 -0.076719444538856221 -0.086584283357303768 -0.035682386687169013 0.01759337602584676 0.051960675022116092 0.088750629199080291 -0.079410261693149964 0.090321909756977042 -0.3209534550916141 0.094222641433397189 0.095959172240273588
leaf_weight=24.268384281545877 43.677084382623434 16.555305689573288 14247.954518437386 86.980425234884024 43.621506981551647 68.767349474132061 9607.3871762007475 39.484169017523527 17.408018179237843 66.801863864064217 1240.5345324724913 11.6569602265954 84.552056886255741 43.940146520733833 23.359610348939896 32.705243855714798 179.77568553388119 44.145752176642418 208.07980720698833 1.8303182423114766 91.680631294846535 8.4924607276916486
leaf_count=296 312 84 259608 1300 792 798 55077 298 92 319 6856 83 1460 313 116 159 949 382 1151 8 492 49
internal_value=0 0.0884604 -0.0825018 0.0897361 0.0908692 0.0915257 0.0922526 0.0768866 0.0444478 0.0951352 0.0801378 0.0444909 -0.0597103 0.0333201 -0.0766901 0.0869658 0.0551344 -0.0235031 0.0814604 0.0774973 0.0723067 -0.0836893
internal_weight=0 11843.9 14389.8 11742.7 11655.8 11612.1 11543.4 1823.42 133.357 9719.96 1783.93 286.773 101.107 112.572 67.0367 1497.16 256.627 76.851 219.737 68.6322 109.089 14256.4
internal_count=330994 70457 260537 68913 67613 66821 66023 10306 880 55717 10008 1662 1544 640 428 8346 1490 541 1234 327 584 259657
is_linear=0
shrinkage=0.1


Tree=46
num_leaves=23
num_cat=0
split_feature=44 1 19 31 4 33 2 19 41 6 29 1 6 1 30 32 40 38 39 13 29 2
split_gain=18988.4 223.888 216.931 202.035 133.718 102.99 51.1299 87.0826 46.5244 43.5191 43.4204 128.475 37.2937 34.3159 31.871 31.3814 67.8392 32.4232 30.8007 29.8549 27.595 27.4246
threshold=1.0884374976158144 0.051885754313353821 -1.5096876511374637 8.1832549801874439 1.0000000180025095e-35 10.877894492356978 -0.026272193413402339 -1.4440053422155128 2.1363888978958134 1.0000000180025095e-35 -1.6613082065245524 -0.0030429652484926461 1.0000000180025095e-35 -0.0020745545630715162 -1.7011021523910312 0.35957218549609121 0.50323882699012767 2.2339031696319585 1.2909044623374941 1.0000000180025095e-35 -1.7556119494583056 -0.026272193413402339
decision_type=2 2 2 2 2 2 2 2 2 2 2 2 2 2 2 2 2 2 2 2 2 2
left_child=2 3 8 4 5 6 7 10 -1 -8 11 14 -3 19 -2 -12 17 -17 -13 -11 -10 -4
right_child=1 12 21 -5 -6 -7 9 -9 20 13 15 18 -14 -15 -16 16 -18 -19 -20 -21 -22 -23
leaf_value=0.080780357399198421 0.12711522113749893 -0.077542039269900401 0.083796411379698593 0.062104393834088438 0.083885789362475302 0.03049025736865776 -0.095859478378673993 0.070006116874256702 0.043115504676313213 -0.088414567438329816 -0.093550701024732813 0.076719444538856221 0.086584283357303768 0.035682386687169013 -0.01759337602584676 -0.051960675022116092 -0.088750629199080291 0.079410261693149964 -0.090321909756977042 0.3209534550916141 -0.094222641433397189 -0.095959172240273588
leaf_weight=24.268384281545877 43.677084382623434 16.555305689573288 14247.954518437386 86.980425234884024 43.621506981551647 68.767349474132061 9607.3871762007475 39.484169017523527 17.408018179237843 66.801863864064217 1240.5345324724913 11.6569602265954 84.552056886255741 43.940146520733833 23.359610348939896 32.705243855714798 179.77568553388119 44.145752176642418 208.07980720698833 1.8303182423114766 91.680631294846535 8.4924607276916486
leaf_count=296 312 84 259608 1300 792 798 55077 298 92 319 6856 83 1460 313 116 159 949 382 1151 8 492 49
internal_value=0 -0.0884604 0.0825018 -0.0897361 -0.0908692 -0.0915257 -0.0922526 -0.0768866 -0.0444478 -0.0951352 -0.0801378 -0.0444909 0.0597103 -0.0333201 0.0766901 -0.0869658 -0.0551344 0.0235031 -0.0814604 -0.0774973 -0.0723067 0.0836893
internal_weight=0 11843.9 14389.8 11742.7 11655.8 11612.1 11543.4 1823.42 133.357 9719.96 1783.93 286.773 101.107 112.572 67.0367 1497.16 256.627 76.851 219.737 68.6322 109.089 14256.4
internal_count=330994 70457 260537 68913 67613 66821 66023 10306 880 55717 10008 1662 1544 640 428 8346 1490 541 1234 327 584 259657
is_linear=0
shrinkage=0.1


Tree=47
num_leaves=1
num_cat=0
split_feature=
split_gain=
threshold=
decision_type=
left_child=
right_child=
leaf_value=0
leaf_weight=
leaf_count=
internal_value=
internal_weight=
internal_count=
is_linear=0
shrinkage=1


Tree=48
num_leaves=1
num_cat=0
split_feature=
split_gain=
threshold=
decision_type=
left_child=
right_child=
leaf_value=0
leaf_weight=
leaf_count=
internal_value=
internal_weight=
internal_count=
is_linear=0
shrinkage=1


Tree=49
num_leaves=1
num_cat=0
split_feature=
split_gain=
threshold=
decision_type=
left_child=
right_child=
leaf_value=0
leaf_weight=
leaf_count=
internal_value=
internal_weight=
internal_count=
is_linear=0
shrinkage=1


Tree=50
num_leaves=23
num_cat=0
split_feature=44 19 6 1 47 43 1 2 47 0 2 28 20 33 35 2 21 0 39 30 0 39
split_gain=15825.2 186.476 185.754 174.491 274.33 158.931 83.587 60.6009 38.8231 32.6556 27.0981 72.2839 52.2472 25.7837 23.5255 23.1118 20.4057 20.0765 19.0883 18.6718 18.5714 16.7884
threshold=1.0884374976158144 -1.5096876511374637 1.0000000180025095e-35 -0.0030328460145802 1.5380627512931826 6.4570820331573495 0.0051065597828961412 -0.025303669467438509 2.3724100589752202 0.067850209053315333 -0.026272193413402339 -3.3974779193014628 -1.0490575776179776 1.8587997861910877 -0.082544099136748386 -0.026272193413402339 1.3876814963013253 7.1205240792025588 7.6183791160583505 0.58722423814979063 -0.030348896220725032 1.8562069535255434
decision_type=2 2 2 2 2 2 2 2 2 2 2 2 2 2 2 2 2 2 2 2 2 2
left_child=1 8 3 4 5 14 9 -6 16 18 11 13 -13 -5 21 -3 -1 -10 -4 -9 -20 -2
right_child=2 15 6 10 7 -7 -8 19 17 -11 -12 12 -14 -15 -16 -17 -18 -19 20 -21 -22 -23
leaf_value=0.1005689460122981 0.016761159601025127 -0.083190406278177073 0.089988919256323907 0.035956593548938154 -0.08943999322355646 -0.077818653957965084 -0.089329646270976018 0.087419059768454835 -0.064532292204128094 -0.1237710789186814 0.093182876597705078 0.087057826163779772 -0.083578813349684603 -0.07893649509615952 -0.18815738083765327 0.09317228875481548 -0.08548669901843714 0.10082235668114148 -0.088619595942827159 -0.15213720529018071 0.12986307928004415 0.0929141502830719
leaf_weight=69.777439877390862 30.369862213730812 12222.450763016939 70.615655794739723 43.026470448821783 153.03634340688586 63.383293475955725 82.248877502977848 29.02108421549201 36.778763085603714 10.06607401371002 8342.9612509012222 893.3080569691956 18.311786063015461 35.771482612937689 3.0692555010318747 7.4350504279136649 6.4387072995305052 9.1742606461048108 13.109021894633772 3.6644878089427939 5.5324971526861182 618.84827734529972
leaf_count=419 173 259608 360 260 2101 1070 1503 164 334 38 54599 5550 146 408 11 49 88 39 195 12 19 3848
internal_value=0 -0.0818552 0.0854899 0.0872686 0.0452531 0.0733562 -0.0147697 -0.0630409 0.0410789 0.0469728 0.0913264 0.0756876 0.0836302 -0.0162008 0.088046 -0.0830832 0.084851 -0.0315202 0.0662286 0.0605616 -0.0237775 0.0893518
internal_weight=0 12352.1 10416.3 10234.8 901.393 715.671 181.572 185.722 122.169 99.3232 9333.38 990.418 911.62 78.798 652.287 12229.9 76.2161 45.953 89.2572 32.6856 18.6415 649.218
internal_count=330994 260537 70457 68342 7379 5102 2115 2277 880 612 60963 6364 5696 668 4032 259657 507 373 574 176 214 4021
is_linear=0
shrinkage=0.1


Tree=51
num_leaves=23
num_cat=0
split_feature=44 19 6 1 47 43 1 2 47 0 2 28 20 33 35 2 21 0 39 30 0 39
split_gain=15825.2 186.476 185.754 174.491 274.33 158.931 83.587 60.6009 38.8231 32.6556 27.0981 72.2839 52.2472 25.7837 23.5255 23.1118 20.4057 20.0765 19.0883 18.6718 18.5714 16.7884
threshold=1.0884374976158144 -1.5096876511374637 1.0000000180025095e-35 -0.0030328460145802 1.5380627512931826 6.4570820331573495 0.0051065597828961412 -0.025303669467438509 2.3724100589752202 0.067850209053315333 -0.026272193413402339 -3.3974779193014628 -1.0490575776179776 1.8587997861910877 -0.082544099136748386 -0.026272193413402339 1.3876814963013253 7.1205240792025588 7.6183791160583505 0.58722423814979063 -0.030348896220725032 1.8562069535255434
decision_type=2 2 2 2 2 2 2 2 2 2 2 2 2 2 2 2 2 2 2 2 2 2
left_child=1 8 3 4 5 14 9 -6 16 18 11 13 -13 -5 21 -3 -1 -10 -4 -9 -20 -2
right_child=2 15 6 10 7 -7 -8 19 17 -11 -12 12 -14 -15 -16 -17 -18 -19 20 -21 -22 -23
leaf_value=-0.1005689460122981 -0.016761159601025127 0.083190406278177073 -0.089988919256323907 -0.035956593548938154 0.08943999322355646 0.077818653957965084 0.089329646270976018 -0.087419059768454835 0.064532292204128094 0.1237710789186814 -0.093182876597705078 -0.087057826163779772 0.083578813349684603 0.07893649509615952 0.18815738083765327 -0.09317228875481548 0.08548669901843714 -0.10082235668114148 0.088619595942827159 0.15213720529018071 -0.12986307928004415 -0.0929141502830719
leaf_weight=69.777439877390862 30.369862213730812 12222.450763016939 70.615655794739723 43.026470448821783 153.03634340688586 63.383293475955725 82.248877502977848 29.02108421549201 36.778763085603714 10.06607401371002 8342.9612509012222 893.3080569691956 18.311786063015461 35.771482612937689 3.0692555010318747 7.4350504279136649 6.4387072995305052 9.1742606461048108 13.109021894633772 3.6644878089427939 5.5324971526861182 618.84827734529972
leaf_count=419 173 259608 360 260 2101 1070 1503 164 334 38 54599 5550 146 408 11 49 88 39 195 12 19 3848
internal_value=0 0.0818552 -0.0854899 -0.0872686 -0.0452531 -0.0733562 0.0147697 0.0630409 -0.0410789 -0.0469728 -0.0913264 -0.0756876 -0.0836302 0.0162008 -0.088046 0.0830832 -0.084851 0.0315202 -0.0662286 -0.0605616 0.0237775 -0.0893518
internal_weight=0 12352.1 10416.3 10234.8 901.393 715.671 181.572 185.722 122.169 99.3232 9333.38 990.418 911.62 78.798 652.287 12229.9 76.2161 45.953 89.2572 32.6856 18.6415 649.218
internal_count=330994 260537 70457 68342 7379 5102 2115 2277 880 612 60963 6364 5696 668 4032 259657 507 373 574 176 214 4021
is_linear=0
shrinkage=0.1


Tree=52
num_leaves=1
num_cat=0
split_feature=
split_gain=
threshold=
decision_type=
left_child=
right_child=
leaf_value=0
leaf_weight=
leaf_count=
internal_value=
internal_weight=
internal_count=
is_linear=0
shrinkage=1


Tree=53
num_leaves=1
num_cat=0
split_feature=
split_gain=
threshold=
decision_type=
left_child=
right_child=
leaf_value=0
leaf_weight=
leaf_count=
internal_value=
internal_weight=
internal_count=
is_linear=0
shrinkage=1


Tree=54
num_leaves=1
num_cat=0
split_feature=
split_gain=
threshold=
decision_type=
left_child=
right_child=
leaf_value=0
leaf_weight=
leaf_count=
internal_value=
internal_weight=
internal_count=
is_linear=0
shrinkage=1


Tree=55
num_leaves=23
num_cat=0
split_feature=44 19 6 1 47 43 1 2 22 19 31 2 28 20 30 6 37 39 32 33 2 29
split_gain=13236.1 161.735 155.116 149.051 224.212 130.018 69.3694 49.4936 41.8385 31.6398 56.2022 28.1049 61.5289 42.5574 25.2535 24.7553 21.1938 20.3414 21.7803 20.0153 18.7273 16.0157
threshold=1.0884374976158144 -1.4862296836653384 1.0000000180025095e-35 -0.0030328460145802 1.5380627512931826 6.4570820331573495 0.0051065597828961412 -0.025303669467438509 0.63879486649288142 -1.5049960576430386 -0.14557821771946963 -0.026272193413402339 -3.3974779193014628 -0.94350492687823617 -1.5550387657607663 1.0000000180025095e-35 4.0739895739421819 2.3465151786804204 0.73355249386020749 1.8587997861910877 -0.026272193413402339 0.62084237247227392
decision_type=2 2 2 2 2 2 2 2 2 2 2 2 2 2 2 2 2 2 2 2 2 2
left_child=1 8 3 4 5 17 14 -6 9 15 -11 12 19 21 -4 16 -1 18 -2 -5 -3 -14
right_child=2 20 6 11 7 -7 -8 -9 -10 10 -12 -13 13 -15 -16 -17 -18 -19 -20 -21 -22 -23
leaf_value=0.097516273662472341 0.076168620697218692 -0.082715974305857698 -0.10576815923172206 0.030455507638855201 -0.085936658116017167 -0.075332720860009444 -0.088288039818958705 0.056828089108920371 -0.08290799604577595 2.3957042854382187 0.0079169468482922362 0.090891746185358724 0.084876976212273483 -0.0963164990226167 0.062745405183099887 -0.095586470585811198 -0.055748781550888193 0.089871600389373585 -0.074179084234470061 -0.073723040095999115 0.09093284269230606 -0.026289033656023322
leaf_weight=73.64270156621933 24.110385626554489 10468.200613375753 10.005803015083073 42.701596148312092 135.29684787616134 55.651116374880075 70.847238913178444 29.594998463988304 23.765229105949402 0.16139002144336601 0.253260787576437 7273.6055383384228 782.08564700931311 13.454001024365423 79.966729208827019 9.0217342227697355 10.2821595557034 536.01134930551052 16.049375981092453 32.461175657808781 6.214258760213851 13.17831266671419
leaf_count=466 155 259451 57 260 2101 1070 1503 176 461 4 4 54599 5493 126 555 51 53 3796 81 408 47 77
internal_value=0 -0.0813062 0.0830653 0.0848135 0.0435296 0.0706303 -0.0142751 -0.0603131 0.0355522 0.0657065 0.937289 0.0888456 0.0720076 0.0800511 0.0440051 0.0618182 0.0787388 0.0847285 0.0160839 -0.014537 -0.082613 0.0830348
internal_weight=0 10591.5 9115.02 8954.2 796.714 631.822 160.82 164.892 117.126 93.3612 0.414651 8157.49 883.881 808.718 89.9725 92.9466 83.9249 576.171 40.1598 75.1628 10474.4 795.264
internal_count=330994 260537 70457 68342 7379 5102 2115 2277 1039 578 8 60963 6364 5696 612 570 519 4032 236 668 259498 5570
is_linear=0
shrinkage=0.1


Tree=56
num_leaves=23
num_cat=0
split_feature=44 19 6 1 47 43 1 2 22 19 31 2 28 20 30 6 37 39 32 33 2 29
split_gain=13236.1 161.735 155.116 149.051 224.212 130.018 69.3694 49.4936 41.8385 31.6398 56.2022 28.1049 61.5289 42.5574 25.2535 24.7553 21.1938 20.3414 21.7803 20.0153 18.7273 16.0157
threshold=1.0884374976158144 -1.4862296836653384 1.0000000180025095e-35 -0.0030328460145802 1.5380627512931826 6.4570820331573495 0.0051065597828961412 -0.025303669467438509 0.63879486649288142 -1.5049960576430386 -0.14557821771946963 -0.026272193413402339 -3.3974779193014628 -0.94350492687823617 -1.5550387657607663 1.0000000180025095e-35 4.0739895739421819 2.3465151786804204 0.73355249386020749 1.8587997861910877 -0.026272193413402339 0.62084237247227392
decision_type=2 2 2 2 2 2 2 2 2 2 2 2 2 2 2 2 2 2 2 2 2 2
left_child=1 8 3 4 5 17 14 -6 9 15 -11 12 19 21 -4 16 -1 18 -2 -5 -3 -14
right_child=2 20 6 11 7 -7 -8 -9 -10 10 -12 -13 13 -15 -16 -17 -18 -19 -20 -21 -22 -23
leaf_value=-0.097516273662472341 -0.076168620697218692 0.082715974305857698 0.10576815923172206 -0.030455507638855201 0.085936658116017167 0.075332720860009444 0.088288039818958705 -0.056828089108920371 0.08290799604577595 -2.3957042854382187 -0.0079169468482922362 -0.090891746185358724 -0.084876976212273483 0.0963164990226167 -0.062745405183099887 0.095586470585811198 0.055748781550888193 -0.089871600389373585 0.074179084234470061 0.073723040095999115 -0.09093284269230606 0.026289033656023322
leaf_weight=73.64270156621933 24.110385626554489 10468.200613375753 10.005803015083073 42.701596148312092 135.29684787616134 55.651116374880075 70.847238913178444 29.594998463988304 23.765229105949402 0.16139002144336601 0.253260787576437 7273.6055383384228 782.08564700931311 13.454001024365423 79.966729208827019 9.0217342227697355 10.2821595557034 536.01134930551052 16.049375981092453 32.461175657808781 6.214258760213851 13.17831266671419
leaf_count=466 155 259451 57 260 2101 1070 1503 176 461 4 4 54599 5493 126 555 51 53 3796 81 408 47 77
internal_value=0 0.0813062 -0.0830653 -0.0848135 -0.0435296 -0.0706303 0.0142751 0.0603131 -0.0355522 -0.0657065 -0.937289 -0.0888456 -0.0720076 -0.0800511 -0.0440051 -0.0618182 -0.0787388 -0.0847285 -0.0160839 0.014537 0.082613 -0.0830348
internal_weight=0 10591.5 9115.02 8954.2 796.714 631.822 160.82 164.892 117.126 93.3612 0.414651 8157.49 883.881 808.718 89.9725 92.9466 83.9249 576.171 40.1598 75.1628 10474.4 795.264
internal_count=330994 260537 70457 68342 7379 5102 2115 2277 1039 578 8 60963 6364 5696 612 570 519 4032 236 668 259498 5570
is_linear=0
shrinkage=0.1


Tree=57
num_leaves=1
num_cat=0
split_feature=
split_gain=
threshold=
decision_type=
left_child=
right_child=
leaf_value=0
leaf_weight=
leaf_count=
internal_value=
internal_weight=
internal_count=
is_linear=0
shrinkage=1


Tree=58
num_leaves=1
num_cat=0
split_feature=
split_gain=
threshold=
decision_type=
left_child=
right_child=
leaf_value=0
leaf_weight=
leaf_count=
internal_value=
internal_weight=
internal_count=
is_linear=0
shrinkage=1


Tree=59
num_leaves=1
num_cat=0
split_feature=
split_gain=
threshold=
decision_type=
left_child=
right_child=
leaf_value=0
leaf_weight=
leaf_count=
internal_value=
internal_weight=
internal_count=
is_linear=0
shrinkage=1


Tree=60
num_leaves=23
num_cat=0
split_feature=44 19 6 2 19 38 1 34 32 1 1 29 1 47 47 0 31 39 35 40 1 43
split_gain=11100.3 137.788 133.267 128.564 138.239 79.1168 56.8793 36.0439 31.9666 79.4697 40.2397 36.8459 29.4141 27.4734 26.698 21.3583 21.1453 27.4148 21.9018 21.1382 29.2783 20.447
threshold=1.0884374976158144 -1.5096876511374637 1.0000000180025095e-35 -0.026272193413402339 -1.4440053422155128 10.11862087249756 0.0051065597828961412 -0.4250054156769692 0.42190223689011064 -0.0028527236509386521 -0.001498770153453311 -1.7650423237516808 -0.0028132586386801109 2.3724100589752202 0.37407687306404119 0.067850209053315333 0.86120381719235495 2.1564363241195683 -0.34506705962287487 0.43993884325027471 -0.0030328460145802 2.9257500171661381
decision_type=2 2 2 2 2 2 2 2 2 2 2 2 2 2 2 2 2 2 2 2 2 2
left_child=1 13 3 4 5 7 15 8 11 19 12 21 -11 -1 -7 -4 18 -18 -9 20 -10 -2
right_child=2 -3 6 -5 -6 14 -8 16 9 10 -12 -13 -14 -15 -16 -17 17 -19 -20 -21 -22 -23
leaf_value=0.080485679513991049 -0.14056807254318057 -0.082163094942138346 0.057005099835286212 0.088758729949654877 -0.073139447308267436 0.072014883706324515 -0.087338182482004978 0.088566207181801554 -0.097137681955224653 -0.35591581417410534 0.1004485191031816 0.085005221346010143 -0.076078263031011895 -0.026974897318252464 -0.067503312868363807 -0.10033620175206436 -0.67423829900697818 -0.075817765271899873 -0.1150744501653309 0.082382263227678929 0.081413988331731968 0.049304699102883126
leaf_weight=58.420740965753794 11.156686857342722 8974.8527480997145 75.743340827524662 6396.4047416634858 78.969621859490871 17.840231627225876 60.975006062537432 20.719556678086523 16.825729742646217 4.1083194911479941 12.64999385923147 883.64389691129327 43.819627992808819 40.135850552469492 59.325665533542633 9.7364353537559492 0.80122076719999569 17.19473022595048 7.0881984382867804 205.51295475289226 20.220079183578491 11.53601625189185
leaf_count=507 49 259657 574 55172 1610 164 1503 165 142 19 69 7219 441 373 1168 38 7 167 35 1700 125 90
internal_value=0 -0.0808717 0.0809582 0.082731 0.0554138 0.0630328 -0.013551 0.0690744 0.072372 0.044261 -0.0581939 0.0817741 -0.100066 0.0367238 -0.0352477 0.0390834 -0.0180007 -0.102461 0.0366582 0.0698487 0.000318117 -0.0440447
internal_weight=0 9073.41 7954.27 7807.82 1411.41 1332.44 146.455 1255.28 1209.47 303.137 60.5779 906.337 47.9279 98.5566 77.1659 85.4798 45.8037 17.996 27.8078 242.559 37.0458 22.6927
internal_count=330994 260537 70457 68342 13170 11560 2115 10228 9854 2496 529 7358 460 880 1332 612 374 174 200 1967 267 139
is_linear=0
shrinkage=0.1


Tree=61
num_leaves=23
num_cat=0
split_feature=44 19 6 2 19 38 1 34 32 1 1 29 1 47 47 0 31 39 35 40 1 43
split_gain=11100.3 137.788 133.267 128.564 138.239 79.1168 56.8793 36.0439 31.9666 79.4697 40.2397 36.8459 29.4141 27.4734 26.698 21.3583 21.1453 27.4148 21.9018 21.1382 29.2783 20.447
threshold=1.0884374976158144 -1.5096876511374637 1.0000000180025095e-35 -0.026272193413402339 -1.4440053422155128 10.11862087249756 0.0051065597828961412 -0.4250054156769692 0.42190223689011064 -0.0028527236509386521 -0.001498770153453311 -1.7650423237516808 -0.0028132586386801109 2.3724100589752202 0.37407687306404119 0.067850209053315333 0.86120381719235495 2.1564363241195683 -0.34506705962287487 0.43993884325027471 -0.0030328460145802 2.9257500171661381
decision_type=2 2 2 2 2 2 2 2 2 2 2 2 2 2 2 2 2 2 2 2 2 2
left_child=1 13 3 4 5 7 15 8 11 19 12 21 -11 -1 -7 -4 18 -18 -9 20 -10 -2
right_child=2 -3 6 -5 -6 14 -8 16 9 10 -12 -13 -14 -15 -16 -17 17 -19 -20 -21 -22 -23
leaf_value=-0.080485679513991049 0.14056807254318057 0.082163094942138346 -0.057005099835286212 -0.088758729949654877 0.073139447308267436 -0.072014883706324515 0.087338182482004978 -0.088566207181801554 0.097137681955224653 0.35591581417410534 -0.1004485191031816 -0.085005221346010143 0.076078263031011895 0.026974897318252464 0.067503312868363807 0.10033620175206436 0.67423829900697818 0.075817765271899873 0.1150744501653309 -0.082382263227678929 -0.081413988331731968 -0.049304699102883126
leaf_weight=58.420740965753794 11.156686857342722 8974.8527480997145 75.743340827524662 6396.4047416634858 78.969621859490871 17.840231627225876 60.975006062537432 20.719556678086523 16.825729742646217 4.1083194911479941 12.64999385923147 883.64389691129327 43.819627992808819 40.135850552469492 59.325665533542633 9.7364353537559492 0.80122076719999569 17.19473022595048 7.0881984382867804 205.51295475289226 20.220079183578491 11.53601625189185
leaf_count=507 49 259657 574 55172 1610 164 1503 165 142 19 69 7219 441 373 1168 38 7 167 35 1700 125 90
internal_value=0 0.0808717 -0.0809582 -0.082731 -0.0554138 -0.0630328 0.013551 -0.0690744 -0.072372 -0.044261 0.0581939 -0.0817741 0.100066 -0.0367238 0.0352477 -0.0390834 0.0180007 0.102461 -0.0366582 -0.0698487 -0.000318117 0.0440447
internal_weight=0 9073.41 7954.27 7807.82 1411.41 1332.44 146.455 1255.28 1209.47 303.137 60.5779 906.337 47.9279 98.5566 77.1659 85.4798 45.8037 17.996 27.8078 242.559 37.0458 22.6927
internal_count=330994 260537 70457 68342 13170 11560 2115 10228 9854 2496 529 7358 460 880 1332 612 374 174 200 1967 267 139
is_linear=0
shrinkage=0.1


Tree=62
num_leaves=1
num_cat=0
split_feature=
split_gain=
threshold=
decision_type=
left_child=
right_child=
leaf_value=0
leaf_weight=
leaf_count=
internal_value=
internal_weight=
internal_count=
is_linear=0
shrinkage=1


Tree=63
num_leaves=1
num_cat=0
split_feature=
split_gain=
threshold=
decision_type=
left_child=
right_child=
leaf_value=0
leaf_weight=
leaf_count=
internal_value=
internal_weight=
internal_count=
is_linear=0
shrinkage=1


Tree=64
num_leaves=1
num_cat=0
split_feature=
split_gain=
threshold=
decision_type=
left_child=
right_child=
leaf_value=0
leaf_weight=
leaf_count=
internal_value=
internal_weight=
internal_count=
is_linear=0
shrinkage=1


Tree=65
num_leaves=23
num_cat=0
split_feature=44 19 6 2 19 38 1 29 1 39 30 1 41 41 2 28 35 32 29 6 43 47
split_gain=9316.14 120.846 115.582 118.318 110.168 64.8428 46.7103 32.7628 50.5181 61.9597 41.74 26.1563 25.7546 21.9932 19.0949 18.5413 17.3143 23.933 17.163 16.2537 14.5593 14.2584
threshold=1.0884374976158144 -1.5096876511374637 1.0000000180025095e-35 -0.025757665067109053 -1.4440053422155128 10.11862087249756 0.0051065597828961412 -1.3312451062564163 -0.0030328460145802 1.1485143303871157 -1.165536401413392 -0.0030611798695350501 1.9993957281112673 5.3406574726104745 -0.026272193413402339 0.29390887183175995 -0.37131935567148755 -0.53382521781818681 -1.7556119494583056 1.0000000180025095e-35 1.8787302970886233 3.1126003265380864
decision_type=2 2 2 2 2 2 2 2 2 2 2 2 2 2 2 2 2 2 2 2 2 2
left_child=1 12 3 4 5 7 15 8 10 -10 -2 -5 -1 -7 -3 -4 -9 -18 -14 -20 -12 -15
right_child=2 14 6 11 -6 13 -8 16 9 -11 20 -13 18 21 -16 -17 17 -19 19 -21 -22 -23
leaf_value=-0.080192122824517875 -0.093007638450352759 -0.081901581291607004 0.063550055541126943 -0.1003415615986335 -0.067875385325358348 -0.070251927000966483 -0.086474799307348679 0.079948333466903609 -0.074130091449444699 0.076726323782998165 0.090434037239726428 0.087431758784516186 -0.037260472361750556 0.10384778073589306 0.090784625837481467 -0.043138283964006346 -0.022052606512285324 -0.68020220688625455 0.097498766309900814 -0.084905832436370135 -0.037076412780937769 -0.071717995195745746
leaf_weight=16.474001355469227 43.99948412925005 7676.2928686439991 59.571099661290646 7.4283485263586035 70.863592650741339 48.458637442439795 52.43587858043611 728.3910301271826 30.218130953609943 274.94708113744855 26.834671571850777 5525.478948391974 15.223018251359461 15.235446102917196 6.4086264520883551 22.420155264437199 3.7397562116384506 0.64830076694488425 55.535323292016983 5.3563524261116973 13.439329564571379 6.6427607126533976
leaf_count=288 473 259608 411 33 1621 1087 1503 6666 326 2487 235 55054 96 109 49 201 23 5 458 38 84 139
internal_value=0 -0.0803889 0.0790585 0.0808747 0.0532631 0.0604613 -0.0127638 0.0662991 0.0428612 0.0617882 -0.025676 0.0871797 0.033174 -0.0326792 -0.0817575 0.0343766 0.0787553 -0.119289 0.0577106 0.0814535 0.0478841 0.0505417
internal_weight=0 7775.29 6930.75 6796.33 1263.42 1192.55 134.427 1122.22 389.439 305.165 84.2735 5532.91 92.5887 70.3368 7682.7 81.9913 732.779 4.38806 76.1147 60.8917 40.274 21.8782
internal_count=330994 260537 70457 68342 13255 11634 2115 10299 3605 2813 792 55087 880 1335 259657 612 6694 28 592 496 319 248
is_linear=0
shrinkage=0.1


Tree=66
num_leaves=23
num_cat=0
split_feature=44 19 6 2 19 38 1 29 1 39 30 1 41 41 2 28 35 32 29 6 43 47
split_gain=9316.14 120.846 115.582 118.318 110.168 64.8428 46.7103 32.7628 50.5181 61.9597 41.74 26.1563 25.7546 21.9932 19.0949 18.5413 17.3143 23.933 17.163 16.2537 14.5593 14.2584
threshold=1.0884374976158144 -1.5096876511374637 1.0000000180025095e-35 -0.025757665067109053 -1.4440053422155128 10.11862087249756 0.0051065597828961412 -1.3312451062564163 -0.0030328460145802 1.1485143303871157 -1.165536401413392 -0.0030611798695350501 1.9993957281112673 5.3406574726104745 -0.026272193413402339 0.29390887183175995 -0.37131935567148755 -0.53382521781818681 -1.7556119494583056 1.0000000180025095e-35 1.8787302970886233 3.1126003265380864
decision_type=2 2 2 2 2 2 2 2 2 2 2 2 2 2 2 2 2 2 2 2 2 2
left_child=1 12 3 4 5 7 15 8 10 -10 -2 -5 -1 -7 -3 -4 -9 -18 -14 -20 -12 -15
right_child=2 14 6 11 -6 13 -8 16 9 -11 20 -13 18 21 -16 -17 17 -19 19 -21 -22 -23
leaf_value=0.080192122824517875 0.093007638450352759 0.081901581291607004 -0.063550055541126943 0.1003415615986335 0.067875385325358348 0.070251927000966483 0.086474799307348679 -0.079948333466903609 0.074130091449444699 -0.076726323782998165 -0.090434037239726428 -0.087431758784516186 0.037260472361750556 -0.10384778073589306 -0.090784625837481467 0.043138283964006346 0.022052606512285324 0.68020220688625455 -0.097498766309900814 0.084905832436370135 0.037076412780937769 0.071717995195745746
leaf_weight=16.474001355469227 43.99948412925005 7676.2928686439991 59.571099661290646 7.4283485263586035 70.863592650741339 48.458637442439795 52.43587858043611 728.3910301271826 30.218130953609943 274.94708113744855 26.834671571850777 5525.478948391974 15.223018251359461 15.235446102917196 6.4086264520883551 22.420155264437199 3.7397562116384506 0.64830076694488425 55.535323292016983 5.3563524261116973 13.439329564571379 6.6427607126533976
leaf_count=288 473 259608 411 33 1621 1087 1503 6666 326 2487 235 55054 96 109 49 201 23 5 458 38 84 139
internal_value=0 0.0803889 -0.0790585 -0.0808747 -0.0532631 -0.0604613 0.0127638 -0.0662991 -0.0428612 -0.0617882 0.025676 -0.0871797 -0.033174 0.0326792 0.0817575 -0.0343766 -0.0787553 0.119289 -0.0577106 -0.0814535 -0.0478841 -0.0505417
internal_weight=0 7775.29 6930.75 6796.33 1263.42 1192.55 134.427 1122.22 389.439 305.165 84.2735 5532.91 92.5887 70.3368 7682.7 81.9913 732.779 4.38806 76.1147 60.8917 40.274 21.8782
internal_count=330994 260537 70457 68342 13255 11634 2115 10299 3605 2813 792 55087 880 1335 259657 612 6694 28 592 496 319 248
is_linear=0
shrinkage=0.1


Tree=67
num_leaves=1
num_cat=0
split_feature=
split_gain=
threshold=
decision_type=
left_child=
right_child=
leaf_value=0
leaf_weight=
leaf_count=
internal_value=
internal_weight=
internal_count=
is_linear=0
shrinkage=1


Tree=68
num_leaves=1
num_cat=0
split_feature=
split_gain=
threshold=
decision_type=
left_child=
right_child=
leaf_value=0
leaf_weight=
leaf_count=
internal_value=
internal_weight=
internal_count=
is_linear=0
shrinkage=1


Tree=69
num_leaves=1
num_cat=0
split_feature=
split_gain=
threshold=
decision_type=
left_child=
right_child=
leaf_value=0
leaf_weight=
leaf_count=
internal_value=
internal_weight=
internal_count=
is_linear=0
shrinkage=1


Tree=70
num_leaves=23
num_cat=0
split_feature=19 22 2 6 2 32 40 4 31 40 41 30 41 1 1 1 38 39 0 31 1 32
split_gain=7837.3 143.841 141.086 116.248 72.0093 62.226 53.2138 45.0094 38.9657 31.1629 26.4533 28.8622 23.5383 21.552 20.2916 21.2737 20.1129 17.7239 12.8658 12.3075 49.3129 30.1094
threshold=-1.2469584154496609 0.95374210591200448 -0.026272193413402339 1.0000000180025095e-35 -0.025757665067109053 0.81665922905223354 0.50323882699012767 1.0000000180025095e-35 -0.054052578182031047 3.3535678386688237 5.8266596794128427 -1.6280704590758988 1.9993957281112673 -0.0030611798695350501 -0.0027090305293819123 -0.0029164748245870654 2.3313689231872563 0.3585366308689118 -0.040239453586455712 0.31204997996772338 -0.0030540964057963376 0.46345560448612338
decision_type=2 2 2 2 2 2 2 2 2 2 2 2 2 2 2 2 2 2 2 2 2 2
left_child=1 3 -2 4 5 7 16 10 14 12 19 -12 -8 -6 15 -5 17 -7 -10 21 -21 -1
right_child=2 -3 -4 8 13 6 9 -9 18 -11 11 -13 -14 -15 -16 -17 -18 -19 -20 20 -22 -23
leaf_value=0.085922095021015513 -0.081676415718658413 -0.077959094807801915 0.080930075499858811 -0.13954232861376464 -0.083672792734692913 -0.096496493964459668 -0.012402292757609023 -0.083839868626152586 -0.074772098980457197 -0.073110369287336843 -0.099912189098373447 0.093687191528450106 0.086615477411389336 0.086237552265615608 -0.079064652770851701 0.082167194536910321 -0.077890736879391811 0.084690581173521143 0.092332016260366412 -0.081485181610991608 0.074428231206234347 -0.12235431872134556
leaf_weight=632.22896007634699 6574.2182829715312 59.307169182226062 53.795846432447433 5.7043733149766949 7.4770517647266379 7.8732415437698391 30.855409232899547 18.529292315244675 5.3521393686532965 18.622800732031465 17.84567548148334 13.545591501519086 108.1745380833745 4747.3902466893196 67.137861168012023 17.935099944472313 64.235054921358824 17.178853388875723 33.11494192481041 23.372807351872325 153.59549172967672 7.0180576220154753
leaf_count=6651 259493 1722 598 42 33 50 195 487 48 488 169 126 1092 54668 1721 130 1251 138 218 186 1449 39
internal_value=0 0.0770118 -0.0803566 0.0785444 0.0806106 0.0577147 0.0134333 0.0703395 -0.015267 0.0483683 0.07371 -0.0163725 0.0646401 0.0859704 -0.0510101 0.0286671 -0.0482507 0.0277481 0.0690819 0.0771746 0.0538362 0.0836355
internal_weight=0 6056.49 6628.01 5997.19 5867.94 1113.08 246.94 866.136 129.244 157.653 847.607 31.3913 139.03 4754.87 90.7773 23.6395 89.2871 25.0521 38.4671 816.215 176.968 639.247
internal_count=330994 70903 260091 69181 67022 12321 3214 9107 2159 1775 8620 295 1287 54701 1893 172 1439 188 266 8325 1635 6690
is_linear=0
shrinkage=0.1


Tree=71
num_leaves=23
num_cat=0
split_feature=19 22 2 6 2 32 40 4 31 40 41 30 41 1 1 1 38 39 0 31 1 32
split_gain=7837.3 143.841 141.086 116.248 72.0093 62.226 53.2138 45.0094 38.9657 31.1629 26.4533 28.8622 23.5383 21.552 20.2916 21.2737 20.1129 17.7239 12.8658 12.3075 49.3129 30.1094
threshold=-1.2469584154496609 0.95374210591200448 -0.026272193413402339 1.0000000180025095e-35 -0.025757665067109053 0.81665922905223354 0.50323882699012767 1.0000000180025095e-35 -0.054052578182031047 3.3535678386688237 5.8266596794128427 -1.6280704590758988 1.9993957281112673 -0.0030611798695350501 -0.0027090305293819123 -0.0029164748245870654 2.3313689231872563 0.3585366308689118 -0.040239453586455712 0.31204997996772338 -0.0030540964057963376 0.46345560448612338
decision_type=2 2 2 2 2 2 2 2 2 2 2 2 2 2 2 2 2 2 2 2 2 2
left_child=1 3 -2 4 5 7 16 10 14 12 19 -12 -8 -6 15 -5 17 -7 -10 21 -21 -1
right_child=2 -3 -4 8 13 6 9 -9 18 -11 11 -13 -14 -15 -16 -17 -18 -19 -20 20 -22 -23
leaf_value=-0.085922095021015513 0.081676415718658413 0.077959094807801915 -0.080930075499858811 0.13954232861376464 0.083672792734692913 0.096496493964459668 0.012402292757609023 0.083839868626152586 0.074772098980457197 0.073110369287336843 0.099912189098373447 -0.093687191528450106 -0.086615477411389336 -0.086237552265615608 0.079064652770851701 -0.082167194536910321 0.077890736879391811 -0.084690581173521143 -0.092332016260366412 0.081485181610991608 -0.074428231206234347 0.12235431872134556
leaf_weight=632.22896007634699 6574.2182829715312 59.307169182226062 53.795846432447433 5.7043733149766949 7.4770517647266379 7.8732415437698391 30.855409232899547 18.529292315244675 5.3521393686532965 18.622800732031465 17.84567548148334 13.545591501519086 108.1745380833745 4747.3902466893196 67.137861168012023 17.935099944472313 64.235054921358824 17.178853388875723 33.11494192481041 23.372807351872325 153.59549172967672 7.0180576220154753
leaf_count=6651 259493 1722 598 42 33 50 195 487 48 488 169 126 1092 54668 1721 130 1251 138 218 186 1449 39
internal_value=0 -0.0770118 0.0803566 -0.0785444 -0.0806106 -0.0577147 -0.0134333 -0.0703395 0.015267 -0.0483683 -0.07371 0.0163725 -0.0646401 -0.0859704 0.0510101 -0.0286671 0.0482507 -0.0277481 -0.0690819 -0.0771746 -0.0538362 -0.0836355
internal_weight=0 6056.49 6628.01 5997.19 5867.94 1113.08 246.94 866.136 129.244 157.653 847.607 31.3913 139.03 4754.87 90.7773 23.6395 89.2871 25.0521 38.4671 816.215 176.968 639.247
internal_count=330994 70903 260091 69181 67022 12321 3214 9107 2159 1775 8620 295 1287 54701 1893 172 1439 188 266 8325 1635 6690
is_linear=0
shrinkage=0.1


Tree=72
num_leaves=1
num_cat=0
split_feature=
split_gain=
threshold=
decision_type=
left_child=
right_child=
leaf_value=0
leaf_weight=
leaf_count=
internal_value=
internal_weight=
internal_count=
is_linear=0
shrinkage=1


Tree=73
num_leaves=1
num_cat=0
split_feature=
split_gain=
threshold=
decision_type=
left_child=
right_child=
leaf_value=0
leaf_weight=
leaf_count=
internal_value=
internal_weight=
internal_count=
is_linear=0
shrinkage=1


Tree=74
num_leaves=1
num_cat=0
split_feature=
split_gain=
threshold=
decision_type=
left_child=
right_child=
leaf_value=0
leaf_weight=
leaf_count=
internal_value=
internal_weight=
internal_count=
is_linear=0
shrinkage=1


Tree=75
num_leaves=23
num_cat=0
split_feature=19 34 2 6 32 1 1 37 36 4 28 29 40 1 30 1 2 8 35 28 34 32
split_gain=6607.62 122.618 119.594 87.3166 63.2117 41.662 53.2853 46.9385 38.6787 35.4784 34.1794 25.0251 18.5183 13.7546 11.7986 75.3645 24.3146 11.24 10.8898 31.3126 15.3094 10.5699
threshold=-1.2469584154496609 -0.24108176781062482 -0.026272193413402339 1.0000000180025095e-35 0.81665922905223354 -0.0030429652484926461 -0.0027242093802505815 1.0000000180025095e-35 -0.23035594646553911 1.0000000180025095e-35 0.34024427088364145 -0.18073944246462795 0.38614645600318914 -0.0030247506274502429 -0.92209742369628345 -0.0030540964057963376 -0.022246765762990169 1.0000000180025095e-35 -0.45007624381732553 0.34024427088364145 -0.45128022251501837 0.44267892068811704
decision_type=2 2 2 2 2 2 2 2 2 2 2 2 2 2 2 2 2 2 2 2 2 2
left_child=1 3 17 4 9 7 -7 -6 12 14 -9 13 -5 -3 15 16 -1 -2 -17 -20 -21 -16
right_child=2 11 -4 8 5 6 -8 10 -10 -11 -12 -13 -14 -15 21 18 -18 -19 19 20 -22 -23
leaf_value=-0.093410736776215558 -0.081449067662826113 -0.08974111104503972 0.078802012731920557 0.074185096477582674 -0.087211972812352836 0.081135341765105409 -0.034457891173384138 0.089493157490994693 -0.074517926731922091 -0.082901660821522186 -0.083507095920956786 0.10933367488507575 -0.06173088374002722 0.0075695760086045326 0.085294094989505034 0.083957017324831337 0.087639651500253754 0.50325174276255469 0.075154043179143024 0.085701271648766064 -0.3234997274619445 0.010926295134823705
leaf_weight=35.229336669668555 5618.3684409633279 54.552858211100101 46.979391917586327 45.983996670693159 47.028784114867449 229.40968077629805 48.269663566723466 45.345671027898788 50.88750359788537 12.899789409711955 15.264378903433679 9.4008374512195569 12.818961311131714 19.796467870473862 4120.3364414144307 452.11948856711388 9.3960762023925763 0.32879364490508933 16.786929167807106 1.2391482070088375 3.4874783456325531 19.200844347476959
leaf_count=329 259491 1770 598 402 903 2800 606 509 1612 417 499 96 112 175 54648 5529 109 2 194 16 20 157
internal_value=0 0.0756371 -0.0800863 0.0775831 0.0794981 0.0405689 0.0610415 -0.0122449 -0.0106849 0.0827097 0.0459238 -0.0443934 0.0445556 -0.0638309 0.0831683 0.0689441 -0.0552898 -0.0814149 0.0806494 0.0111373 -0.216222 0.0849491
internal_weight=0 5249.45 5665.68 5165.7 5056.01 385.318 277.679 107.639 109.69 4670.7 60.61 83.7502 58.803 74.3493 4657.8 518.258 44.6254 5618.7 473.633 21.5136 4.72663 4139.54
internal_count=330994 70903 260091 68862 66736 5317 3406 1911 2126 61419 1008 2041 514 1945 61002 6197 438 259493 5759 230 36 54805
is_linear=0
shrinkage=0.1


Tree=76
num_leaves=23
num_cat=0
split_feature=19 34 2 6 32 1 1 37 36 4 28 29 40 1 30 1 2 8 35 28 34 32
split_gain=6607.62 122.618 119.594 87.3166 63.2117 41.662 53.2853 46.9385 38.6787 35.4784 34.1794 25.0251 18.5183 13.7546 11.7986 75.3645 24.3146 11.24 10.8898 31.3126 15.3094 10.5699
threshold=-1.2469584154496609 -0.24108176781062482 -0.026272193413402339 1.0000000180025095e-35 0.81665922905223354 -0.0030429652484926461 -0.0027242093802505815 1.0000000180025095e-35 -0.23035594646553911 1.0000000180025095e-35 0.34024427088364145 -0.18073944246462795 0.38614645600318914 -0.0030247506274502429 -0.92209742369628345 -0.0030540964057963376 -0.022246765762990169 1.0000000180025095e-35 -0.45007624381732553 0.34024427088364145 -0.45128022251501837 0.44267892068811704
decision_type=2 2 2 2 2 2 2 2 2 2 2 2 2 2 2 2 2 2 2 2 2 2
left_child=1 3 17 4 9 7 -7 -6 12 14 -9 13 -5 -3 15 16 -1 -2 -17 -20 -21 -16
right_child=2 11 -4 8 5 6 -8 10 -10 -11 -12 -13 -14 -15 21 18 -18 -19 19 20 -22 -23
leaf_value=0.093410736776215558 0.081449067662826113 0.08974111104503972 -0.078802012731920557 -0.074185096477582674 0.087211972812352836 -0.081135341765105409 0.034457891173384138 -0.089493157490994693 0.074517926731922091 0.082901660821522186 0.083507095920956786 -0.10933367488507575 0.06173088374002722 -0.0075695760086045326 -0.085294094989505034 -0.083957017324831337 -0.087639651500253754 -0.50325174276255469 -0.075154043179143024 -0.085701271648766064 0.3234997274619445 -0.010926295134823705
leaf_weight=35.229336669668555 5618.3684409633279 54.552858211100101 46.979391917586327 45.983996670693159 47.028784114867449 229.40968077629805 48.269663566723466 45.345671027898788 50.88750359788537 12.899789409711955 15.264378903433679 9.4008374512195569 12.818961311131714 19.796467870473862 4120.3364414144307 452.11948856711388 9.3960762023925763 0.32879364490508933 16.786929167807106 1.2391482070088375 3.4874783456325531 19.200844347476959
leaf_count=329 259491 1770 598 402 903 2800 606 509 1612 417 499 96 112 175 54648 5529 109 2 194 16 20 157
internal_value=0 -0.0756371 0.0800863 -0.0775831 -0.0794981 -0.0405689 -0.0610415 0.0122449 0.0106849 -0.0827097 -0.0459238 0.0443934 -0.0445556 0.0638309 -0.0831683 -0.0689441 0.0552898 0.0814149 -0.0806494 -0.0111373 0.216222 -0.0849491
internal_weight=0 5249.45 5665.68 5165.7 5056.01 385.318 277.679 107.639 109.69 4670.7 60.61 83.7502 58.803 74.3493 4657.8 518.258 44.6254 5618.7 473.633 21.5136 4.72663 4139.54
internal_count=330994 70903 260091 68862 66736 5317 3406 1911 2126 61419 1008 2041 514 1945 61002 6197 438 259493 5759 230 36 54805
is_linear=0
shrinkage=0.1


Tree=77
num_leaves=1
num_cat=0
split_feature=
split_gain=
threshold=
decision_type=
left_child=
right_child=
leaf_value=0
leaf_weight=
leaf_count=
internal_value=
internal_weight=
internal_count=
is_linear=0
shrinkage=1


Tree=78
num_leaves=1
num_cat=0
split_feature=
split_gain=
threshold=
decision_type=
left_child=
right_child=
leaf_value=0
leaf_weight=
leaf_count=
internal_value=
internal_weight=
internal_count=
is_linear=0
shrinkage=1


Tree=79
num_leaves=1
num_cat=0
split_feature=
split_gain=
threshold=
decision_type=
left_child=
right_child=
leaf_value=0
leaf_weight=
leaf_count=
internal_value=
internal_weight=
internal_count=
is_linear=0
shrinkage=1


Tree=80
num_leaves=23
num_cat=0
split_feature=19 34 2 6 2 32 40 1 4 39 29 31 1 32 41 30 1 20 1 2 1 35
split_gain=5575.84 103.7 101.451 76.2054 59.1959 48.7164 41.9396 31.6191 25.3107 21.2598 20.3868 19.4842 56.964 25.4393 17.5319 13.7792 13.2328 13.1569 13.0687 13.0037 12.4172 11.6794
threshold=-1.2469584154496609 -0.24108176781062482 -0.026272193413402339 1.0000000180025095e-35 -0.026272193413402339 0.81665922905223354 0.50323882699012767 0.0051065597828961412 1.0000000180025095e-35 12.492636680603029 -0.18073944246462795 0.22052434043028477 -0.0030540964057963376 0.46345560448612338 1.9993957281112673 -1.165536401413392 0.051885754313353821 -1.1789685323745822 -0.0029164748245870654 0.052314444889569059 -0.0028527236509386521 -0.45007624381732553
decision_type=2 2 2 2 2 2 2 2 2 2 2 2 2 2 2 2 2 2 2 2 2 2
left_child=1 3 -2 4 5 8 -7 18 11 14 19 13 15 -1 17 -13 -6 -8 -5 -3 -15 -14
right_child=2 10 -4 7 16 6 9 -9 -10 -11 -12 12 21 20 -16 -17 -18 -19 -20 -21 -22 -23
leaf_value=0.083678800196036018 -0.081196098446003701 -0.070842936277549895 0.076660391121312024 -0.13210218215908512 0.084109907578223064 -0.051530706548265651 -0.034070549016373124 -0.085237284693257087 -0.082472111399800943 -0.082848651853453373 0.10724447757442346 -0.1068827587216169 0.079124725537139659 0.092223411844966047 0.082074616771764614 0.082785995372580037 -0.19287064130389264 0.16769035773012808 0.044388835321618504 0.1220025949632822 -0.18791364400526814 -0.014314691736658511
leaf_weight=461.05808462761343 4799.8902873806655 63.395068220794201 41.061261184513569 4.5122517421841613 3527.38558152318 69.799859117716551 25.256895877420906 35.82356077618897 11.045014427974818 11.707348162308334 8.1543141789734346 27.091651320457462 122.47354989498854 2.277051642537117 83.259962234646082 4.4610130712389937 1.725705713033675 3.7063404247164717 59.774066414684057 3.7007428258657447 5.185787320137023 15.01723227649927
leaf_count=6478 259493 1916 598 37 54603 1428 174 1512 417 477 96 297 1513 17 1097 34 15 16 577 29 20 150
internal_value=0 0.0743546 -0.0798571 0.0763137 0.0782893 0.0544704 0.0104669 -0.00995187 0.0676136 0.045385 -0.0420609 0.0702136 0.0411101 0.0807142 0.0587626 -0.0800668 0.0839745 -0.0082518 0.0320009 -0.0602063 -0.102439 0.0689189
