tree
version=v3
num_class=4
num_tree_per_iteration=4
label_index=0
max_feature_idx=47
objective=multiclass num_class:4
feature_names=duration src_bytes dst_bytes land wrong_fragment urgent hot num_failed_logins logged_in num_compromised root_shell su_attempted num_root num_file_creations num_shells num_access_files num_outbound_cmds is_host_login is_guest_login count srv_count serror_rate srv_serror_rate rerror_rate srv_rerror_rate same_srv_rate diff_srv_rate srv_diff_host_rate dst_host_count dst_host_srv_count dst_host_same_srv_rate dst_host_diff_srv_rate dst_host_same_src_port_rate dst_host_srv_diff_host_rate dst_host_serror_rate dst_host_srv_serror_rate dst_host_rerror_rate dst_host_srv_rerror_rate feature0 feature1 feature2 feature3 feature4 feature5 feature6 feature7 feature8 feature9
feature_infos=[-0.067791720533848326:57.954456597141942] [-0.003061685831230673:5.1938510122693105] [-0.026287326600058027:156.0110317562204] [-0.0066734176481231472:149.84825657978121] [-0.047720185394377876:22.206628815910801] [-0.0025714681001558137:362.95721204820705] [-0.044135911646576681:35.756830593454978] [-0.0097821846314220823:322.16386006868646] [-0.41719170438758463:2.3969795887191636] [-0.0056786841552395762:21.125102396541138] [-0.01055195222316461:94.769193306685992] [-0.0046756707303497649:-0.0046756707303497649] [-0.0056400120680036962:26.823774699014688] [-0.011232081539976346:41.475752250876134] [-0.0099189749306474607:181.47830007000971] [-0.027631815673041748:54.794445335378192] none none [-0.037262662385766712:26.836515052181909] [-1.5542577893345018:0.83845489282227337] [-1.1850581083787985:0.88539773305459135] [-0.46408975211861997:2.1625361321649903] [-0.4635204714740499:2.1610398570186433] [-0.24796047607757601:4.0693956008947678] [-0.24863128177301883:4.0589888568724621] [-2.039076684066409:0.53698740327617223] [-0.25524338928175266:11.909406159748098] [-0.20363306829960715:6.8189708658241033] [-3.5750969490003421:0.34796683739228829] [-1.7697575108983687:0.62555755961896153] [-1.8349935901354413:0.59939618703564601] [-0.28286667702562751:8.8696972767182309] [-1.25062080884941:0.8270475709512366] [-0.15862929281970367:23.575830460248426] [-0.46441762593404301:2.1630630578708772] [-0.46320239184163192:2.1620272130196336] [-0.25203952228869597:4.0846756423426704] [-0.24946400466852289:4.0957154713221344] [0:61.843765258789062] [0:44.723873138427734] [0:35.882724761962891] [0:85.288963317871094] [0:45.605033874511719] [0:205.13246154785156] [0:50.017978668212891] [0:51.558570861816406] none [0:215.84278869628906]
tree_sizes=2558 2525 2535 2626 2553 2548 2651 2690 2571 2556 2589 2699 2536 2565 2598 2627 2524 2564 2597 2607 2539 2576 2577 2619 2553 2590 2584 2598 2555 2538 2588 2595 2507 2551 2604 2617 2549 2563 2603 2601 2539 2560 2587 2618 2542 2552 2584 2666 2528 2570 2625 2624 2526 2592 2600 2622 2552 2566 2588 2638 2560 2588 2618 2647 2534 2590 2637 2642 2548 2581 2601 2652 2555 2566 2602 2662 2551 2597 2602 2634 2542 2592 2603 2646 2553 2589 2636 2662 2590 2605 2625 2669 2565 2600 2628 2710 2548 2587 2658 2590 2594 2613 2671 1343 2632 2615 2642 1226 2535 2554 2618 2125 2587 2623 2667 1578 2594 2659 2683 688 2625 2644 2380 223 2615 2311 1569 223 2082 1997 1480 223 1551 1660 1110 223 2651 1339 2144 223 2437 1659 1708 223 2675 1447 2403 223 2116 1023 1156 223 2561 1124 1351 223 2448 1376 2144 223 2234 1569 2713 223 2687 1005 1701 451

Tree=0
num_leaves=23
num_cat=0
split_feature=38 47 33 44 31 41 28 38 20 0 6 47 20 45 44 44 20 38 29 47 20 41
split_gain=89038.5 10623.1 6409.6 4424.3 1880.13 1387.78 1296.39 1071.24 586.524 493.075 309.815 282.073 1188.98 253.607 123.152 1108.52 684.441 447.289 256.777 158.505 111.761 111.477
threshold=4.6197571754455575 4.1333465576171884 0.19738760347631831 7.5748593807220468 -0.054052578182031047 1.1995251178741457 -3.5210389834398135 20.482323646545414 -0.97598266556738744 -0.067085252150581837 1.0000000180025095e-35 1.0000000180025095e-35 -1.1789685323745822 3.2493115663528447 1.5461788773536684 4.4250624179840097 -1.1749088150384386 2.6134724617004399 0.62084237247227392 2.0648565292358403 0.88336787438651954 2.5888469219207768
decision_type=2 2 2 2 2 2 2 2 2 2 2 2 2 2 2 2 2 2 2 2 2 2
left_child=1 2 4 8 6 -4 13 -5 11 14 -11 12 -2 -1 -8 16 17 18 -16 -18 -3 -13
right_child=3 20 5 7 -6 -7 9 -9 -10 10 -12 21 -14 -15 15 -17 19 -19 -20 -21 -22 -23
leaf_value=-1.4590405751908235 -5.586495808393078 -5.6136822218527822 -5.6025058956617437 0.062601907095723483 -5.6435574014788275 0.062601907095723372 0.062316570596644874 -5.4153110291358351 0.062601907095722109 -5.6435574014788275 -0.41291136861882055 -5.0061672659465586 0.062601907095722928 -5.2631467809071815 -5.6435574014788203 0.062601907095723511 -0.21802887857187672 0.062601907095723136 0.062601907095722442 -4.0132261704574983 0.062601907095721568 -5.6240691524741333
leaf_weight=0.26287383399903674 1.7524922266602518 3.3472601529210801 2.4359641950577493 1.9277414493262761 0.57832243479788203 0.52574766799807537 2803.7071639001369 0.43812305666506279 0.19277414493263023 0.24534891173243423 0.21029906719923019 3.2946853861212757 0.47317290119827049 0.52574766799807549 0.78862150199711323 20.293859984725714 1.0690202582627559 0.21029906719923019 0.087624611333012803 0.1226744558662175 0.035049844533204921 25.656486198306084
leaf_count=15 100 191 139 110 33 30 159984 25 11 14 12 188 27 30 45 1158 61 12 5 7 2 1464
internal_value=-0.0134107 0.0460555 0.052747 -5.12185 0.0576162 -4.59687 0.0587823 -0.951826 -5.43635 0.0599133 -3.22941 -5.47035 -4.38551 -3.99511 0.0604436 -0.172201 -2.26376 -4.07897 -5.07294 -0.608711 -5.55486 -5.55375
internal_weight=0 2834.45 2831.06 33.7355 2828.1 2.96171 2827.52 2.36586 31.3696 2826.73 0.455648 31.1768 2.22567 0.788622 2826.28 22.5721 2.27824 1.08655 0.876246 1.19169 3.38231 28.9512
internal_count=163663 161738 161545 1925 161376 169 161343 135 1790 161298 26 1779 127 45 161272 1288 130 62 50 68 193 1652
is_linear=0
shrinkage=1


Tree=1
num_leaves=23
num_cat=0
split_feature=47 33 1 1 31 3 1 28 44 24 28 29 1 21 44 44 1 10 29 26 32 0
split_gain=63029.4 34257.3 16974.5 3932.78 2079.93 579.385 362.578 260.27 219.288 219.603 91.4525 339.036 328.64 155.937 117.627 696.167 329.079 73.0051 69.1343 56.5721 608.718 66.5463
threshold=4.1333465576171884 5.6563133466819897 -0.0030384115932320455 -0.0028405805702437165 -0.054052578182031047 1.0000000180025095e-35 -0.0030591560227525611 0.34024427088364145 1.0000000180025095e-35 1.539031075764856 0.12401240864152789 -1.7650423237516808 -0.0030384115932320455 2.1494030027435724 3.1134353876113896 1.7078226804733279 -0.0025132233531760723 1.0000000180025095e-35 -1.7367512008715549 4.1848536961141436 -1.2194557831524 -0.062846441850982981
decision_type=2 2 2 2 2 2 2 2 2 2 2 2 2 2 2 2 2 2 2 2 2 2
left_child=1 4 5 6 8 17 -3 -6 9 -1 11 12 13 -10 15 -13 18 -2 -17 -12 -21 -22
right_child=2 3 -4 -5 7 -7 -8 -9 10 -11 19 14 -14 -15 -16 16 -18 -19 -20 20 21 -23
leaf_value=-4.6462685417613789 2.6672933932659273 -4.6462685417613789 -4.6219492801780637 -4.6462685417613789 -4.6462685417613772 -4.6462685417613772 2.6738291948164408 2.6738291948164425 2.1509650707751344 2.6738291948163546 -4.6456308271963662 -4.6462685417613789 -4.6462685417613789 -4.6462685417613772 -4.633819395950872 -4.6462685417613727 -4.646268541761378 -4.6462685417613692 2.6738291948164115 -4.6462685417613789 2.6738291948164425 -4.6462685417613727
leaf_weight=0.081966117024420693 15.300341844558714 0.068305097520350411 4.111966870725154 0.83332218974828531 0.054644078016281128 0.10928815603256303 7.2266793176531801 0.43715262413024802 0.19125427305698395 0.081966117024421692 2195.3394953235984 1.5846782624721516 0.19125427305698295 0.040983058512210846 8.032679468393324 0.013661019504070282 0.095627136528491863 0.013661019504071059 0.23223733156919479 1.6120003014802931 0.13661019504070182 0.013661019504070282
leaf_count=6 1120 5 301 61 4 8 529 32 14 6 160701 116 14 3 588 1 7 1 17 118 10 1
internal_value=-4.57048 -4.6182 1.08695 1.86185 -4.64206 2.60899 2.60529 1.86049 -4.64351 -0.98622 -4.64378 -4.34769 -1.57655 0.951453 -4.46553 -3.7637 0.331398 2.66077 2.26716 -4.64518 -4.07882 2.00837
internal_weight=0 2216.27 19.5353 8.12831 2208.14 15.4233 7.29498 0.491797 2207.65 0.163932 2207.48 10.3824 0.423492 0.232237 9.95888 1.9262 0.341525 15.314 0.245898 2197.1 1.76227 0.150271
internal_count=163663 162233 1430 595 161638 1129 534 36 161602 12 161590 760 31 17 729 141 25 1121 18 160830 129 11
is_linear=0
shrinkage=1


Tree=2
num_leaves=23
num_cat=0
split_feature=44 33 1 4 7 2 1 19 36 1 1 35 20 2 0 2 1 19 33 2 44 44
split_gain=34571.2 15949.4 31680.4 12937.3 6887.38 2384.61 794.927 713.16 2569.24 3981.78 4326.44 954.576 740.96 259.268 253.36 256.651 61.1704 198.87 52.5748 212.128 14.8048 116.007
threshold=23.874659538269047 0.19738760347631831 -0.0030323400528845779 1.0000000180025095e-35 1.0000000180025095e-35 1.6379697426722275 2.6208374530451044 -1.542528805598439 -0.23035594646553911 -0.0027667101626828567 -0.0025132233531760723 -0.45007624381732553 -0.72225033205839362 0.22599802813686404 0.35255696750970572 0.20717234393719211 -0.0028405805702437165 -1.5519119925872891 0.43473220100699961 0.033337428823340266 3.980507612228394 4.4250624179840097
decision_type=2 2 2 2 2 2 2 2 2 2 2 2 2 2 2 2 2 2 2 2 2 2
left_child=1 4 18 -4 5 6 7 8 9 12 13 -12 14 -11 15 16 20 -18 19 -3 -1 -22
right_child=-2 2 3 -5 -6 -7 -8 -9 -10 10 11 -13 -14 -15 -16 -17 17 -19 -20 -21 21 -23
leaf_value=-5.9403881193099171 20.575607099007904 20.575607098995448 20.575607099007911 -5.9403881193099171 20.575607099007904 20.575607099007904 20.575607099007904 -5.9403881193099179 -5.9403881193099179 20.575607099007744 -5.9403881193099179 20.575607099006152 20.575607099005566 -5.9403881193098975 20.575607099000901 20.575607099000901 -5.9403881193099108 20.575607099000884 -5.9403881193099179 -5.9403881193099126 7.3176094898472472 -5.9403881193099162
leaf_weight=0.50535534927621484 0.49404142354614933 0.0037713085766889467 0.86362966406158992 0.23382113175466657 0.098054022993891432 0.033941777190192535 0.011313925730063512 609.08896298659965 3.2923523874487728 0.1659375773742795 0.13576710876077314 0.015085234306752682 0.011313925730064511 0.0037713085766881696 0.0037713085766881696 0.0037713085766881696 0.011313925730064511 0.0037713085766881713 2.168502431595698 0.015085234306752682 0.00754261715337634 0.052798320073634386
leaf_count=134 131 1 229 62 26 9 3 161506 873 44 36 4 3 1 1 1 3 1 575 4 2 14
internal_value=-5.86517 -5.88802 1.06154 14.9262 -5.92523 -5.92946 -5.93093 -5.93142 -4.63477 0.036578 9.03335 -3.28879 -4.77302 19.9864 -5.26049 -5.42718 -5.59602 0.688611 -5.89467 -0.637189 -5.76361 -4.28314
internal_weight=0 616.73 3.28481 1.09745 613.445 613.347 613.313 613.302 4.21255 0.920199 0.320561 0.150852 0.599638 0.169709 0.588324 0.584553 0.580782 0.0150852 2.18736 0.0188565 0.565696 0.0603409
internal_count=163663 163532 871 291 162661 162635 162626 162623 1117 244 85 40 159 45 156 155 154 4 580 5 150 16
is_linear=0
shrinkage=1


Tree=3
num_leaves=23
num_cat=0
split_feature=10 8 1 42 25 40 30 40 47 28 42 42 1 1 1 20 40 1 1 20 6 20
split_gain=51777.7 512.529 13263.1 4944.05 3728.87 927.828 800.763 254.559 690.527 9.0653 290.734 412.272 1.77636e-15 1.77636e-15 1.77636e-15 8.88178e-16 8.88178e-16 2.77556e-17 6.93889e-18 6.93889e-18 3.46945e-18 8.67362e-19
threshold=1.0000000180025095e-35 1.0000000180025095e-35 -0.0028405805702437165 3.7616611719131474 -0.33887438642030526 6.3080685138702401 -1.749789947934453 3.8596478700637822 3.3235722780227666 -3.5210389834398135 1.4231091737747195 0.69716757535934459 -0.0017355602270045592 -0.0028932005865884383 -0.0025886116458237987 -0.84201199347463873 24.656326293945316 -0.001806900826087307 -0.0018402942979983802 -1.109953337660136 5.7095908481018887 -0.78111623343248016
decision_type=2 2 2 2 2 2 2 2 2 2 2 2 2 2 2 2 2 2 2 2 2 2
left_child=1 9 3 -3 -4 6 -6 17 -9 10 11 -1 13 15 -15 16 -11 18 20 -12 -8 -17
right_child=-2 2 4 -5 5 -7 7 8 -10 12 19 -13 -14 14 -16 21 -18 -19 -20 -21 -22 -23
leaf_value=-9.010228952895492 508.88521768878991 347.04289061300989 180.88476814887551 72.373341233588562 72.373341233588619 85.93726959798984 -9.0102289528959041 85.93726959798984 -9.0102289528958792 -9.0102289528959059 -9.0102289528959041 62.200394960285251 -9.0102289528960142 -9.0102289528953534 -9.0102289528959059 -9.010228952895897 -9.0102289528958668 -9.0102289528959059 -9.010228952895897 -9.0102289528959041 -9.0102289528958934 -9.0102289528950372
leaf_weight=0.0019308916671530998 0.0019308916671424417 0.0014042848488315931 0.0010532136366236946 0.0012287492427276447 0.0012287492427276439 0.0010532136366236946 0.041777474252739921 0.0010532136366236946 0.002808569697663188 8.0168866663734626 0.06547478107677307 0.001404284848831594 0.0049149969709024735 0.0019308916671566525 20.345103354266019 0.0094789227296132594 0.0035107121220797613 0.16710989701095869 0.0087767803051974624 0.041075331828324124 0.0063192818197421721 0.0012287492427408573
leaf_count=11 11 8 6 7 7 6 238 6 16 45671 373 8 28 11 115903 54 20 952 50 234 36 7
internal_value=-8.93522 -8.96846 -4.30562 218.864 -6.84742 -7.7066 -8.13715 -8.57133 16.8845 -9.00672 -8.10019 20.9732 -9.01023 -9.01023 -9.01023 -9.01023 -9.01023 -9.01023 -9.01023 -9.01023 -9.01023 -9.01023
internal_weight=0 28.7268 0.233813 0.00263303 0.23118 0.230127 0.229074 0.227845 0.00386178 28.4929 0.109885 0.00333518 28.3831 28.3781 20.347 8.03111 8.0204 0.223983 0.0568735 0.10655 0.0480968 0.0107077
internal_count=163663 163652 1332 15 1317 1311 1305 1298 22 162320 626 19 161694 161666 115914 45752 45691 1276 324 607 274 61
is_linear=0
shrinkage=1


Tree=4
num_leaves=23
num_cat=0
split_feature=0 43 0 40 38 23 28 39 39 38 22 1 38 40 43 39 36 43 45 36 36 20
split_gain=59.5569 789.843 3136.59 23.2655 616.594 2583.51 11.036 29.9175 604.592 1677.04 13.884 6.01068 5.16662 5.78148 2.58316 1.45692 0.548592 17.5258 5.86096 3.90511 85.616 1.08224
threshold=-0.054368821251785257 0.061173439025878913 -0.046597669035854002 4.2657413482666025 5.8597910404205331 3.7887674558915658 -3.5210389834398135 1.4604613780975344 1.0040613412857058 6.2600865364074716 2.0166890389515455 -0.0017355602270045592 4.6197571754455575 2.1612458229064946 0.52592417597770702 11.322276115417482 -0.23035594646553911 2.7154392004013066 2.3932899236679082 2.5451417588985357 3.0221804270079864 -1.1749088150384386
decision_type=2 2 2 2 2 2 2 2 2 2 2 2 2 2 2 2 2 2 2 2 2 2
left_child=3 2 -2 6 5 -5 7 8 -1 -10 11 -9 16 14 -14 -16 -8 -18 19 -19 -21 -20
right_child=1 -3 -4 4 -6 -7 12 10 9 -11 -12 -13 13 -15 15 -17 17 18 21 20 -22 -23
leaf_value=0.077691572901529449 199.52643386593434 0.045619626190915641 -0.075018802094328568 -0.075034866980980219 0.042477163335889495 161.39413508574273 0.075943976998788951 -0.10249788585787384 116.02754246550163 -0.075019385068788261 1.6446068177218311 0.19889627930650566 0.33167139065078338 -0.087754162903280683 0.20001714896964443 0.075310810379918644 0.075683590426749645 -0.16752535889780187 -0.073540876252101761 -4.9145004793408846 -0.096487965128211409 0.07574115228284399
leaf_weight=0.10921834283851577 0.0010019967155870933 0.06077172818043669 0.0036739880086179015 0.0049545061965535755 0.15528803539928049 0.0012386265443637967 2297.8537606886839 0.7518110878433778 0.0017226148744012553 0.004478798620150313 0.063872374594211467 5.5198786528781065 1.1666254252194646 0.8021503964846487 3.3643553083998787 1.2983627547509966 141.49821963800872 1.8860225956304932 0.98007519989783876 0.040085139829898142 0.46161404252052307 0.96261709785903804
leaf_count=106 5 87 31 13 99 4 152023 546 18 22 2 71 5 933 68 92 9407 15 46 3 2 65
internal_value=0 3.09288 42.6967 0.0762285 1.2765 32.2188 0.0761496 0.206773 1.80229 32.1757 0.177706 0.162767 0.0758057 0.163953 0.198589 0.165292 0.0755665 0.0696189 -0.128547 -0.233484 -0.481441 0.000429373
internal_weight=0 0.0654477 0.00467598 2456.93 0.161481 0.00619313 2456.76 6.45098 0.11542 0.00620141 6.33556 6.27169 2450.31 6.63149 5.82934 4.66272 2443.68 145.829 4.33041 2.38772 0.501699 1.94269
internal_count=163663 123 36 163540 116 17 163424 765 146 40 619 617 162659 1098 165 160 161561 9538 131 20 5 111
is_linear=0
shrinkage=0.1


Tree=5
num_leaves=23
num_cat=0
split_feature=33 37 38 26 30 42 38 45 26 45 4 28 44 44 38 38 38 26 38 38 38 38
split_gain=36.7704 269.653 1201.09 10.9972 78.1613 31.4753 210.577 606.75 3.62712 17.2332 2.58042 9.07415 75.783 1180.24 1757.39 3.00695 2.97178 2.42011 57.0429 1.27939 1.20945 1.0567
threshold=19.659644600992188 1.6841408621473197 30.597766876220707 11.605289921022353 -1.2385680947285247 9.1746172904968279 10.061102390289308 2.3816418647766118 0.77875182238578478 2.5522357225418095 1.0000000180025095e-35 -3.5210389834398135 2.7015656232833867 1.7078226804733279 6.2600865364074716 5.0790045261383066 2.1060085296630864 1.022044813366382 1.3630682826042178 5.6293044090271005 4.6197571754455575 4.6197571754455575
decision_type=2 2 2 2 2 2 2 2 2 2 2 2 2 2 2 2 2 2 2 2 2 2
left_child=3 -2 -3 8 5 -5 7 -7 10 17 11 12 13 -1 -15 20 -14 18 -10 -12 -13 -11
right_child=1 2 -4 4 -6 6 -8 -9 9 21 19 15 16 14 -16 -17 -18 -19 -20 -21 -22 -23
leaf_value=-0.078060219429279945 0.026781145290228372 75.143314690770694 0.075037501652774813 0.026032060010382486 8.413650654274015 85.020089307627288 0.0065173713527056426 0.075033137724153542 6.3762802920927317 -0.065647692537064609 -0.075747697010173018 -0.075620993899582781 -0.14555255073739756 100.49752111163434 0.075033637600443071 0.10901547222928432 0.10975815494572705 0.15793431745507291 0.23052699419432196 -0.14193726722095523 -0.18790585461642662 -0.17385106893418473
leaf_weight=0.10044372841833668 0.11034360178746183 0.0026642412412911662 0.010656964965164661 0.57964750251267105 0.011779499240218594 0.0011772315483540288 0.025902985595166683 0.0029430788708850741 0.01549865491688196 11.559534557745788 4.3828959856182328 1887.3620868650685 0.86345198786447175 0.0029873786991707887 0.0041823301580734551 0.88191404219219194 0.96592700803945797 1.8855903336661866 0.5909684537909925 8.750840822234748 0.95976837698526551 0.97898452548543069
leaf_count=14 131 6 16 654 6 3 25 5 1 947 358 160286 37 12 9 392 527 60 8 142 10 14
internal_value=0 1.64925 15.0887 -0.0751544 0.345444 0.189557 3.34667 24.345 -0.0752906 -0.0263594 -0.0756768 -0.07537 0.14096 2.7199 41.9177 -0.0755918 -0.0107464 0.213822 0.387586 -0.119849 -0.0756781 -0.074096
internal_weight=0 0.123665 0.0133212 1919.93 0.62145 0.609671 0.0300233 0.00412031 1919.31 15.0306 1904.27 1891.14 1.93699 0.107613 0.00716971 1889.2 1.82938 2.49206 0.606467 13.1337 1888.32 12.5385
internal_count=163663 153 22 163510 693 687 33 8 162817 1030 161787 161287 599 35 21 160688 564 69 9 500 160296 961
is_linear=0
shrinkage=0.1


Tree=6
num_leaves=23
num_cat=0
split_feature=0 37 31 31 26 21 36 8 2 38 26 1 29 27 33 43 36 32 29 38 32 27
split_gain=3787.35 206821 120.785 7302.06 4.82374 132.183 687.753 2.64815 2767.11 0.0708731 0.00507088 0.0106272 0.00492912 0.00282935 0.00273271 0.00171575 0.00214733 0.00142566 0.00130006 0.00112045 0.00073068 0.00132699
threshold=-0.067085252150581837 -0.18428631252866304 2.1425627707164954 3.2408704451657586 11.605289921022353 -0.45095662269720188 0.20331556999759756 1.0000000180025095e-35 0.047910687572764774 4.6197571754455575 1.265337804346979 -0.0030611798695350501 -1.7556119494583056 5.9411453740586397 0.90942139606836236 0.52592417597770702 1.3742286644480668 -1.2402324669504066 -0.30333430827850699 1.3630682826042178 0.44267892068811704 3.0618777610679189
decision_type=2 2 2 2 2 2 2 2 2 2 2 2 2 2 2 2 2 2 2 2 2 2
left_child=2 -2 4 -4 7 6 -6 9 -9 10 13 -12 -10 14 -1 -11 18 -18 20 -16 -17 -22
right_child=1 -3 3 -5 5 -7 -8 8 12 15 11 -13 -14 -15 19 16 17 -19 -20 -21 21 -23
leaf_value=-0.075197405265159181 1316.2346593463826 -0.075210621845910111 247.35436766368093 -0.075013695778643863 82.401597253584768 -0.075063507511416064 -0.075013695996739738 92.250232530630129 -0.087695550839383768 -0.089586105555791024 -0.07518347227158978 -0.088844115881441019 -0.075194092506696605 -0.088138655551770945 -0.089716881249602198 -0.086957261673829722 -0.08684976757875601 -0.075179154325644454 -0.075067836369055563 -0.07518365678324733 -0.087309693926960405 -0.075147347665480299
leaf_weight=520.25756459450008 0.001215519442913939 0.066362763403937805 0.0012124671629932795 0.073274856847198144 0.0012124649510941712 0.19969901934382506 0.0060860988014610484 0.0032493760997119861 0.35338199976831797 1.3034145502897194 1.7447035159420923 0.84543075801047862 2.9336051410694814 0.16912898421287437 0.18283845484256644 3.4994825224566743 0.15709863603115082 0.3136524369183461 0.10190690842864647 0.074729442363604903 0.21710760689770792 0.15287573060777504
leaf_count=159874 176 99 8 302 7 600 25 257 3 78 547 19 896 1 1 28 1 128 297 23 121 172
internal_value=0 23.601 -0.0740428 3.95252 -0.074606 0.408036 13.6263 -0.0747937 0.0146421 -0.0753499 -0.0752287 -0.0796424 -0.0765381 -0.0752067 -0.0752025 -0.0863959 -0.0854599 -0.0790739 -0.0862168 -0.0855003 -0.0865104 -0.0822843
internal_weight=0 0.0675783 532.592 0.0744873 532.517 0.206998 0.00729856 532.31 3.29024 529.02 523.274 2.59013 3.28699 520.684 520.515 5.74554 4.44212 0.470751 3.97137 0.257568 3.86947 0.369983
internal_count=163663 275 163388 310 163078 632 32 162446 1156 161290 160465 566 899 159899 159898 825 747 129 618 24 321 293
is_linear=0
shrinkage=0.1


Tree=7
num_leaves=23
num_cat=0
split_feature=8 38 9 37 45 38 38 39 43 38 41 42 32 39 42 34 38 32 43 25 38 39
split_gain=5646.01 263042 23429.3 96342.8 71.3805 827.471 19.4622 8261.82 22987.8 4.38065e-06 1.13807e-06 9.03642e-07 4.29433e-07 3.81834e-07 1.38948e-07 1.25474e-07 7.58184e-08 7.15589e-08 6.81479e-08 6.72782e-08 5.5529e-08 4.76384e-08
threshold=1.0000000180025095e-35 1.3630682826042178 1.0000000180025095e-35 -0.097382723008849884 13.830365657806398 10.193473339080812 0.67487147450447094 2.0990568399429326 2.3131496906280522 4.6197571754455575 2.2571756839752202 1.4231091737747195 -0.22217496084808994 11.322276115417482 3.7616611719131474 -0.10970773362037878 2.6134724617004399 0.11025197992001357 0.52592417597770702 -1.4079409826674765 5.6293044090271005 4.3354630470275888
decision_type=2 2 2 2 2 2 2 2 2 2 2 2 2 2 2 2 2 2 2 2 2 2
left_child=4 2 3 -2 6 -6 11 8 -8 10 15 -1 -4 18 -15 16 21 -7 -11 -13 -20 -9
right_child=1 -3 12 -5 5 17 7 9 -10 13 -12 19 -14 14 -16 -17 -18 -19 20 -21 -22 -23
leaf_value=-0.075008511327488953 -1095.9379785399924 -1410.4370911247947 -0.075008997090627624 -0.075010443976184699 -90.012809179682662 -0.075541698998099205 -521.25095994379535 -0.075383479796008776 -0.075007546311182532 -0.075575071586842596 -0.075008513590776052 -0.075568847333378472 -0.075524505909042916 -0.075477491111551887 -0.075004907375067653 -0.075008766149618711 -0.075244149911679978 -0.075001351457002097 -0.075008209434975048 -0.075009448842097926 -0.075467189253946992 -0.075559057031474378
leaf_weight=22.916163921661784 0.0010037751353645643 0.0013471717976764877 0.13318216332118027 0.003995794482761994 0.0011118794377144034 0.0094926049932837504 0.0011512426828704288 0.032222314494901788 0.0031951463262954111 0.071263582437495698 1.3260079468122028 0.030965127454692265 0.018390705808997154 0.0084040656192883034 0.023955880210451141 0.0084764009250923589 0.02009923353944032 0.00330386222594825 0.002672143067684373 0.0023103803832772432 0.19446722999164884 0.02969401903283142
leaf_count=151493 181 269 868 22 107 1 31 20 65 36 8798 11 3 2 1055 64 40 269 26 14 280 8
internal_value=0 -19.0721 -7.10057 -220.094 -0.103374 -7.2653 -0.099336 -0.423616 -138.121 -0.0751055 -0.0750319 -0.0750093 -0.0750715 -0.0754521 -0.0751276 -0.075375 -0.0754129 -0.0754022 -0.0754913 -0.07553 -0.075461 -0.0754677
internal_weight=0 0.15792 0.156572 0.00499957 24.685 0.0139083 24.671 1.72161 0.00434639 1.71726 1.4165 22.9494 0.151573 0.300763 0.0323599 0.090492 0.0820156 0.0127965 0.268403 0.0332755 0.197139 0.0619163
internal_count=163663 1343 1074 203 162320 377 161943 10425 96 10329 8930 151518 871 1399 1057 132 68 270 342 25 306 28
is_linear=0
shrinkage=0.1


Tree=8
num_leaves=23
num_cat=0
split_feature=39 47 45 41 23 19 1 1 41 39 1 43 39 32 41 26 47 40 45 23 1 39
split_gain=85.2759 1753.47 1790.71 525.564 2819.03 10.1841 57.9036 450.284 3201.71 2408.84 39.9056 11953.2 12.1706 393.812 506.203 2.88529 23.9226 2.75036 2.54832 9.55185 65.7195 2.18767
threshold=16.257246971130375 11.866267681121828 2.3531953096389775 2.2571756839752202 3.7024203343521194 -1.5519119925872891 -0.0030384115932320455 -0.003048530827144492 2.8914921283721928 4.3354630470275888 -0.0030591560227525611 2.7154392004013066 9.1982083320617694 -0.18062159325207697 5.8268871307373056 11.605289921022353 3.2716540098190312 2.1612458229064946 6.6174683570861825 0.91772566470495687 0.051885754313353821 3.4496576786041264
decision_type=2 2 2 2 2 2 2 2 2 2 2 2 2 2 2 2 2 2 2 2 2 2
left_child=5 2 -2 4 -3 6 7 10 9 -9 12 -12 -1 14 -14 18 -17 21 -7 -20 -21 -8
right_child=1 3 -4 -5 -6 15 17 8 -10 -11 11 -13 13 -15 -16 16 -18 -19 19 20 -22 -23
leaf_value=0.00631839726793418 -180.00331800056031 -0.075031593558155904 -0.075015487533696357 -0.075018933418611253 -168.22358197341393 0.075604608028965681 0.016281382261002487 -122.0065684219007 -0.075016333763924914 -0.075023124090905155 -300.17413910220057 -0.093966609856898961 -91.191538578308808 -0.075019025558702546 -0.07501544166334051 2.9011444667390269 0.064474465111923215 -0.10222438034306923 0.13430032228285729 7.7430276926024604 0.075748348228735121 0.17446315711028154
leaf_weight=1.6404901282590469 0.0011115538654838933 0.0061643611406907431 0.0011010103044100106 0.21034315708675422 0.0011894244817085564 2111.3218692465452 1.0900083978638333 0.0040960861051643196 0.045274358475580812 0.0026805209636222571 0.0013324159872355459 0.35401079105213284 0.0010974957840516044 0.087217679421883298 0.0013718697300646454 0.033578064292455134 0.25940031604771718 0.49805849790573109 3.3326855143532153 0.013042435981333145 0.078254615887999535 4.4184345333843895
leaf_count=65 6 11 4 662 4 161422 197 6 156 7 5 362 7 279 5 3 92 36 120 2 7 205
internal_value=0 -1.89395 -90.4679 -0.993728 -27.2719 0.0753581 -0.0362527 -0.483227 -9.67027 -73.7759 -0.253934 -1.21917 -0.0556954 -1.19001 -40.5712 0.0757879 0.389583 0.122815 0.0757444 0.161945 1.17107 0.143162
internal_weight=0 0.21991 0.00221256 0.217697 0.00735379 2123.18 8.14407 2.13757 0.052051 0.00677661 2.08552 0.355343 1.73018 0.089687 0.00246937 2115.04 0.292978 6.0065 2114.75 3.42398 0.0912971 5.50844
internal_count=163663 687 10 677 15 162976 1330 892 169 13 723 367 356 291 12 161646 95 438 161551 129 9 402
is_linear=0
shrinkage=0.1


Tree=9
num_leaves=23
num_cat=0
split_feature=2 20 20 44 45 38 32 44 38 29 38 30 30 45 38 3 38 22 43 32 45 1
split_gain=21.2157 77.2634 21.3629 1475.34 3682.65 9694.32 130.209 6310.09 8551.65 3552.36 97.9983 84.43 51.4182 33.4147 145.606 234.96 9.28609 67.399 330.935 765.055 1163.37 17.9468
threshold=0.22536243429732528 -1.1749088150384386 -1.1830282497107263 1.0000000180025095e-35 3.867412924766541 6.806732416152955 0.79588254525422697 2.7015656232833867 3.2208247184753422 0.49824750665839485 20.482323646545414 -1.7741338457061639 -1.7984777434778747 2.2790569067001347 11.65697765350342 1.0000000180025095e-35 4.4188671112060556 2.0166890389515455 3.8313909769058232 -1.2402324669504066 3.867412924766541 -0.0030384115932320455
decision_type=2 2 2 2 2 2 2 2 2 2 2 2 2 2 2 2 2 2 2 2 2 2
left_child=2 -2 3 4 -1 -6 10 8 -8 -10 16 12 -12 14 -9 -16 -5 21 19 20 -19 -18
right_child=1 -3 -4 6 5 -7 7 13 9 -11 11 -13 -14 -15 15 -17 17 18 -20 -21 -22 -23
leaf_value=-0.052901858923557893 -9.9200102593713595 -0.07571965203727235 -0.075321109977141407 -0.071059221150374566 296.97673533637385 0.075029736569505442 262.96936057410261 0.056983165099323191 0.075028378158482539 107.78357197703849 0.075034760050939509 0.075034568054444084 23.213208614658246 -0.12406874796170496 20.611990644801967 -0.075721536198473507 0.30832739937291775 116.41168928718278 0.075042365927193794 0.075041475417478132 0.075048410767041843 -0.15326290229385869
leaf_weight=0.012069820892035458 0.010158028453588486 0.037059260532258942 1629.8834509129035 24.407576169902452 0.001684059047325266 0.0031695907237008214 0.0019018845848055585 0.10513069195440039 0.0090205422893632221 0.0046356979873962692 0.0012348177842795849 0.0049108426901501856 0.0043218622449785471 0.83377162171115493 0.0097385381523054093 0.012584034353494644 1.47929837187985 0.0017191488295793533 0.049325258820317686 0.0066040996462105594 0.0017191488295793533 1.9561465596780172
leaf_count=8 14 3 159835 2401 20 11 11 190 28 5 2 10 12 383 22 1 610 4 67 9 2 15
internal_value=0 -2.19356 -0.0738098 0.0114049 29.5286 103.09 -0.00588618 1.129 64.3051 36.6374 -0.0456005 9.62839 18.0714 0.106451 1.61446 8.94959 -0.0492296 0.103227 3.44388 19.9906 58.2434 0.0454973
internal_weight=0 0.0472173 1658.79 28.9066 0.0169235 0.00485365 28.8896 0.976783 0.0155581 0.0136562 27.9129 0.0104675 0.00555668 0.961225 0.127453 0.0223226 27.9024 3.49481 0.0593677 0.0100424 0.0034383 3.43544
internal_count=163663 17 163646 3811 39 31 3772 640 44 33 3132 24 14 596 213 23 3108 707 82 15 6 625
is_linear=0
shrinkage=0.1


Tree=10
num_leaves=23
num_cat=0
split_feature=47 0 0 36 30 23 41 42 2 19 41 23 47 38 47 25 38 42 33 41 25 19
split_gain=9678.2 38716.1 363.01 17773.6 784.438 7285.62 174.941 4937.36 77.053 280.156 12.1202 896.726 6.876 23.7783 476.442 2874.12 34.7447 47.1199 5.7781 1.70589 117.327 238.049
threshold=17.892462730407718 31.816539353048807 -0.067085252150581837 -0.10025449152659811 0.56288034037807966 4.047808820509907 7.3186285495758066 6.101861000061036 0.22536243429732528 -1.542528805598439 6.9660375118255624 2.8389491189576503 3.2301876544952397 3.9836518764495854 4.1333465576171884 -1.7685899548954378 2.6134724617004399 1.4231091737747195 14.319391156551857 5.9878766536712655 -0.78968560170525703 -0.36024724500332667
decision_type=2 2 2 2 2 2 2 2 2 2 2 2 2 2 2 2 2 2 2 2 2 2
left_child=2 -2 6 -4 5 -5 8 -8 10 -10 12 -12 19 14 16 -16 -14 -18 -15 -1 21 -21
right_child=1 -3 3 4 -6 -7 7 -9 9 -11 11 -13 13 18 15 -17 17 -19 -20 20 -22 -23
leaf_value=-0.075202509034515586 -691.43368900715916 -0.075011397215209205 -201.34068989137594 -269.86171001524446 -0.087425669713450005 -0.075011923321698634 -170.48935889911593 -0.075106461904187974 35.642155299716016 -0.075194908984481112 -90.963518086480846 -0.075012375444878987 -0.083411190413000103 -0.082681271478380711 -168.56164002352898 -0.075130811569655731 -3.1722571232434045 -0.081625931120432538 -0.67543611550187432 -35.782521000565865 -0.088457118379818733 -0.075158194382539636
leaf_weight=453.91448191480049 0.0010124990437806449 0.0040499959141016006 0.0044717066921292617 0.0011119895934825772 0.38322296421335889 0.01002685705316253 0.0017604151653218261 0.049648996115549238 0.0027997626457363376 0.010184258455409601 0.0011002491373791603 0.081143648028955795 0.63848374313964207 4.9418724729693242 0.0011870378319116526 0.0068839183222735301 0.097060519270598888 0.10031260072719306 0.17011107262806024 0.0028005428612232208 0.68861945369280775 0.0056010857224464417
leaf_count=161659 145 20 71 8 15 53 11 120 2 3 6 369 48 1074 8 9 6 3 23 2 6 2
internal_value=0 -138.347 -0.0801023 -3.09572 -0.847798 -27.0078 -0.0774917 -5.91061 -0.0768407 7.62659 -0.0770579 -1.29091 -0.0768411 -0.183591 -0.675356 -24.8553 -0.441877 -1.60148 -0.102406 -0.0754426 -0.231765 -11.9776
internal_weight=0 0.00506249 461.113 0.398834 0.394362 0.0111388 460.714 0.0514094 460.663 0.012984 460.65 0.0822439 460.567 5.95591 0.843928 0.00807096 0.835857 0.197373 5.11198 454.612 0.697021 0.00840163
internal_count=163663 165 163498 147 76 61 163351 131 163220 5 163215 375 162840 1171 74 17 57 9 1097 161669 10 4
is_linear=0
shrinkage=0.1


Tree=11
num_leaves=23
num_cat=0
split_feature=40 40 45 2 2 6 40 19 35 32 28 47 29 40 32 41 41 41 30 4 29 19
split_gain=104782 1819.77 14143.6 359.329 23818.2 1624.87 2054.26 4.27535e-06 1.48471e-06 3.63332e-07 3.45644e-07 2.49185e-07 3.93487e-07 2.1976e-07 1.21849e-07 5.89002e-08 2.41554e-07 2.22634e-08 2.87014e-08 7.0901e-08 3.28543e-08 1.20139e-08
threshold=7.3715384006500253 3.4411115646362309 2.8857508897781377 -0.026226793853435282 0.15302580208315172 1.873773008269578 0.97368502616882335 -1.2047340739998356 1.9651349926550392 -0.22217496084808994 1.0000000180025095e-35 0.79009473323822033 -1.6707385808179278 1.4930207133293154 -1.032465628970342 5.9878766536712655 2.5840032100677495 1.6904835104942324 -0.62997065043575307 1.0000000180025095e-35 -1.7367512008715549 -1.3736314397991372
decision_type=2 2 2 2 2 2 2 2 2 2 2 2 2 2 2 2 2 2 2 2 2 2
left_child=1 3 -3 7 -5 6 -6 8 11 -7 13 12 14 -9 -1 16 17 21 19 20 -19 -13
right_child=-2 2 -4 4 5 9 -8 10 -10 -11 -12 15 -14 -15 -16 -17 -18 18 -20 -21 -22 -23
leaf_value=-0.075007744349222291 952.64044951703261 -0.075000803858506604 399.09388044241825 482.92662464059407 185.36891839420463 -0.075007669078329398 -0.075008533430931418 -0.075008642657773905 -0.075007305645409972 -0.075497433475802816 -0.075007455731855632 -0.075447750869343411 -0.075007011926768896 -0.075544777244796232 -0.075501968975962452 -0.075530604406706475 -0.075006330099550073 -0.075463348865003013 -0.075441782719094214 -0.075007759659692808 -0.075293236598598851 -0.075533994059293841
leaf_weight=0.0057196932903025291 0.0011545944744274497 0.0077740410706600427 0.0010020821237048949 0.0010351931845410381 0.0010784931218950069 0.11459288497280797 0.0013389882515184581 0.012534147051176059 0.13712373626909324 0.017454195767641054 20.706570901395921 0.11914690560388408 0.039951842921263664 0.019602016167482361 0.039023806483442364 0.047563699823513161 0.014060064078876167 0.024630569855617068 0.071665729228698183 0.0055939658923307425 0.021061304537397518 0.018685390241444111
leaf_count=42 63 764 134 180 11 867 14 92 1101 2 158939 68 781 4 89 39 368 18 17 41 27 2
internal_value=0 -0.023679 45.5032 -0.0423334 5.09099 1.41231 82.6557 -0.0750152 -0.0752919 -0.0750724 -0.075008 -0.0753878 -0.0752351 -0.0753357 -0.0754388 -0.0754279 -0.0754101 -0.0754318 -0.0754009 -0.0753438 -0.0753849 -0.0754594
internal_weight=0 21.4272 0.00877612 21.4184 0.1355 0.134465 0.00241748 21.2829 0.544227 0.132047 20.7387 0.407103 0.0846953 0.0321362 0.0447435 0.322408 0.274844 0.260784 0.122952 0.0512858 0.0456919 0.137832
internal_count=163663 163600 898 162702 1074 894 25 161628 2593 869 159035 1492 912 96 131 580 541 173 103 86 45 70
is_linear=0
shrinkage=0.1


Tree=12
num_leaves=23
num_cat=0
split_feature=3 35 2 22 47 35 6 2 44 2 2 23 2 8 28 43 29 47 28 19 25 30
split_gain=531.796 1410.18 153.59 202.195 40.703 16.5481 10.4939 1365.75 1858.07 359.152 82.6196 523.482 50.2764 5.6004 5.64956 4.19847 127.964 845.426 11.7355 71.5541 4.25675 80.3426
threshold=1.0000000180025095e-35 2.1357749169710214 0.22536243429732528 -0.24043284355217093 11.866267681121828 1.4269629236584795 1.0000000180025095e-35 0.091736396127628086 3.6318162679672246 0.22251739520605654 0.22251739520605654 0.63709751970175466 0.15302580208315172 1.0000000180025095e-35 1.0000000180025095e-35 2.3131496906280522 -1.7650423237516808 3.2716540098190312 -3.5210389834398135 -1.5519119925872891 -1.9489144410094184 -0.87340962815286172
decision_type=2 2 2 2 2 2 2 2 2 2 2 2 2 2 2 2 2 2 2 2 2 2
left_child=2 5 4 -4 6 -2 9 8 -8 13 11 -9 -13 14 15 16 17 -1 19 -18 21 -17
right_child=1 -3 3 -5 -6 -7 7 10 -10 -11 -12 12 -14 -15 -16 20 18 -19 -20 -21 -22 -23
leaf_value=97.989052270232207 3.5585360224161451 38.548818080296677 0.075851748521512066 17.863922907534107 -0.11564151922475539 0.075745637950712694 0.071956548641430904 20.153217253900209 53.948333270194318 18.033202532692425 0.081858155582342079 5.6777747136421519 0.076197800344729449 -0.09624637227763283 0.075328288592784745 0.07565102912432807 8.651340640050952 -0.075017481270764422 0.15767616025417039 0.077512922732955375 0.11803857932014283 8.6321306311829744
leaf_weight=0.0010197414667344465 0.028713267296551659 0.012996102683246136 0.014804118312894299 0.011243358254432678 11.1204226886623 0.025992082431912422 0.015053169993731852 0.014942205511032536 0.011137367226183414 0.011137367226182415 10.533358291722834 0.017851587384939194 0.15642253383248317 1.8952685296769676 1810.6829160319 0.18172967061400414 0.01165621672407724 0.0063758852047612891 0.98859708561197912 0.059021436609327682 8.7482325319305438 0.011678995157125338
leaf_count=8 3 6 14 3 884 2 48 5 13 3 871 2 11 265 160681 17 3 28 48 2 744 2
internal_value=0 8.93822 0.0752058 7.75405 0.0750974 1.90376 0.0762543 0.174771 22.9826 0.0756733 0.119062 2.19014 0.649989 0.0755636 0.0757424 0.150668 0.338193 13.4465 0.246674 1.49152 0.128298 0.592335
internal_weight=0 0.0677015 1844.49 0.0260475 1844.47 0.0547053 1833.35 10.7488 0.0261905 1822.6 10.7226 0.189216 0.174274 1822.59 1820.69 10.0083 1.06667 0.00739563 1.05927 0.0706777 8.94164 0.193409
internal_count=163663 11 163652 17 163635 5 162751 950 61 161801 889 18 13 161798 161533 852 89 36 53 5 763 19
is_linear=0
shrinkage=0.1


Tree=13
num_leaves=23
num_cat=0
split_feature=40 40 38 39 43 40 26 40 2 45 40 38 40 39 23 43 18 42 28 40 26 47
split_gain=144784 34964.7 975357 4370.48 622050 528.612 27621 164126 49.291 64.9472 42.8816 442.588 21.8549 181.687 1395.03 1249.6 20.3415 10.4568 167.224 608.052 9.5188 225.583
threshold=5.076535940170289 4.1453592777252206 10.104737281799318 16.257246971130375 0.26084014773368841 3.0446395874023442 11.605289921022353 3.4411115646362309 0.22536243429732528 2.5765321254730229 3.3003108501434331 8.7395758628845233 2.1612458229064946 11.322276115417482 2.2129324877966607 0.037152498960495002 1.0000000180025095e-35 0.28544203937053686 0.015896477520471127 2.515552401542664 0.77875182238578478 4.1333465576171884
decision_type=2 2 2 2 2 2 2 2 2 2 2 2 2 2 2 2 2 2 2 2 2 2
left_child=1 3 -3 5 -5 8 10 -8 12 -10 11 -7 16 17 15 -15 20 18 19 -14 -1 -22
right_child=-2 2 -4 4 -6 6 7 -9 9 -11 -12 -13 13 14 -16 -17 -18 -19 -20 -21 21 -23
leaf_value=-0.075908037536625464 249.5673331667364 2349.3673158334454 0.075028558626253905 0.075020104823291897 2409.0848913842669 -0.072502956182708828 0.075026164147223129 1281.6039456461492 -0.075660165360964649 -11.500066042010701 -0.11882071363354568 48.453669682287504 78.775226667840528 0.075016505342375528 0.075027214926067745 141.81154153676121 -0.21177936488922625 0.10283234747039127 -0.021283667122371803 0.075034724952259921 -0.0051495873223049611 11.20902159796168
leaf_weight=1417.2472607857874 0.023233177140354111 0.0018303384422314597 0.051242963207187131 0.15639767640186519 0.0010792815883178255 0.020719370426284522 0.0068357576383277774 0.0011704768985509872 0.01153228152550519 0.0087530668826453599 0.44285544104864211 0.0020670274971052996 0.0012706449488176777 0.0011123762815258278 0.018517369113396853 0.0014110689226072282 10.97725874185562 0.94513514838763513 0.068422928452490761 0.0043175141327083111 12.842510272748765 0.017963025721656645
leaf_count=161349 109 51 107 446 29 3 16 19 1 6 233 7 3 4 39 6 133 41 38 7 979 37
internal_value=0 -0.0700092 81.095 -0.0729949 16.5854 -0.0748134 3.26536 187.429 -0.0759104 -5.00526 0.0988581 4.32946 -0.075841 0.382366 9.58036 79.3317 -0.0761718 0.192468 1.33714 17.97 -0.0751309 0.0105139
internal_weight=0 1442.83 0.0530733 1442.78 0.157477 1442.62 0.473648 0.00800623 1442.15 0.0202853 0.465642 0.0227864 1442.13 1.04019 0.0210408 0.00252345 1441.08 1.01915 0.0740111 0.00558816 1430.11 12.8605
internal_count=163663 163554 158 163396 475 162921 278 35 162643 7 243 10 162636 138 49 10 162498 89 48 10 162365 1016
is_linear=0
shrinkage=0.1


Tree=14
num_leaves=23
num_cat=0
split_feature=44 42 44 38 29 40 41 23 40 38 44 38 2 40 24 38 26 30 26 20 41 1
split_gain=78373.5 389169 1883.14 40453.1 550313 728.984 337.425 3472.18 38.3544 403.013 259.47 1382.04 178.716 235.865 47.2267 7020.59 25.7975 379.588 3.58062 205.374 207.318 66.8433
threshold=1.0000000180025095e-35 6.1487090587615976 8.2530002593994158 0.20974339544773105 -0.53909366561288985 2.6999680995941167 7.3186285495758066 2.6662548758787565 1.8600938320159914 0.20974339544773105 5.9516797065734872 0.67487147450447094 0.22536243429732528 1.0804010629653933 0.72058324942221474 7.5800347328186044 11.605289921022353 -1.7011021523910312 1.1436913088566805 -1.1180727723324237 1.4114290475845339 -0.0030591560227525611
decision_type=2 2 2 2 2 2 2 2 2 2 2 2 2 2 2 2 2 2 2 2 2 2
left_child=1 -1 6 4 -4 -5 8 -8 12 -10 14 -12 16 -14 15 -11 18 -18 -2 21 -21 -20
right_child=2 -3 3 5 -6 -7 7 -9 9 10 11 -13 13 -15 -16 -17 17 -19 19 20 -22 -23
leaf_value=-0.075118996142257644 -0.075456405388784342 2032.7317103937323 1646.1551769921789 -0.081697663332327058 -0.07512342051032686 -36.88110979308879 -190.56246249541766 -0.075008438559137844 -41.536639669283034 -236.00516742005627 -0.075136154071339667 -82.998143176556809 -41.536215408695448 -0.075179884114487699 -0.083003912521333365 -0.085585865087581647 -0.075136468281585017 -40.61618319469855 -0.11730476252374994 -0.075136154864036298 -41.538492894441561 -6.8800441838998001
leaf_weight=0.0056179856474604098 393.22289306927934 0.0011314405710436404 0.0021868143230676642 0.57631246070377529 0.028430141508578255 0.0054339022608473888 0.0010499379131933004 0.010799614785355516 0.0024118758738252968 0.0012715627528170339 0.012058693449944258 0.0024118758738040933 0.0024119005538513196 0.0031826449558138847 0.78028482114773978 0.15749722554755863 0.036259645130485296 0.0024666357057857571 2.6911097810661895 0.0024118016008277668 0.0024117680732160807 0.014695280697196611
leaf_count=24 161512 36 136 83 16 33 13 110 2 85 5 5 4 1 845 56 15 6 666 1 2 7
internal_value=0 340.695 -0.0702337 5.47095 117.507 -0.425429 -0.078782 -16.9533 -0.0782782 -0.710937 -0.607671 -13.8963 -0.0767509 -17.9497 -0.402897 -1.97504 -0.0764984 -2.65736 -0.076246 -0.190785 -20.8067 -0.154033
internal_weight=0 0.00674943 397.558 0.612363 0.030617 0.581746 396.946 0.0118496 396.934 0.955936 0.953524 0.0144706 395.978 0.00559455 0.939054 0.158769 395.972 0.0387263 395.934 2.71063 0.00482357 2.70581
internal_count=163663 60 163603 268 152 116 163335 123 163212 998 996 10 162214 5 986 141 162209 21 162188 676 3 673
is_linear=0
shrinkage=0.1


Tree=15
num_leaves=23
num_cat=0
split_feature=39 19 47 39 4 1 6 27 47 43 39 24 47 34 33 28 39 39 47 19 1 47
split_gain=3.80542e+06 1.47347e+06 465132 81467.2 1.20942e+06 1472.04 160797 1406.87 6108.45 7707.21 1106.61 7823.11 1078.62 2525.4 744.305 404.806 7221.21 22099 770.973 461.094 299.399 699.605
threshold=16.257246971130375 0.8267259090862108 14.1687388420105 13.724245071411135 1.0000000180025095e-35 0.014831143572757227 1.873773008269578 5.9411453740586397 0.70551735162734996 8.0859885215759295 11.322276115417482 1.539031075764856 10.110802650451662 0.7836356988732941 14.319391156551857 1.0000000180025095e-35 2.0990568399429326 0.69112747907638561 4.1333465576171884 0.55930507990398304 -0.0017355602270045592 0.79009473323822033
decision_type=2 2 2 2 2 2 2 2 2 2 2 2 2 2 2 2 2 2 2 2 2 2
left_child=3 -2 -3 5 -5 7 -7 10 -9 -10 12 -12 14 -14 15 16 17 19 20 -1 -17 -22
right_child=1 2 -4 4 -6 6 -8 8 9 -11 11 -13 13 -15 -16 18 -18 -19 -20 -21 21 -23
leaf_value=-94.524322062263082 -6399.6431591310638 -3462.738009390056 -946.03568413818959 -3227.5876430353796 -0.075394904452926653 -1248.3007350836654 -0.075068261512630671 -0.075429084194101492 -380.55079830442088 -0.075002596186329429 -0.075006236516136401 -297.60676750529291 69.462077926098189 -13.272713018700822 74.448280421095916 -0.075010221371433719 1.8800073370328054 486.36694279184968 -77.166767063106306 -0.075006308635965413 -0.07500784770375396 99.830914688911562
leaf_weight=0.001058769034015721 0.0010000674797677736 0.00124181879345997 0.0017971148581636953 0.0012393444869037698 0.018372394195466768 0.0010414782929356594 0.11371199444693048 0.0092713315489153514 0.0010513152319617811 0.0010786599914354156 0.0071524102877437157 0.0010082956955557165 0.0071903662756075404 0.00757729312954325 0.0013418625512703333 18.142484178177739 0.15342245497989346 0.001233446258083859 0.0012971554460808879 0.0010099159699166194 0.002338468017088923 0.0010009416582761332
leaf_count=29 187 223 277 212 25 38 885 103 92 180 74 127 145 43 127 160240 278 282 62 9 17 8
internal_value=0 -3070.14 -1974.45 -0.329428 -204.035 -0.112946 -11.4037 -0.0422976 -35.159 -187.871 -0.0204526 -36.8365 -0.00405274 27.0108 -0.0258469 -0.0313066 5.02913 151.342 -0.0750102 -48.4149 -0.0694993 29.8704
internal_weight=0 0.004039 0.00303893 18.4739 0.0196117 18.4543 0.114753 18.3395 0.0114013 0.00212998 18.3281 0.00816071 18.32 0.0147677 18.3052 18.3038 0.156725 0.00330213 18.1471 0.00206869 18.1458 0.00333941
internal_count=163663 687 500 162976 237 162739 923 161816 375 272 161441 201 161240 188 161052 160925 598 320 160327 38 160265 25
is_linear=0
shrinkage=0.1


Tree=16
num_leaves=23
num_cat=0
split_feature=40 31 40 36 19 4 30 1 29 19 29 29 29 29 19 29 29 40 30 28 19 36
split_gain=7000.65 69478.7 31.6393 39.4151 77.5875 14.685 38.2952 264.304 27.998 26.9583 58.8488 155.402 53.7383 88.4189 196.488 39.163 24.6954 12.1234 71.9399 11.3826 659.756 1336.72
threshold=4.2343480587005624 8.7324088174120771 2.8991622924804692 0.24668272164391122 -1.542528805598439 1.0000000180025095e-35 -1.6524143568476095 -0.0017355602270045592 -1.6047259607643005 -1.5003044641486134 -1.6707385808179278 -1.6990297036980537 -1.7178904522848042 -1.7556119494583056 -1.542528805598439 -1.7273208265781796 -1.7650423237516808 3.3003108501434331 -1.8228216412495857 1.0000000180025095e-35 0.8267259090862108 1.8079001809112032
decision_type=2 2 2 2 2 2 2 2 2 2 2 2 2 2 2 2 2 2 2 2 2 2
left_child=2 -2 5 4 -4 19 7 -7 9 10 11 12 13 -9 -15 -16 -8 18 -5 20 -1 -22
right_child=1 -3 3 17 -6 6 16 8 -10 -11 -12 -13 -14 14 15 -17 -18 -19 -20 -21 21 -23
leaf_value=0.13267802541913765 695.49443250815557 -0.075016586999362339 -12.526085403502959 -0.35787278256364158 0.075728478717401473 0.099723723832585251 2.6451000882435238 0.075532498905900552 0.075732244676440005 7.9083269851444555 0.075732244676436383 15.740921725611859 0.075732244676436383 20.717687892195404 0.075732244676433413 7.9083269851441464 0.12222466386731359 -0.12411987493162707 -4.7484507788422174 0.075217275507649561 40.177368303107201 0.075714776568128292
leaf_weight=8.4492284268781042 0.0015814380749351589 0.015620784572092816 0.0079392795742023736 0.37253906142723281 0.01270269695667936 0.8876755191013217 0.038944277912377312 0.018637595698237419 0.01276716124266275 0.025534322485327721 0.025534322485327721 0.01276716124266386 0.025534322485327721 0.0096889203414320946 0.01276716124266386 0.01276716124266386 10.42753568664193 0.75358856688218556 0.041473245364613831 1562.0061343195725 0.01246831379830915 0.024936627596616745
leaf_count=1289 148 53 5 43 2 59 2 2 1 4 2 3 2 3 1 2 420 795 10 160809 6 2
internal_value=0 63.8702 0.0762822 -0.439537 -4.77116 0.0766696 0.189211 0.76684 4.56293 4.96291 4.3239 5.50088 3.85423 5.64554 8.59279 3.99203 0.131612 -0.362958 -0.797694 0.0758448 0.191343 13.4429
internal_weight=0 0.0172022 1583.19 1.18824 0.020642 1582 11.5102 1.04367 0.155998 0.143231 0.117697 0.0921623 0.0793952 0.0538608 0.0352232 0.0255343 10.4665 1.1676 0.414012 1570.49 8.48663 0.0374049
internal_count=163663 201 163462 855 7 162607 501 79 20 19 15 13 10 8 6 3 422 848 53 162106 1297 8
is_linear=0
shrinkage=0.1


Tree=17
num_leaves=23
num_cat=0
split_feature=33 47 40 36 33 43 43 41 43 31 40 40 43 34 38 38 41 34 47 32 32 26
split_gain=889101 892905 2203.18 39270.4 643.525 81645.3 1.28778e+06 376.19 7081.22 80.4402 5591.18 53.175 377.476 287.955 53.592 2897.56 1316.6 687.831 19.6707 128.023 838.445 4.53996
threshold=19.659644600992188 3.1185523271560673 4.2343480587005624 4.0629920665195147 5.6563133466819897 7.7128300666809091 6.595872402191163 7.3186285495758066 1.5302593708038332 2.1425627707164954 2.6999680995941167 1.8600938320159914 3.8313909769058232 2.0711012339377048 5.8597910404205331 6.5257802009582528 1.8155363798141482 2.0185516202616065 3.2716540098190312 -0.20139827705008348 0.089475296122007081 0.77875182238578478
decision_type=2 2 2 2 2 2 2 2 2 2 2 2 2 2 2 2 2 2 2 2 2 2
left_child=2 -2 4 -4 7 6 -6 9 -9 11 -11 21 14 -14 -13 -16 17 -17 -18 -20 -21 -1
right_child=1 -3 3 -5 5 -7 -8 8 -10 10 -12 12 13 -15 15 16 18 -19 19 20 -22 -23
leaf_value=-0.075667785182752176 1414.1480440044641 10.762849680362585 -518.63492740326558 0.075027137759147627 3341.4190272874494 -0.10573594314705606 0.075035170950283947 0.075017040200814789 248.35576004489019 188.82144407491808 0.075028730306054406 -0.062170662432267904 67.240074692328264 0.075031448952193588 146.43358805274673 101.37440269429672 1.2674771141536723 0.075028563477264443 0.11374045271877282 96.935485521904695 0.07502089709712606 -0.013683828695016043
leaf_weight=1219.2060349994754 0.0089094825088967822 0.0092309548344928771 0.0015422877622758282 0.027203175006434321 0.0012270511533367659 2.4896770776831545 0.019231054757283039 0.023301043707759983 0.0012083095789421341 0.0015894342942724951 0.12478859943313214 1.2793482406284509 0.0014888695295666157 0.0011173652019351721 0.0013665070000569149 0.0019743458542507133 0.25729840993881226 0.0010148419532924891 0.72146772799169456 0.0010324129543732852 0.0066504875139794519 11.932271847937043
leaf_count=160833 127 26 89 90 79 360 34 81 39 11 272 40 53 2 6 7 4 2 472 11 23 1002
internal_value=0 700.021 -0.0710592 -27.7555 -0.0704154 1.52912 200.485 -0.0736703 12.3152 -0.0739164 2.44886 -0.0741749 0.40908 38.4446 0.365414 0.91752 0.716549 66.9828 0.515745 0.250478 13.0909 -0.075067
internal_weight=0 0.0181404 1236.1 0.0287455 1236.07 2.51014 0.0204581 1233.56 0.0245094 1233.54 0.126378 1233.41 2.27276 0.00260623 2.27015 0.990805 0.989438 0.00298919 0.986449 0.729151 0.0076829 1231.14
internal_count=163663 153 163510 179 163331 473 113 162858 120 162738 283 162455 620 55 565 525 519 9 510 506 34 161835
is_linear=0
shrinkage=0.1


Tree=18
num_leaves=23
num_cat=0
split_feature=44 20 40 31 1 40 44 27 38 1 47 38 36 32 1 38 6 39 43 32 40 38
split_gain=17439.4 14110.7 1541.09 196.808 8377.01 61.3257 831.156 3488.55 235.231 244.09 42.1388 5534.82 10314.2 121.888 4.47673 479.35 67.6374 412.437 3.10939 174.381 89.1261 2.49533
threshold=1.0000000180025095e-35 -1.1789685323745822 4.5921201705932626 2.1425627707164954 -0.0030611798695350501 1.8600938320159914 5.9516797065734872 3.0618777610679189 0.40363115072250372 0.051885754313353821 3.2716540098190312 7.5800347328186044 1.7645330292648895 -0.22217496084808994 -0.001403649354676314 1.0139827728271487 1.873773008269578 3.2842534780502324 2.3131496906280522 -1.2194557831524 0.35322083532810217 6.806732416152955
decision_type=2 2 2 2 2 2 2 2 2 2 2 2 2 2 2 2 2 2 2 2 2 2
left_child=1 -1 3 5 -5 14 8 -8 9 -7 13 12 -12 -10 21 16 17 -16 -18 20 -20 -2
right_child=2 -3 -4 4 -6 6 7 -9 10 -11 11 -13 -14 -15 15 -17 18 -19 19 -21 -22 -23
leaf_value=-350.64557661583581 -0.074872380221266507 -0.07511719814261042 -38.612153142295647 -0.075010277609028161 -285.87671099068314 -48.893167512512271 -145.43109452016481 -0.075116453249997384 -0.084812048348215235 -0.075115584295684545 -397.60254394862039 -0.081453676952560949 -0.075009883912255937 12.300998097764092 -0.075142024760910101 -48.259535130378438 -0.075118482619002225 -48.233193340573777 -0.075105437210496798 -0.084736796108202603 -26.789051807530054 -0.19236165041437403
leaf_weight=0.0025672441161910253 337.90337546126608 0.0020770828705006785 0.010379596875281005 0.044626190491714984 0.0010496788537570903 0.0020484225824289872 0.0020638986025005588 0.0082556603010743856 0.47710135736178927 0.0020484225824475288 0.0010062196088256306 0.30735027573246043 0.001857616165313436 0.0080798618582775816 0.012386171149695868 0.0020753597135388926 1.7178294624989123 0.0020764949043101675 0.0018741916583167031 0.28476155060343433 0.0037433630786836147 1.8174446423420807
leaf_count=58 160925 2 152 269 14 2 6 7 29 1 16 589 85 3 20 15 836 3 2 6 3 620
internal_value=0 -193.86 -0.0804868 -0.0793194 -6.64303 -0.0784442 -0.947635 -29.1461 -0.583659 -24.4841 -0.460555 -1.37083 -139.748 0.121452 -0.0763845 -0.224638 -0.175352 -6.98949 -0.126278 -0.428928 -17.8764 -0.0755009
internal_weight=0 0.00464433 342.611 342.601 0.0456759 342.555 0.809812 0.0103196 0.799492 0.00409685 0.795395 0.310214 0.00286384 0.485181 341.746 2.02475 2.02267 0.0144627 2.00821 0.290379 0.00561755 339.721
internal_count=163663 60 163603 163451 283 163168 738 13 725 3 722 690 101 32 162430 885 870 23 847 11 5 161545
is_linear=0
shrinkage=0.1


Tree=19
num_leaves=23
num_cat=0
split_feature=33 0 42 29 44 29 20 44 33 33 44 45 22 30 45 41 39 29 19 45 20 42
split_gain=1.8616e+06 247468 6885.66 823844 29516.8 5977.18 8526.6 709.528 195.563 718.474 145.185 3538.66 691.924 407.468 3668.56 37215.5 291.686 8129.99 211.674 2643.3 70.1617 1189.87
threshold=14.319391156551857 -0.067085252150581837 8.8182034492492694 -1.1709287432690358 7.7380077838897714 -1.4632703463636707 -1.1749088150384386 3.980507612228394 2.5708335787831316 2.8081781763138127 1.0884374976158144 0.058038381859660156 2.0166890389515455 -1.6524143568476095 3.2493115663528447 2.2571756839752202 0.72773662209510814 0.62084237247227392 -1.542528805598439 2.9932410717010502 -1.1830282497107263 0.28544203937053686
decision_type=2 2 2 2 2 2 2 2 2 2 2 2 2 2 2 2 2 2 2 2 2 2
left_child=1 2 8 4 5 7 -7 -4 10 -10 18 -12 13 14 -13 -16 17 -15 19 -1 21 -18
right_child=-2 -3 3 -5 -6 6 -8 -9 9 -11 11 12 -14 16 15 -17 20 -19 -20 -21 -22 -23
leaf_value=-142.86196289778496 -1490.6419815109537 1545.9643941986797 -14.040079231706287 -2862.2719092863645 -501.13806832256097 -368.29208185630961 -0.075022603572637375 -0.077693033297233177 -91.66758674702136 -0.07503225429853233 -120.49877316867233 -0.88080007556083639 -71.218494375378981 280.47382768000074 -590.73572713949102 -0.075020569300425499 -63.415223163868554 -0.075005510470934345 -0.087847455796279061 -0.075229464638367813 -0.076634457601969769 -0.077609857584425179
leaf_weight=0.0014006884885110473 0.0083860731792800847 0.0010349024723826919 0.042972270399332047 0.0010132077186419943 0.0011974541121162465 0.0010863157922358369 0.0014934640803403445 0.23781553663273736 0.0010917917825271619 0.0039727524854242802 0.0024912034277797526 0.12428239932101892 0.001405610612814189 0.0010693325530155553 0.001185113564133645 0.010677144487090118 0.0031575515225652486 0.030347359999723378 15.604379821455939 0.017428612922656184 0.54433939012956056 0.04889950659526221
leaf_count=4 157 272 240 317 12 20 45 84 15 112 42 612 126 26 11 73 34 319 159934 78 1082 48
internal_value=0 -0.344884 -0.440814 -15.8351 -5.70026 -3.60664 -155.127 -2.21452 -0.172684 -19.8201 -0.166614 -1.50908 -1.12178 -0.992805 -5.95218 -59.0857 0.0826623 9.47406 -0.100634 -10.697 -0.412053 -3.91939
internal_weight=0 16.6827 16.6817 0.285578 0.284565 0.283368 0.00257978 0.280788 16.3961 0.00506454 16.3911 0.767855 0.765363 0.763958 0.136145 0.0118623 0.627813 0.0314167 15.6232 0.0188293 0.596396 0.0520571
internal_count=163663 163506 163234 718 401 389 65 324 162516 127 162389 2373 2331 2205 696 84 1509 345 160016 82 1164 82
is_linear=0
shrinkage=0.1


Tree=20
num_leaves=23
num_cat=0
split_feature=40 3 9 36 40 24 40 45 44 45 36 40 40 40 43 19 20 20 20 6 40 36
split_gain=205727 841.867 51.458 4523.92 785.848 2700.36 114.558 9504.7 39.8025 89.4005 27.2211 107.631 883.257 42.9718 239.653 231.533 54.2211 36.2226 19.9008 8.31845 6.78266 77.3412
threshold=4.2343480587005624 1.0000000180025095e-35 1.0000000180025095e-35 0.98392429963124362 2.515552401542664 2.8097790166652734 2.9862835407257085 3.2493115663528447 1.0000000180025095e-35 2.9247529506683354 -0.14362164317291173 0.2781133651733399 0.21081336587667468 0.18050220608711245 0.52592417597770702 -1.5519119925872891 -1.1789685323745822 -1.1789685323745822 -1.1789685323745822 1.873773008269578 2.1612458229064946 1.1573929062164985
decision_type=2 2 2 2 2 2 2 2 2 2 2 2 2 2 2 2 2 2 2 2 2 2
left_child=1 2 6 4 10 -6 8 -8 9 -1 11 12 13 -4 17 -16 -17 -15 -14 20 -10 -22
right_child=-2 -3 3 -5 5 -7 7 -9 19 -11 -12 -13 18 14 15 16 -18 -19 -20 -21 21 -23
leaf_value=12.996823024508636 -373.8242669077448 42.322497046941152 0.075463096218930353 75.902042449074017 0.075496906041589512 116.75125474529412 -0.42721005968091463 -240.10837104222287 0.076282752170349577 0.073001318796773573 0.093263117205881249 0.11124717984800002 17.98620923452858 0.075483355026748744 22.728970212492257 3.0877542076315758 12.124598588520369 4.0918480277304115 23.956453278276854 -0.28255477166847071 -0.093481243254058405 -8.082901921268272
leaf_weight=0.007739109918474151 0.014715748489833369 0.0047172298654903902 0.33291944256053474 0.0079127913340933942 0.0087179467082031392 0.0025679148966446528 0.23129818085883244 0.0016664350214581616 1355.8935455736701 0.017356853641103953 5.6210195864566526 1.9615481747314332 0.016749734058976173 0.22884646710008383 0.0088286707177758217 0.033197429031133652 0.0082993572577834129 0.024898071773350239 0.0083748670294880867 0.64692521095275779 0.72936882171552397 0.012321268703090027
leaf_count=2 202 4 42 7 2 3 746 73 161307 47 687 122 5 27 3 5 2 4 3 132 65 45
internal_value=0 0.0772998 0.0771539 0.325935 0.2535 26.6232 0.0756395 -2.14169 0.0760201 4.05846 0.217403 0.483366 1.58579 0.860414 1.71984 8.02374 4.89512 0.469579 19.9763 0.0759464 0.0761174 -0.226205
internal_weight=0 1365.81 1365.8 8.26388 8.25597 0.0112859 1357.54 0.232965 1357.31 0.025096 8.24468 2.62366 0.662114 0.636989 0.30407 0.0503255 0.0414968 0.253745 0.0251246 1357.28 1356.64 0.74169
internal_count=163535 163333 163329 912 905 5 162417 819 161598 49 900 213 91 83 41 10 7 31 8 161549 161417 110
is_linear=0
shrinkage=0.1


Tree=21
num_leaves=23
num_cat=0
split_feature=33 45 44 44 26 33 45 25 42 21 42 32 44 33 33 44 42 25 45 44 45 4
split_gain=68654.8 9719.83 180123 2123.07 4045.18 698.513 81212.8 163764 16980.4 35836.8 1064.28 2146.43 167647 109.839 94.607 90.5128 83.8066 1216.54 7084.37 65.6568 782.471 44.2461
threshold=19.659644600992188 15.360800743103029 5.9663825035095224 1.0000000180025095e-35 5.6446116419977264 2.5708335787831316 6.6174683570861825 0.5241070828394595 9.1746172904968279 -0.42469036385436576 7.6589324474334726 0.31801881790007819 2.7015656232833867 14.319391156551857 2.8081781763138127 3.6318162679672246 6.9195640087127694 -0.78968560170525703 2.4545558691024785 3.1134353876113896 2.3868932723999028 1.0000000180025095e-35
decision_type=2 2 2 2 2 2 2 2 2 2 2 2 2 2 2 2 2 2 2 2 2 2
left_child=1 3 -3 4 -1 8 7 -7 10 -10 16 -12 -13 14 -8 -14 -5 18 -18 20 -19 -16
right_child=-2 2 -4 5 -6 6 13 -9 9 -11 11 12 15 -15 21 -17 17 19 -20 -21 -22 -23
leaf_value=-0.075430714243097122 381.19683024338724 677.78685021961701 0.075033447332678305 -0.073953650118227229 88.037029892456729 -0.075333609109675376 -10.026766803511054 -646.51049932203887 659.99646477665237 0.075013119754816449 0.011797292778496759 1219.7910741966616 7.1073948142424603 -11.610291321298288 -1.0179933589816095 0.075022246728414038 0.075013640501228773 0.075020812552472574 279.08010962364705 -0.070647565329168396 85.149585841341448 -0.11333321828070081
leaf_weight=0.015137761831509944 0.004722902551292373 0.0041315496200685633 0.077227321045938879 1063.0976393764283 0.0079448825563304126 0.011756788939237595 0.010048754513264035 0.0058783930725992964 0.001212265487992136 0.0025619946245569736 0.16752818037639372 0.0011478081287408784 0.028439886955311515 0.008669232949649941 0.68938468210399184 0.051345333175270298 0.0059243934738333328 0.013471193713535778 0.0010752491836623079 0.17287493965704925 0.0011754393926821658 2.5055822059512138
leaf_count=40 133 35 140 161756 21 4 4 212 31 19 425 18 95 4 247 153 25 39 43 44 9 38
internal_value=0 -0.0724601 34.4905 -0.0750961 30.2523 -0.0757523 -1.54379 -215.554 -0.071292 212.037 -0.0720447 6.47203 19.8445 -0.369409 -0.339003 2.58175 -0.0735739 2.00189 42.9343 0.474002 6.90253 -0.308534
internal_weight=0 1066.88 0.0813589 1066.8 0.0230826 1066.78 3.23132 0.0176352 1063.54 0.00377426 1063.54 0.248461 0.080933 3.21368 3.20502 0.0797852 1063.29 0.194521 0.00699964 0.187522 0.0146466 3.19497
internal_count=163535 163402 175 163227 61 163166 509 216 162657 50 162607 691 266 293 289 248 161916 160 68 92 48 285
is_linear=0
shrinkage=0.1


Tree=22
num_leaves=23
num_cat=0
split_feature=41 45 42 45 19 39 33 39 33 33 19 41 36 2 45 39 39 36 28 36 24 45
split_gain=2498.95 11958.6 2023.87 52285.9 1.54942e+06 451.35 439.019 353.004 281.357 1181.8 59.0666 300.771 8234.16 172.548 1388.41 1590.77 172.811 4852.81 368.766 2126.47 189.79 544.387
threshold=7.3186285495758066 2.4821002483367924 8.3855376243591326 6.6174683570861825 0.37164134012698102 13.724245071411135 13.01399587013311 3.4496576786041264 2.5708335787831316 2.8081781763138127 -1.5519119925872891 5.9878766536712655 3.195649033593241 -0.026226793853435282 2.9052212238311772 0.7640797793865205 0.7640797793865205 -0.1869887948192254 0.34024427088364145 -0.10025449152659811 1.539031075764856 2.9932410717010502
decision_type=2 2 2 2 2 2 2 2 2 2 2 2 2 2 2 2 2 2 2 2 2 2
left_child=2 -2 8 4 -4 7 -7 -5 10 -10 13 -12 -13 -1 15 -15 17 -16 20 -20 21 -18
right_child=1 -3 3 5 -6 6 -8 -9 9 -11 11 12 -14 14 16 -17 18 -19 19 -21 -22 -23
leaf_value=0.046587052246881602 -0.075006210979836063 -361.47560952355116 3911.4141287311431 5.6304126751265677 -0.075005890315513774 -0.075064171835707447 -87.878802942709527 -0.081347441397916651 73.089280760778792 -0.075081694689737452 -0.074868050071751055 -284.57345946687491 -0.07506436797791266 -0.07510638224321145 168.34448811483492 52.950483950156574 -0.075100467591754053 -0.075106131213046115 -124.11907086011554 -0.075090912727311665 -0.083782260482798132 37.35147477296033
leaf_weight=1.7111114268446301 0.0052997457751179358 0.0011068050143876462 0.0010481941426608845 0.12250687927011183 0.029916789237176999 0.0011389036662877708 0.0011389036662876606 0.92673142305284273 0.0027335714548816234 0.011476596468128264 291.55120169218748 0.0010544872784770112 0.028866669214070551 0.011315291281789541 0.0017812654841690692 0.011315291281789541 0.014250123873353004 0.043268808862194419 0.0016123313689604566 0.0096739882137626809 0.25293202977628282 0.0053437964525073758
leaf_count=454 65 92 155 50 300 1 22 468 23 141 161385 36 138 6 12 128 8 25 3 8 5 10
internal_value=0 -62.5111 -0.0555342 4.26047 132.333 0.489014 -43.9769 0.585546 -0.0714439 13.9993 -0.0721248 -0.0758969 -10.1014 0.461127 2.47916 26.4377 0.830458 6.58415 -0.0828373 -17.7957 0.650717 10.1321
internal_weight=0 0.00640655 294.74 1.08248 0.030965 1.05152 0.00227781 1.04924 293.658 0.0142102 293.644 291.581 0.0299212 2.0626 0.351493 0.0226306 0.328862 0.0450501 0.283812 0.0112863 0.272526 0.0195939
internal_count=163535 157 163378 996 455 541 23 518 162382 164 162218 161559 174 659 205 134 71 37 34 11 23 18
is_linear=0
shrinkage=0.1


Tree=23
num_leaves=23
num_cat=0
split_feature=39 29 2 20 42 39 45 20 20 42 39 43 45 42 30 42 20 42 19 32 19 45
split_gain=27430.8 286010 6257.53 87919 35085.6 3855.6 17023.6 1116.33 862.673 126.399 13771.6 38375.7 230.201 729.321 124.092 1494.55 6211.27 288.971 646.107 242.479 899.598 250.535
threshold=11.322276115417482 -1.5764348378841746 -0.026226793853435282 -1.1830282497107263 0.28544203937053686 0.72773662209510814 2.9572843313217168 -1.1789685323745822 -1.1667893803661509 0.18630809336900714 2.0990568399429326 1.1234825253486636 3.2493115663528447 0.079901978373527541 -1.7984777434778747 6.2088351249694833 -1.1830282497107263 0.19142199307680133 -1.0405283016949587 -0.55460190161619327 -1.3736314397991372 3.867412924766541
decision_type=2 2 2 2 2 2 2 2 2 2 2 2 2 2 2 2 2 2 2 2 2 2
left_child=2 -2 9 -4 5 6 8 -8 -5 12 11 -11 -1 -14 15 19 -17 18 -16 21 -21 -12
right_child=1 -3 3 4 -6 -7 7 -9 -10 10 14 -13 13 -15 17 16 -18 -19 -20 20 -22 -23
leaf_value=-0.099202839109213056 -1742.2063674142803 -0.075175015292900937 -835.79506134277437 -0.075004652555258844 -459.95115544817276 -0.075377519243534516 -219.85239818783407 -345.4394802078852 -93.057748071327424 -0.075005120459120389 -0.075131280912053455 -522.83985734789292 -96.083478112339023 -0.075004754547810193 -93.647618975752437 -0.075004610434635813 -260.65735184234717 -0.076417252020705845 -0.075004626504627137 -0.07520434863565828 -58.872028762585785 -25.583654812977972
leaf_weight=12.588591727326271 0.0010332171486024328 0.010717035474953458 0.0013162302275402374 0.013815632206387818 0.0017395988397765896 0.10173129187908744 0.0018200234044343233 0.0011581967119127503 0.0010754683753471392 0.0052809195622108831 0.21591908379559754 0.0019129059564875206 0.0010415748693056717 0.0032918613869696856 0.0010686887471820228 0.0044520302963064751 0.0011512675482663317 1.6092454158906677 0.0023841259462636924 0.011073489675936798 0.0034015434357569383 0.0039202399284476988
leaf_count=150208 1021 81 224 168 52 623 26 18 14 65 2057 365 22 40 14 63 20 8337 29 31 7 50
internal_value=0 -153.263 -0.411665 -22.9033 -14.0855 -7.60037 -50.4407 -268.692 -6.79043 -0.220785 -0.990315 -139.083 -0.107135 -23.1514 -0.454092 -2.57599 -53.6149 -0.138422 -29.0369 -1.35546 -13.8921 -0.530007
internal_weight=0 0.0117503 14.5754 0.122656 0.12134 0.119601 0.0178693 0.00297822 0.0148911 14.4527 1.85981 0.00719383 12.5929 0.00433344 1.85262 0.239918 0.0056033 1.6127 0.00345281 0.234314 0.014475 0.219839
internal_count=163535 1102 162433 1125 901 849 226 44 182 161308 11038 430 150270 62 10608 2228 83 8380 43 2145 38 2107
is_linear=0
shrinkage=0.1


Tree=24
num_leaves=23
num_cat=0
split_feature=41 40 40 39 23 40 6 36 20 20 36 40 40 39 40 39 40 38 36 4 39 33
split_gain=1848.46 12777.2 675.895 567.059 2407.25 471.977 54.3158 5393.94 155.77 63.1885 731.185 248.589 1058.63 31.5136 86.7463 30.0178 11.8595 12.3045 47.2457 5.42294 17.89 29.9592
threshold=7.3186285495758066 3.4913756847381596 3.7480107545852666 17.615097999572757 3.9614616989704596 4.1223487854003915 1.873773008269578 0.94055714798493006 -1.105893620323992 -1.1830282497107263 -0.056887339880284445 0.2781133651733399 0.44385267794132238 0.69112747907638561 0.18050220608711245 1.0040613412857058 2.8991622924804692 7.2685379981994638 1.7645330292648895 1.0000000180025095e-35 3.4496576786041264 11.115239089887661
decision_type=2 2 2 2 2 2 2 2 2 2 2 2 2 2 2 2 2 2 2 2 2 2
left_child=3 -2 -3 5 -5 6 16 8 9 10 11 -8 -13 14 -11 -14 19 18 -18 -1 21 -21
right_child=1 2 -4 4 -6 -7 7 -9 -10 13 -12 12 15 -15 -16 -17 17 -19 -20 20 -22 -23
leaf_value=0.075241407157483453 359.09505963841241 -0.075004856953585719 -94.464917622279785 -0.075004722680663702 -148.48437756301203 15.961128141358294 -0.078843006873043894 90.432371037451176 -15.106097158701935 0.075402016558597101 13.571296766470192 43.301072064516106 4.8782420938386108 0.11655083279518924 3.1669620058181671 0.075394510246378069 -6.331657628875961 -0.083716144322036626 -0.55902537549684728 0.076501023196862028 0.13869696233526799 5.1368956798344305
leaf_weight=1161.0148363789453 0.0011136785540192254 0.0026718464359873906 0.0010594352424959652 0.0057832598977246566 0.0013476237800205126 0.018707748243740663 0.77443515789095796 0.0066403271630405261 0.0065869768149794386 0.30403189221396887 0.044458027929067612 0.0069403192029732557 0.020820981357313105 6.2546045973557796 0.1293843355702059 0.034701635595411062 0.015606572851558975 0.43058748733981389 0.15488699496199843 0.029989558271973915 10.365495563108512 0.019182786345481873
leaf_count=160902 66 31 60 78 49 295 138 8 2 44 24 5 7 778 31 5 11 454 39 2 505 1
internal_value=0 61.845 -26.8754 0.0774654 -28.122 0.0776358 0.0773839 0.344164 0.265202 0.278578 1.07448 0.410624 6.47919 0.173693 0.998301 1.87646 0.075658 -0.368417 -1.08744 0.0758858 0.147724 2.05063
internal_weight=0 0.00484496 0.00373128 1179.64 0.00713088 1179.63 1179.61 7.5826 7.57596 7.56938 0.881356 0.836898 0.0624629 6.68802 0.433416 0.0555226 1172.03 0.601081 0.170494 1171.43 10.4147 0.0491723
internal_count=163535 157 91 163378 127 163251 162956 1042 1034 1032 179 155 17 853 75 12 161914 504 50 161410 508 3
is_linear=0
shrinkage=0.1


Tree=25
num_leaves=23
num_cat=0
split_feature=40 40 44 41 36 26 44 45 0 40 33 44 40 29 29 31 31 41 19 29 29 40
split_gain=79786.8 2.19231e+06 3869.74 1693.64 10647.6 653.76 10309.6 88388.7 359.12 4284.77 192.787 6077.06 103.277 105.384 84.4205 24.6941 280.931 17.6659 81.1267 181.063 7.40367 6.53907
threshold=4.1223487854003915 4.2109510898590097 1.0000000180025095e-35 7.3186285495758066 2.5885089105448498 11.605289921022353 1.5461788773536684 2.4939182996749882 -0.067085252150581837 3.4411115646362309 5.6563133466819897 4.4250624179840097 3.6782767772674565 -0.84086564300089994 -1.7273208265781796 3.2408704451657586 4.5222293986898991 1.6428328752517702 -1.5519119925872891 -1.6613082065245524 -1.4632703463636707 2.8991622924804692
decision_type=2 2 2 2 2 2 2 2 2 2 2 2 2 2 2 2 2 2 2 2 2 2
left_child=2 -2 -1 5 -5 8 -7 -8 10 -10 12 -12 15 -14 -13 21 -17 18 19 -16 -20 -4
right_child=1 -3 3 4 -6 6 7 -9 9 -11 11 14 13 -15 17 16 -18 -19 20 -21 -22 -23
leaf_value=77.330443837303562 0.075015714624887264 3724.5473606255091 -0.074966193715237855 -308.74654220911384 0.075010150642739679 -0.043166307009353144 0.075010155637915896 827.71810754390901 46.201814708109673 -0.34951366380472226 19.484908495556994 -2.0228156574784872 0.075010899582376833 20.790621071826145 -27.241301935618395 -30.778991795923801 0.075031798748050799 -0.017035670521011473 -0.84487578410654951 -0.075208058095734734 -0.10449489735011548 0.25686980171217533
leaf_weight=0.0064594633810192139 0.045099998846011569 0.0016378158907173193 917.91432012618736 0.0012952463873706641 0.0080877183136180975 0.2098943797470828 0.011726738521247171 0.00144990033004433 0.021679956465915917 0.22474552802195547 0.16349525749684035 0.26017068724115011 0.0050364239141345024 0.0047925100661804221 0.0036810592282563448 0.0032410702260666771 0.032978367855321267 2.2712704957812093 0.27013236284255981 0.007356736809015274 0.27011996507644687 0.59422351594548573
leaf_count=49 205 220 161607 24 48 298 69 58 173 12 33 15 28 2 13 17 103 496 21 7 1 36
internal_value=0 130.59 -0.0695863 -0.0701284 -42.5554 -0.0696962 5.34327 91.1453 -0.0710057 3.74597 -0.0720261 0.697251 -0.0747448 10.1758 -0.299168 -0.0748545 -2.68592 -0.14029 -0.648088 -9.13499 -0.474694 -0.0747515
internal_weight=0 0.0467378 922.286 922.28 0.00938296 922.27 0.223071 0.0131766 922.047 0.246425 921.801 3.24623 918.555 0.00982893 3.08273 918.545 0.0362194 2.82256 0.55129 0.0110378 0.540252 918.509
internal_count=163535 425 163110 163061 72 162989 425 127 162564 185 162379 586 161793 30 553 161763 120 538 42 20 22 161643
is_linear=0
shrinkage=0.1


Tree=26
num_leaves=23
num_cat=0
split_feature=31 45 47 36 45 21 28 45 19 33 45 34 38 33 47 29 31 45 2 20 37 29
split_gain=127968 372118 4014.75 6159.56 57064.1 54975.9 4053.78 2034.08 889.724 841.516 275339 505660 359.483 306.414 186.308 11825.8 147.742 392.463 132.725 898.333 12724.4 14073.4
threshold=8.7324088174120771 2.5248739719390874 10.110802650451662 3.5859533984100636 2.5118408203125004 2.0968704850579005 0.015896477520471127 2.2358832359313969 0.68597810425345951 2.5708335787831316 6.6174683570861825 2.0711012339377048 3.5730500221252446 3.0455227738444948 0.70551735162734996 -1.7178904522848042 3.2408704451657586 2.2790569067001347 -0.02400221541504961 -1.1830282497107263 -0.18428631252866304 -1.0577642517485322
decision_type=2 2 2 2 2 2 2 2 2 2 2 2 2 2 2 2 2 2 2 2 2 2
left_child=2 -2 9 6 8 -6 -4 -8 -5 16 11 -11 -13 -12 15 -15 18 -18 -1 20 21 -20
right_child=1 -3 3 4 5 -7 7 -9 -10 10 13 12 -14 14 -16 -17 17 -19 19 -21 -22 -23
leaf_value=-0.076762879774959908 -0.075008595225366667 -862.37034566886382 -59.065217332021398 -94.124046244208543 -871.03118918192513 -0.075074381357862249 108.83903520483874 1.7972360214829846 -0.075005357924648908 -2368.1509104843476 -29.586178898146404 -71.834952245017888 -0.075078856687414527 200.63244729609335 -0.21245781837921124 0.39880483336752626 -0.0750089597457161 53.928919097636971 -405.38865443952039 -0.078609833132680829 -2.2940924316472358 -67.627348910157707
leaf_weight=251.63296089666045 0.019552385438514785 0.006726233768858946 0.011866491404254553 0.0010632750718946307 0.0016074288432719177 0.0013197825755923986 0.0018363105328212939 0.053396947943838313 0.018634820575243793 0.0013935364549969567 0.003388553741388022 0.0013935364549979568 0.0013988583814352751 0.0029894248582422725 0.75788079216727056 0.22115272624068893 0.0049244484939084945 0.0018517171847634017 0.0014803353327792479 1.8967946181915105 0.27245676075179542 0.0074016762666542779
leaf_count=160621 153 93 76 13 87 1 127 302 215 211 12 2 2 9 386 134 79 18 19 909 55 11
internal_value=0 -220.787 -0.101891 -21.2512 -66.3725 -478.346 -6.0368 5.356 -5.15164 -0.0944439 -3.00487 -812.32 -35.8866 0.433017 0.536601 3.06936 -0.0830966 14.6826 -0.0834908 -0.860744 -6.13391 -123.921
internal_weight=0 0.0262786 254.897 0.0897251 0.0226253 0.00292721 0.0670997 0.0552333 0.0196981 254.807 0.989597 0.00418593 0.00279239 0.985411 0.982023 0.224142 253.818 0.00677617 253.811 2.17813 0.281339 0.00888201
internal_count=163535 246 163289 821 316 88 505 429 228 162468 756 215 4 541 529 143 161712 97 161615 994 85 30
is_linear=0
shrinkage=0.1


Tree=27
num_leaves=23
num_cat=0
split_feature=40 36 2 45 41 19 43 36 20 36 43 36 41 33 20 19 20 45 43 20 45 40
split_gain=7323.16 11585.9 1676.12 32766.2 1197.61 14760.6 710.164 10423 194.474 669.544 135.562 96.1677 39.0267 11455.4 189.629 43.1215 605.858 497.987 3770.33 4521.27 428.307 91.7723
threshold=2.8991622924804692 0.42015132822916595 0.22251739520605654 2.2358832359313969 5.9709312915802011 -0.57136895225245377 0.80638480186462413 -0.14362164317291173 -1.1667893803661509 -0.056887339880284445 2.7154392004013066 0.46351847987547962 1.1995251178741457 0.43473220100699961 -1.1789685323745822 -1.0780610496503591 -0.79329538544091183 2.2790569067001347 2.7154392004013066 -1.0165798389288263 2.3253220319747929 1.8600938320159914
decision_type=2 2 2 2 2 2 2 2 2 2 2 2 2 2 2 2 2 2 2 2 2 2
left_child=2 -2 4 -4 12 -6 7 -5 -9 -10 -8 -3 13 -1 -15 16 17 18 19 -14 -19 -22
right_child=1 11 3 6 5 -7 10 8 9 -11 -12 -13 15 14 -16 -17 -18 20 -20 -21 21 -23
leaf_value=287.1015195729276 187.86791249390305 -0.075326317434669082 -568.59576245233154 -228.69735205301865 -399.14606299740143 -0.075003979993090789 -0.075145458713983315 -0.075003911923008704 -89.55700329577796 -0.075003894869791587 16.307351454964827 18.421776105795377 -293.94453797319863 -19.443258602324633 -0.077519171765348782 -0.084154704185118084 -61.932514091405473 42.047142471956903 -0.075203661915540551 -0.075004028663293074 -0.28686411985216836 -5.259980749449408
leaf_weight=0.0013928714215570839 0.0053207566793663777 0.0058545714491629042 0.0010553704341874489 0.002187012791764891 0.0010023277582149612 0.012306535820244657 0.029279499995027436 0.02802698419824283 0.0011175432009622515 0.0033214595750905573 0.0061040033179098263 0.0054062625809621068 0.001020861185679677 0.0051631648093461982 0.24442027509212494 10.974114459461818 0.0016166131544365072 0.0023740442775305173 0.015064569445257803 0.0010746886255216248 0.96543612242182619 0.038590076539776419
leaf_count=226 68 2 32 96 81 196 275 428 29 48 8 972 25 230 12 156952 15 27 18 16 3721 58
internal_value=0 66.2633 -0.237608 -15.548 -0.148854 -30.1302 -7.21423 -17.3895 -3.15515 -22.6026 2.751 8.80503 -0.116282 1.11787 -0.478141 -0.142095 -0.762328 -0.665716 -17.5576 -143.236 -0.377693 -0.478007
internal_weight=0 0.0165816 12.3347 0.0710919 12.2636 0.0133089 0.0700365 0.034653 0.032466 0.004439 0.0353835 0.0112608 12.2503 0.250976 0.249583 11.9993 1.02518 1.02356 0.0171601 0.00209555 1.0064 1.00403
internal_count=163535 1042 162493 916 161577 277 884 601 505 77 283 974 161300 468 242 160832 3880 3865 59 41 3806 3779
is_linear=0
shrinkage=0.1


Tree=28
num_leaves=23
num_cat=0
split_feature=47 23 36 45 33 43 44 47 34 34 44 38 45 26 42 25 36 44 41 36 23 38
split_gain=14063.7 69520 7897.23 4113.89 3571.34 1.41673e+06 3402.15 3420.37 783.295 11358.4 560.633 1191.74 451.627 281.233 809.543 5279.94 220.436 25717.4 96.2661 4443.21 1432.19 268.343
threshold=10.110802650451662 3.6592467735823959 3.5425862467637503 1.9672508835792544 2.5708335787831316 5.1690280437469491 7.7380077838897714 7.5603346824646005 0.86246011938744171 2.0448264270996561 4.4250624179840097 4.6197571754455575 2.487728595733643 11.605289921022353 1.4231091737747195 -0.78968560170525703 2.5885089105448498 1.0884374976158144 1.1995251178741457 0.98392429963124362 2.2129324877966607 8.7395758628845233
decision_type=2 2 2 2 2 2 2 2 2 2 2 2 2 2 2 2 2 2 2 2 2 2
left_child=4 8 -3 -4 13 -6 10 -8 16 -10 11 -7 -5 18 -15 -16 -2 -18 19 20 -1 -20
right_child=1 2 3 12 5 6 7 -9 9 -11 -12 -13 -14 14 15 -17 17 -19 21 -21 -22 -23
leaf_value=0.31405940832365697 -0.32388993254799398 -308.03558624023708 -64.68572348778558 -0.075004243972798743 -1213.8464599681761 0.075240001321829342 136.80973028739416 0.075207066632964961 -305.19598402548826 -0.075026768255001264 0.053401756514709686 58.533538783596136 -35.007611404750286 0.075434491803763049 0.075425502115648052 -90.927525989379404 -433.22066555450215 0.056379227746416509 0.07648221513987058 74.757241006115166 48.32901004986271 13.541978316209999
leaf_weight=7.8305619131533595 1.2122755361154638 0.0012988675298400967 0.19765040278434753 0.010543350466491574 0.0096381809562043896 0.010881995665841615 0.0036567209754138066 0.0036610113456845284 0.0013109555002300812 0.01759080815827474 3.3343785690958612 0.0051318677672438024 0.0057028248411370433 0.12960514426230174 0.037251078439691998 0.0076920571736991397 0.0013852153060723701 0.12408982501475486 1003.6024238872326 0.0080340877175330005 0.006217145361006148 0.014799684059993434
leaf_count=1065 174 32 128 189 218 3 9 1 14 40 510 15 143 17 23 16 33 314 160479 11 5 96
internal_value=0 -9.3984 -62.2025 -60.7097 0.0678935 -3.18335 0.291811 68.4024 -1.02249 -21.2371 0.143048 18.809 -12.3372 0.0787157 -3.93492 -15.4998 -0.736873 -4.7269 0.0794083 0.428351 0.352151 0.0766808
internal_weight=0 1.57185 0.215195 0.213897 1015 3.36735 3.35771 0.00731773 1.35665 0.0189018 3.35039 0.0160139 0.0162462 1011.64 0.174548 0.0449431 1.33775 0.125475 1011.46 7.84481 7.83678 1003.62
internal_count=163535 1067 492 460 162468 756 538 10 575 54 528 18 332 161712 56 39 521 347 161656 1081 1070 160575
is_linear=0
shrinkage=0.1


Tree=29
num_leaves=23
num_cat=0
split_feature=40 40 31 31 26 23 36 36 40 36 44 36 40 33 33 20 43 40 23 39 44 43
split_gain=279412 1.09146e+06 89339.1 30191.2 12139 30399.8 25281.3 9185.83 557434 11907.5 9272.26 49161.4 7961.21 872.393 281440 282347 13738.5 835.903 2005.2 333.994 334.993 286.343
threshold=4.1310772895812997 4.1579720973968515 4.2476524800775834 5.437485794064286 11.605289921022353 3.8319410166612893 3.9328906115805728 1.1573929062164985 3.5947540998458867 2.892078972069045 1.5461788773536684 3.8461563082879455 4.1223487854003915 6.131002541743352 11.115239089887661 -1.1789685323745822 7.7128300666809091 3.6282827854156499 3.097990483575991 13.724245071411135 8.2530002593994158 6.595872402191163
decision_type=2 2 2 2 2 2 2 2 2 2 2 2 2 2 2 2 2 2 2 2 2 2
left_child=2 -2 4 -4 13 7 -7 21 9 -9 17 -12 -5 -1 15 -15 -16 18 -10 20 -18 -6
right_child=1 -3 3 12 5 6 -8 8 10 -11 11 -13 -14 14 16 -17 19 -19 -20 -21 -22 -23
leaf_value=-0.071907523465652892 26.468104006407625 -2537.8568907258596 343.15574735264539 0.075024491988995731 -0.075362229475593012 540.27960471048743 47.152854243528481 1685.8907657614775 0.075033186208154176 1262.0494212892938 740.09714367196011 0.075008762932839382 64.684623918245748 -1821.5215358281662 -172.4842653057311 0.0750959733372243 -0.1138484097991735 0.81900461016100312 144.99818289615118 -33.70202386665013 -33.701915924961384 -15.75595702483826
leaf_weight=791.99514604888168 0.0075479803500674292 0.0021277166670188308 0.0037891955872016983 0.021108222943169608 0.13393495557991641 0.0020362655341159544 0.0021241413778625429 0.0013050062089803296 0.0030979301081970325 0.0013470619705913123 0.0010810487437993279 0.0052931897080270573 0.19765381273782623 0.0017018037615343928 0.004640128929167652 0.0017018037615360573 1.9865014630415698 0.13441418734146282 0.0013800418237224221 0.0029738135635900545 0.0029738231096417813 0.012754618190228939
leaf_count=161939 26 249 44 90 34 36 15 37 6 22 54 37 145 36 68 3 411 263 6 3 7 4
internal_value=0 -537.435 -0.0518425 63.2979 -0.0695923 20.0835 288.508 16.2928 33.8772 1470.61 7.64733 125.58 58.4505 -0.0771756 -2.16282 -910.723 -0.614372 2.23498 44.7381 -0.214112 -0.164055 -1.43879
internal_weight=0 0.0096757 794.517 0.222551 794.294 0.298768 0.00416041 0.294608 0.147918 0.00265207 0.145266 0.00637424 0.218762 793.996 2.00049 0.00340361 1.99709 0.138892 0.00447797 1.99245 1.98948 0.14669
internal_count=163535 275 163260 279 162981 514 51 463 425 59 366 91 235 162467 528 39 489 275 12 421 418 38
is_linear=0
shrinkage=0.1


Tree=30
num_leaves=23
num_cat=0
split_feature=0 31 31 31 33 42 20 33 33 44 42 21 34 19 26 1 38 21 20 1 41 20
split_gain=69650.3 39702.7 46261.9 22216.6 20739.1 1.47354e+06 7.84943e+06 34606.4 772247 11677.4 6664.88 58975 83478.7 6496.58 95202.8 2081.71 905.645 2348.71 746.323 728.378 54370.6 649.481
threshold=-0.062846441850982981 4.2476524800775834 5.437485794064286 1.776460212566741 2.5708335787831316 9.1746172904968279 -1.1749088150384386 11.115239089887661 6.131002541743352 7.7380077838897714 7.6589324474334726 0.10063481300235629 0.17931514159816242 0.68597810425345951 0.77875182238578478 -0.0017355602270045592 9.9856090545654315 0.048102295316684092 -1.1627296630300068 -0.0017355602270045592 2.8717976808547978 -1.1749088150384386
decision_type=2 2 2 2 2 2 2 2 2 2 2 2 2 2 2 2 2 2 2 2 2 2
left_child=1 3 -3 4 10 6 -6 8 -7 19 -1 13 -13 14 18 -8 17 -15 -12 20 -9 -22
right_child=-2 2 -4 -5 5 7 15 9 -10 -11 11 12 -14 16 -16 -17 -18 -19 -20 -21 21 -23
leaf_value=-0.082182470464483806 120.12942333778784 -661.24682016094539 -0.075007935984492652 444.35507529051523 7984.5625560841036 -0.075037178744852898 -0.075223842812396011 689.45677682594476 2606.4181620855502 -290.71957471150199 82.87020690217004 -822.41668259078097 -0.075031875367415304 -0.075010513416854843 -933.62938750821638 -131.21727354323485 -0.075030553463411295 -164.50776460505762 -0.075067773843984525 -0.093454386416452651 65.874630756668367 -0.075022219705891638
leaf_weight=218.45359748602888 0.04824995997756687 0.0019662060221857409 0.0022917440277603713 0.0011250363413627387 0.0014653138350699544 0.025679517828393617 0.0058668237179517746 0.0011602075519004931 0.0011893374612554899 0.0013762515736744909 0.0012056141858920464 0.0021888198316446497 0.0028311423375271261 0.0030392856788239433 0.0011782924411818394 0.0015250622527557536 0.11237901278178697 0.0012163028586655855 0.010823846561833217 0.95659734180662792 0.001516308504505722 0.098325766753987701
leaf_count=161795 164 44 289 17 139 44 5 13 40 31 30 25 6 33 30 3 351 4 9 29 122 312
internal_value=0 -0.0307858 -305.386 -0.0248674 -0.0271432 13.7026 1298.3 3.22413 115.3 0.380482 -0.0959023 -22.3196 -358.635 -9.31701 -75.7882 -27.1319 -1.78979 -47.072 8.23786 0.75929 8.83567 0.92656
internal_weight=0 219.689 0.00425795 219.684 219.683 1.0947 0.0088572 1.08584 0.0268689 1.05898 218.588 0.134862 0.00501996 0.129842 0.0132078 0.00739189 0.116635 0.00425559 0.0120295 1.0576 0.101002 0.0998421
internal_count=163535 163371 333 163038 163021 738 147 591 84 507 162283 488 31 457 69 8 388 37 39 476 447 434
is_linear=0
shrinkage=0.1


Tree=31
num_leaves=23
num_cat=0
split_feature=26 25 1 38 45 41 41 43 47 41 39 38 39 19 47 19 43 36 36 36 39 19
split_gain=15347.9 56854.6 9236.85 38766 33048.5 1315.1 1078.53 8350.21 970.824 8083.64 5900.16 8423.92 708.227 681.589 640.692 427.472 18190 82396.2 2217.73 325.03 108.305 491.283
threshold=4.1848536961141436 -1.4079409826674765 1.0000000180025095e-35 0.67487147450447094 2.658787846565247 1.639407277107239 1.1995251178741457 5.1137511730194101 10.110802650451662 5.9878766536712655 7.8105864524841317 7.5800347328186044 0.69112747907638561 -1.5519119925872891 2.846914649009705 -1.2047340739998356 2.7154392004013066 0.81045569304598897 1.4175958160943805 0.29004987329022491 0.72773662209510814 -1.542528805598439
decision_type=2 2 2 2 2 2 2 2 2 2 2 2 2 2 2 2 2 2 2 2 2 2
left_child=2 -2 6 4 -4 -3 7 -1 9 15 -11 -12 -6 -9 -7 16 17 -8 -19 20 21 -14
right_child=1 5 3 -5 12 14 8 13 -10 10 11 -13 19 -15 -16 -17 -18 18 -20 -21 -22 -23
leaf_value=-44.570655852592076 -803.39136242519066 99.372074711063135 -570.54779840908975 -292.93581682475406 -79.101833848349301 -96.206913133653813 -913.92351736240494 16.352679678571615 7.7040842022086284 -289.04434149568334 -0.075210663260364005 -272.32166857653198 -0.075003253453004071 -0.077278806822744878 -0.075002773597189876 -0.075052658588322496 -0.30897778967302714 -136.49372615931338 -0.075048796189021688 -37.745105070650716 -0.075237670953501853 -61.823422459831811
leaf_weight=0.047198524705114042 0.0011203556223340592 0.0010055599668704327 0.0010517591810699561 0.0054633388683823147 0.0012653930243686764 0.001040237311826786 0.0012037006018361671 0.030433109871102537 0.15403198980857347 0.0013835113495596074 0.0050286248442716897 0.001468446528633649 0.0063043834852578584 0.14823441207408905 0.0020786480245187406 9.5054041276334811 0.42936544698485968 0.0014644636539742351 0.00639782132845923 0.00264408579096198 0.047967526672437089 0.0016194746567634866
leaf_count=410 655 27 60 63 89 25 73 23 288 11 38 6 117 7 146 158778 1856 6 208 2 608 39
internal_value=0 -171.674 -0.565696 -37.7675 -14.8585 -0.0750028 -0.326907 -7.16115 -0.17416 -0.296099 -101.536 -61.6075 -5.0852 2.7213 -32.1377 -0.215865 -3.26875 -143.444 -25.485 -3.48514 -1.86439 -12.6951
internal_weight=0 0.0052448 10.3979 0.066316 0.0608526 0.00412445 10.3316 0.225866 10.1057 9.95172 0.00788058 0.00649707 0.0598009 0.178668 0.00311889 9.94384 0.438431 0.00906599 0.00786228 0.0585355 0.0558914 0.00792386
internal_count=163535 853 162682 978 915 198 161704 440 161264 160976 55 44 855 30 171 160921 2143 287 214 766 764 156
is_linear=0
shrinkage=0.1


Tree=32
num_leaves=23
num_cat=0
split_feature=40 40 23 32 26 25 21 26 26 19 47 26 47 43 31 36 43 36 40 43 47 25
split_gain=149.572 342.145 7476.79 374.986 251.812 2628.73 394.648 670.38 1019.12 3188.89 2272.49 5328.42 1150.5 299.28 209.803 162.305 161.851 143.618 139.505 139.079 79.1139 85.2688
threshold=2.7837812900543217 3.5569545030593877 3.3570318481943313 -0.63770863680821921 3.6982677141529496 1.0000000180025095e-35 2.1494030027435724 5.1580256600365315 4.1848536961141436 -1.5003044641486134 2.8799029588699345 4.6714396780753384 3.0164288282394414 6.595872402191163 6.1696909103637942 3.1522818819469269 5.4715666770935067 3.3691176401784957 2.8991622924804692 5.294511318206788 2.5413820743560795 -1.2018558556800698
decision_type=2 2 2 2 2 2 2 2 2 2 2 2 2 2 2 2 2 2 2 2 2 2
left_child=4 3 -3 -2 -1 6 -6 8 16 10 19 -12 -13 20 18 -4 -8 -17 -5 -10 21 -9
right_child=1 2 15 14 5 -7 7 13 9 -11 11 12 -14 -15 -16 17 -18 -19 -20 -21 -22 -23
leaf_value=0.077545202019037543 0.11924209288057593 249.08245283915863 7.7394064751751444 -1.0954884278910844 -0.034288568097082285 67.757397748782054 16.995851002830264 0.075334513272086248 17.099742439932577 85.197378799737692 119.24619697964025 0.075334951267987935 51.148560619835138 31.019439998303511 -0.079331681801796158 -5.1336303067147 0.075335527953298342 -0.11916751603093767 -5.2898501771095052 1.2084366172894336 0.27694786141153871 17.099742439932577
leaf_weight=874.53838788234441 0.49268669860998671 0.0012040578912991809 0.026099855080247703 0.098277806009453128 1.3914149865158583 0.0059099853970357987 0.0059099853970109298 0.0058942097239196301 0.0058739189989864818 0.0058739189989864818 0.0058739189989864818 0.017705245409160852 0.0058739189989864818 0.0032270084484480313 0.13765528798103333 0.057602296350523718 0.1300607486627996 6.7714793308366339 0.41059258170224844 0.088253252673894167 0.49602300673723221 0.0058739189989864826
leaf_count=162248 65 156 24 20 67 5 2 1 2 6 8 3 4 3 2 30 22 695 71 16 83 2
internal_value=0 -0.354264 -0.0876179 -1.95908 0.0802171 1.15518 0.973609 2.7798 6.85691 13.2074 9.78562 34.0276 12.7984 0.662127 -3.54287 -0.131383 0.810788 -0.161464 -4.4798 2.20012 0.469207 8.57286
internal_weight=0 7.9956 6.85639 1.13921 876.712 2.17377 2.16786 0.776443 0.265425 0.129454 0.12358 0.0294531 0.0235792 0.511018 0.646526 6.85518 0.135971 6.82908 0.50887 0.0941272 0.507791 0.0117681
internal_count=163535 1063 905 158 162472 224 219 152 63 39 33 15 7 89 93 749 24 725 91 18 86 3
is_linear=0
shrinkage=0.1


Tree=33
num_leaves=23
num_cat=0
split_feature=31 40 36 40 38 45 45 20 29 33 38 31 30 20 45 44 23 45 25 45 20 40
split_gain=294095 1793.63 195841 284241 10810.1 37897.9 1215.81 23245.2 13360.1 1085.27 522.316 2575.54 23659.6 7175.69 5192.79 1917.95 95288.1 237672 2089.62 84997.4 664.499 423.257
threshold=7.0849473057381802 3.9516789913177495 3.3257504885321816 4.0884940624237069 10.181555271148683 2.4021341800689702 15.360800743103029 -1.1708490977022945 -1.4821310949504214 13.488685065194472 5.6293044090271005 1.6849345730293022 -1.4333192769022116 -1.150550511021575 2.9932410717010502 3.1134353876113896 3.1411640443457145 2.3700542449951176 0.5241070828394595 2.4427236318588261 -1.1424310763492873 3.3667973279953007
decision_type=2 2 2 2 2 2 2 2 2 2 2 2 2 2 2 2 2 2 2 2 2 2
left_child=1 6 -3 4 5 -4 9 8 -8 10 11 -1 13 -13 -15 16 17 -12 19 -18 -16 -20
right_child=-2 2 3 -5 -6 -7 7 -9 -10 -11 15 12 -14 14 20 -17 18 -19 21 -21 -22 -23
leaf_value=-0.074692585024701968 452.2673096694628 -1190.7548497993553 0.075006865060037564 1211.9545065036464 0.083185241855963377 614.52650489576331 0.075040986526564143 0.075039802867860661 378.00679553739519 -15.554070275265008 0.075020694902723672 396.82178240938998 -339.51092383609375 293.69804386552045 99.49042955396709 0.21118722263012898 0.0750146979280292 1593.1229414831982 0.25006432057523575 875.07634269060281 0.075057118232479458 4.9576764473128279
leaf_weight=680.69209029725573 0.014374415914061411 0.0013436008302856175 0.0043827589979627815 0.0019803949180735849 0.13752234930143459 0.0013019742036703974 0.0014468293520621955 0.080090273811946555 0.0026459803339093915 0.045230340212582543 0.0032343444327257434 0.0010081998771056533 0.0011779048945744766 0.0010217183735221624 0.0010058806510642171 9.1952988796903927 0.038813065177237101 0.0013182277616579086 0.60964209159331528 0.0011428554055698458 0.0020275990245863795 0.27811241709327761
leaf_count=161664 253 78 44 190 55 30 2 121 14 121 53 7 9 4 2 491 187 54 66 71 2 17
internal_value=0 -0.0607013 11.0019 22.1232 5.66918 140.803 -0.0630473 11.9539 244.406 -0.0645116 -0.0634974 -0.0741036 64.1642 158.072 98.7139 0.649368 4.97132 461.353 2.73171 25.1026 33.0405 1.72485
internal_weight=0 691.102 0.146531 0.145187 0.143207 0.00568473 690.955 0.0841831 0.00409281 690.871 690.826 680.698 0.0062413 0.0050634 0.0040552 10.1276 0.932263 0.00455257 0.92771 0.0399559 0.00303348 0.887755
internal_count=163535 163282 397 319 129 74 162885 137 16 162748 162627 161688 24 15 8 939 448 107 341 258 4 83
is_linear=0
shrinkage=0.1


Tree=34
num_leaves=23
num_cat=0
split_feature=31 45 20 41 41 40 42 44 0 36 42 29 20 29 20 30 42 36 45 27 20 29
split_gain=3.75202e+06 5830.74 35128.7 36225.5 1757.08 6135.16 1128.04 2703.93 1033.88 609.256 390.696 4928.21 144973 96026.1 1441.82 3419.55 1077.68 24507.6 34341.7 356.834 1218.91 1779.15
threshold=1.6849345730293022 15.360800743103029 -1.1667893803661509 2.9357421398162846 7.3186285495758066 3.7997351884841923 7.6589324474334726 0.92176645994186412 -0.067085252150581837 2.9354461237153591 6.9195640087127694 -1.1049161232154086 -1.1627296630300068 0.62084237247227392 -0.98410210023967515 -1.1168486058699705 8.8182034492492694 3.5859533984100636 2.3816418647766118 5.9411453740586397 -1.150550511021575 -1.3312451062564163
decision_type=2 2 2 2 2 2 2 2 2 2 2 2 2 2 2 2 2 2 2 2 2 2
left_child=1 4 3 -3 8 6 7 -6 10 -8 -1 16 13 -13 -14 -16 17 -12 -19 -18 21 -21
right_child=-2 2 -4 -5 5 -7 9 -9 -10 -11 11 12 14 -15 15 -17 19 18 -20 20 -22 -23
leaf_value=-0.079514913695905964 -5437.8800960720491 -834.03808432258745 -0.075010535800719078 -106.76689881366447 -185.27891280100113 -259.00784050624685 86.236724970791045 -0.07502259352270374 6.3619365631361653 -0.075013037297807783 -1.5373603854774149 -1350.8078969673884 -0.075027492580390279 -150.21075216719328 -0.075057083907868735 -165.16543416716652 -0.32073704902279482 -0.075002508570881379 -749.7935507345444 -168.34488819602998 -0.075039368505025239 -0.07503752967841909
leaf_weight=187.16683457678667 0.0012688943227193708 0.0010791844688355914 0.017778540655853159 0.0018745568086160347 0.0010798908624501946 0.0011586016424924859 0.0011585909669520333 0.002919509875937365 0.24763065808104912 0.0027805611316580325 0.068384185801163511 0.0013326099142432213 0.092664557334501296 0.0013321280712261787 0.0040530478581786156 0.0018171863048433981 5.2103210333734795 0.0014294452418678377 0.0010670671035773402 0.0011885670246556401 0.0083673548069781445 0.0013331033405847856
leaf_count=161641 394 26 111 13 45 25 11 13 206 34 278 74 202 16 4 6 309 41 68 4 12 2
internal_value=0 -0.103166 -53.1324 -372.484 -0.097464 -44.0448 -12.6718 -50.0825 -0.0953904 25.3112 -0.103695 -0.942814 -22.8024 -750.618 -3.11964 -51.1803 -0.524798 -12.7724 -320.522 -0.35853 -18.4422 -79.3875
internal_weight=0 192.838 0.0207323 0.00295374 192.817 0.00909715 0.00793855 0.0039994 192.808 0.00393915 192.56 5.39329 0.1012 0.00266474 0.0985348 0.00587023 5.29209 0.0708807 0.00249651 5.22121 0.010889 0.00252167
internal_count=163535 163141 150 39 162991 128 103 58 162863 45 162657 1016 302 90 212 10 714 387 109 327 18 6
is_linear=0
shrinkage=0.1


Tree=35
num_leaves=23
num_cat=0
split_feature=26 40 1 44 29 41 43 39 44 29 27 29 44 40 1 29 44 39 36 28 40 39
split_gain=296195 39475.1 4634.47 31327.3 98931.3 1080.4 9077.33 828.252 319.341 41.12 16.3496 13.9726 7.27348 343.41 203.794 274.847 48.1784 688.662 0.000416142 0.000118704 2.14496e-05 6.48973e-06
threshold=4.1848536961141436 2.8991622924804692 -1.0000000180025095e-35 5.8653037548065194 -1.4066881006034186 1.1995251178741457 5.4333517551422128 0.72773662209510814 5.9663825035095224 -0.3504861797453836 5.9411453740586397 -1.4632703463636707 3.1134353876113896 1.0804010629653933 -0.0030546023674919601 -1.7367512008715549 1.7078226804733279 3.2713611125946049 3.2390161852395551 0.03134161053776495 2.1612458229064946 9.1982083320617694
decision_type=2 2 2 2 2 2 2 2 2 2 2 2 2 2 2 2 2 2 2 2 2 2
left_child=1 2 5 4 -4 6 -1 8 -5 10 11 -8 16 14 15 -14 19 -18 -16 20 21 -7
right_child=-2 -3 3 7 -6 12 9 -9 -10 -11 -12 -13 13 -15 18 -17 17 -19 -20 -21 -22 -23
leaf_value=-51.110017100256243 -1288.6168641084071 302.94807412747497 -1124.0177670587407 -31.143438157217822 -0.075002122057478637 -0.075016597072754626 2.8871515690647502 -0.07532018123595241 -94.430992877685384 -4.2237318479801074 -0.30558016749592903 -0.076773745419129222 -0.075157099627293819 -35.105368229066663 -0.075924953385940283 -48.126220953043756 73.621147800960273 -0.075153641078442066 -0.08142605966737454 -0.075002849880538652 -0.079151887098279167 -0.077189924656107495
leaf_weight=0.039190579208876808 0.0017849633514658283 0.0042900989745991982 0.0010676700258045457 0.0032187008109758599 0.0029388055881978395 0.016931903810461502 0.033736463636159897 0.033230974819181774 0.0010598161206871737 0.024111733363497478 0.24701777618611231 0.030092993751168251 0.0027811916079372168 0.0028424814809113732 0.26090233517853878 0.0020811175054413758 0.0013569220573125254 0.019346336119497209 0.29076299071311951 8.060921196096869 0.066271369809669523 0.072876244783401489
leaf_count=409 853 397 53 122 130 86 8 523 118 2 3 1 2 58 974 12 54 30 11 159659 3 27
internal_value=0 -0.320129 -0.461352 -33.7972 -299.59 -0.310448 -5.57334 -5.40727 -46.8202 -0.245503 0.0630799 1.48978 -0.0866112 -0.435555 -0.258478 -20.6415 -0.0629167 4.75501 -0.0788244 -0.0750557 -0.0777872 -0.0767802
internal_weight=0 9.21703 9.21274 0.041516 0.00400648 9.17122 0.37415 0.0375095 0.00427852 0.334959 0.310847 0.0638295 8.79707 0.55937 0.556528 0.00486231 8.2377 0.0207033 0.551665 8.217 0.15608 0.0898081
internal_count=163535 162682 162285 946 183 161339 423 763 240 14 12 9 160916 1057 999 14 159859 84 985 159775 116 113
is_linear=0
shrinkage=0.1


Tree=36
num_leaves=23
num_cat=0
split_feature=39 40 36 40 2 20 35 36 40 20 36 44 20 27 31 30 40 30 28 35 47 30
split_gain=611.744 746424 87.8245 74.488 41.6798 517.69 2858.57 6795.13 396.424 991.572 106.541 231.042 97.34 202.604 27.583 666.738 7663.06 47.8104 18.4862 276.821 3178.61 1029.59
threshold=16.257246971130375 3.8596478700637822 3.3257504885321816 4.0445456504821786 0.22251739520605654 -1.1830282497107263 -0.45007624381732553 -0.10025449152659811 2.1612458229064946 -1.1667893803661509 -0.1869887948192254 5.9516797065734872 -1.1140130549962801 0.67419242346585684 -0.054052578182031047 -1.4333192769022116 1.0000000180025095e-35 -1.3846314813587901 1.0000000180025095e-35 1.9651349926550392 3.3235722780227666 -0.41087557049035528
decision_type=2 2 2 2 2 2 2 2 2 2 2 2 2 2 2 2 2 2 2 2 2 2
left_child=3 -2 -3 4 14 6 10 -8 12 -10 11 -6 -7 -14 18 -16 17 -17 19 -1 21 -21
right_child=1 2 -4 -5 5 8 7 -9 9 -11 -12 -13 13 -15 15 16 -18 -19 -20 20 -22 -23
leaf_value=0.13342167848373429 -2134.1053605433822 -9.0508464520317435 -0.15591424241003857 2.7105965382041273 0.075156070816658094 0.13951025760731092 0.075199730513014748 169.95353025525469 69.717663978075294 0.075200653782912463 0.07519820306330377 35.112185595050335 0.075191978703787785 30.23251755138461 -0.088449404876037571 -9.3005149900374402 -276.47717464774036 -0.075057303890949306 0.074974013299564254 0.5602445982252281 84.988875246580079 36.721118302179086
leaf_weight=10.059665976710063 0.0016400891330462511 0.011141402678319756 3.0008980426251393 0.10741650313138862 0.0055260998196902528 3.4513223016022838 0.0070638791663227519 0.0035319395837386152 0.0028718095272790654 0.007096356246620519 0.069827086283431733 0.0028541228311951272 0.0067911013030060863 0.0033152641553897411 3.7859371879603718 0.010665386915206907 0.0010853752028197041 0.01186911255353962 742.5333987673672 0.20618869684453381 0.0047099944204092017 0.0081864576786758458
leaf_count=1089 154 35 472 206 4 856 3 7 6 2 29 8 2 2 156 1 10 13 160407 49 17 7
internal_value=0 -1.35013 -0.188816 0.0774378 0.0770657 0.418421 7.9578 56.7013 0.225553 20.1391 1.35385 12.008 0.168206 9.96792 0.0754595 -0.192944 -16.9419 -4.44139 0.0768177 0.210007 3.72654 1.94114
internal_weight=0 3.01368 3.01204 760.289 760.182 3.5602 0.0888031 0.0105958 3.4714 0.00996817 0.0782073 0.00838022 3.46143 0.0101064 756.622 3.80956 0.0236199 0.0225345 752.812 10.2788 0.219085 0.214375
internal_count=163535 661 507 162874 162668 919 51 10 868 8 41 12 860 4 161749 180 24 14 161569 1162 73 56
is_linear=0
shrinkage=0.1


Tree=37
num_leaves=23
num_cat=0
split_feature=41 45 45 21 41 47 45 26 45 34 21 42 20 8 42 42 20 41 20 47 45 45
split_gain=190856 668666 130662 36673.3 1724.41 54188.2 135651 8666.74 8886.2 822.171 594.232 254.404 513.714 177.659 2098.53 264.689 1309.86 1919 1119.9 248.974 8804.82 557.599
threshold=6.9660375118255624 2.3352262973785405 2.4545558691024785 0.021836036473847964 5.9878766536712655 4.1333465576171884 2.3766052722930913 0.53545883140518769 2.4545558691024785 -0.03088331310623119 -0.21456029311167696 20.13198280334473 -1.0206395562649704 1.0000000180025095e-35 3.7616611719131474 8.8182034492492694 -0.98410210023967515 2.9357421398162846 -1.1830282497107263 10.110802650451662 2.6369572877883916 2.8225046396255498
decision_type=2 2 2 2 2 2 2 2 2 2 2 2 2 2 2 2 2 2 2 2 2 2
left_child=4 -2 3 9 11 7 10 8 -6 -3 -7 13 -13 15 -15 19 18 -18 -17 -1 -21 -22
right_child=1 2 -4 -5 5 6 -8 -9 -10 -11 -12 12 -14 14 -16 16 17 -19 -20 20 21 -23
