tree
version=v3
num_class=5
num_tree_per_iteration=5
label_index=0
max_feature_idx=37
objective=multiclass num_class:5
feature_names=duration src_bytes dst_bytes land wrong_fragment urgent hot num_failed_logins logged_in num_compromised root_shell su_attempted num_root num_file_creations num_shells num_access_files num_outbound_cmds is_host_login is_guest_login count srv_count serror_rate srv_serror_rate rerror_rate srv_rerror_rate same_srv_rate diff_srv_rate srv_diff_host_rate dst_host_count dst_host_srv_count dst_host_same_srv_rate dst_host_diff_srv_rate dst_host_same_src_port_rate dst_host_srv_diff_host_rate dst_host_serror_rate dst_host_srv_serror_rate dst_host_rerror_rate dst_host_srv_rerror_rate
feature_infos=[-0.067791720533848326:57.954456597141942] [-0.003061685831230673:5.1938510122693105] [-0.026287326600058027:156.0110317562204] [-0.0066734176481231472:149.84825657978121] [-0.047720185394377876:22.206628815910801] [-0.0025714681001558137:362.95721204820705] [-0.044135911646576681:35.756830593454978] [-0.0097821846314220823:322.16386006868646] [-0.41719170438758463:2.3969795887191636] [-0.0056786841552395762:21.125102396541138] [-0.01055195222316461:94.769193306685992] [-0.0046756707303497649:-0.0046756707303497649] [-0.0056400120680036962:26.823774699014688] [-0.011232081539976346:41.475752250876134] [-0.0099189749306474607:181.47830007000971] [-0.027631815673041748:54.794445335378192] none none [-0.037262662385766712:26.836515052181909] [-1.5542577893345018:0.83845489282227337] [-1.1850581083787985:0.88539773305459135] [-0.46408975211861997:2.1625361321649903] [-0.4635204714740499:2.1610398570186433] [-0.24796047607757601:4.0693956008947678] [-0.24863128177301883:4.0589888568724621] [-2.039076684066409:0.53698740327617223] [-0.25524338928175266:11.909406159748098] [-0.20363306829960715:6.8189708658241033] [-3.5750969490003421:0.34796683739228829] [-1.7697575108983687:0.62555755961896153] [-1.8349935901354413:0.59939618703564601] [-0.28286667702562751:8.8696972767182309] [-1.25062080884941:0.8270475709512366] [-0.15862929281970367:23.575830460248426] [-0.46441762593404301:2.1630630578708772] [-0.46320239184163192:2.1620272130196336] [-0.25203952228869597:4.0846756423426704] [-0.24946400466852289:4.0957154713221344]
tree_sizes=2569 239 2522 2543 2504

Tree=0
num_leaves=23
num_cat=0
split_feature=19 26 33 31 1 0 8 21 0 34 31 7 28 1 1 4 19 32 4 1 26 36
split_gain=105156 63147.1 7869.6 7289.07 6506.08 2396 2267.41 1830.69 1130.39 1006.93 1241.26 972.618 862.881 814.494 544.359 541.652 271.586 2228.65 1523.61 1641.98 912.897 316.794
threshold=-1.5519119925872891 9.5981227454324287 1.3841105911297251 -0.054052578182031047 -0.0017355602270045592 -0.067085252150581837 1.0000000180025095e-35 2.1494030027435724 -0.067085252150581837 2.0711012339377048 8.6408831778746364 1.0000000180025095e-35 -3.5210389834398135 0.0083411729030096662 -0.0025886116458237987 1.0000000180025095e-35 -1.3736314397991372 -0.92858220998030971 1.0000000180025095e-35 -0.0025886116458237987 2.116863272779069 2.9354461237153591
decision_type=2 2 2 2 2 2 2 2 2 2 2 2 2 2 2 2 2 2 2 2 2 2
left_child=4 2 3 8 9 -6 -4 -3 11 15 -11 12 14 -10 -2 -1 17 21 19 -19 -18 -14
right_child=1 7 6 -5 5 -7 -8 -9 13 10 -12 -13 16 -15 -16 -17 20 18 -20 -21 -22 -23
leaf_value=-5.9992981647167616 -5.568043603403904 -6.0132544758909727 -0.16201247524851395 -6.018900644776437 0.067669413752581009 -5.9061863844333011 -6.0189006447764353 0.067669413752581023 -6.018900644776437 -0.56634830067752506 -6.0189006447764299 -6.018900644776437 0.048810947266046498 0.067669413752580801 0.067669413752581023 0.067669413752581023 0.067552013482185869 -6.0189006447764317 0.06766941375258094 0.067669413752581023 -6.018900644776437 -2.637472834482538
leaf_weight=30.608371395617727 0.44359958544373512 17.711124189198021 0.8707695566117758 1.9715537130832661 2.7601751983165737 0.88719917088747013 2.7437455840408802 0.5093180425465097 0.52574765682220359 0.78862148523330577 0.88719917088747025 0.2628738284111013 42.421264059841633 0.37788112834095955 0.27930344268679519 0.14786652848124404 4258.9339013881981 1.5279541276395323 1.3143691420555117 0.62432534247636695 0.2464442141354074 0.44359958544373412
leaf_count=1863 27 1078 53 120 168 54 167 31 32 48 54 16 2582 23 17 9 259223 93 80 38 15 27
internal_value=-0.0134107 0.0313747 0.0561925 0.0601045 -5.38973 -1.38543 -4.60792 -5.84327 0.0628869 -5.84007 -3.45299 0.063629 0.0640003 -3.47361 -3.39061 -5.97013 0.0645804 -0.176225 -2.61504 -4.25333 0.0671998 0.0210112
internal_weight=0 4331.21 4312.99 4309.37 36.0794 3.64737 3.61452 18.2204 4307.4 32.4321 1.67582 4306.5 4306.23 0.903629 0.722903 30.7562 4305.51 46.3315 3.46665 2.15228 4259.18 42.8649
internal_count=265818 263622 262513 262293 2196 222 220 1109 262173 1974 102 262118 262102 55 44 1872 262058 2820 211 131 259238 2609
is_linear=0
shrinkage=1


Tree=1
num_leaves=1
num_cat=0
split_feature=
split_gain=
threshold=
decision_type=
left_child=
right_child=
leaf_value=-34.538776391283193
leaf_weight=
leaf_count=
internal_value=
internal_weight=
internal_count=
is_linear=0
shrinkage=1


Tree=2
num_leaves=23
num_cat=0
split_feature=26 19 1 31 23 32 2 0 30 3 26 32 23 2 30 19 36 1 1 32 1 1
split_gain=79368.3 71083.7 34125.1 9278.09 2555.91 2070.74 1055.53 960.43 1379.79 843.928 294.145 1678.97 273.969 211.574 175.027 146.265 688.508 2303.46 474.379 139.983 488.422 1105.59
threshold=9.5981227454324287 -1.5519119925872891 -0.0030384115932320455 -0.054052578182031047 0.91772566470495687 -1.2194557831524 0.1349719104029197 -0.067085252150581837 0.56288034037807966 1.0000000180025095e-35 4.1848536961141436 -1.2194557831524 4.047808820509907 0.10886716342186332 -1.6524143568476095 -1.3736314397991372 0.1599484183512839 -0.0030384115932320455 -0.0030611798695350501 -0.94935889377831606 -0.0028405805702437165 -0.0029908511938435468
decision_type=2 2 2 2 2 2 2 2 2 2 2 2 2 2 2 2 2 2 2 2 2 2
left_child=1 2 5 7 -2 12 9 10 -9 -7 15 -12 -1 -13 -6 16 19 18 -18 -3 21 -21
right_child=4 3 -4 -5 14 6 -8 8 -10 -11 11 13 -14 -15 -16 -17 17 -19 -20 20 -22 -23
leaf_value=-4.6513208453392654 -4.4344290684378134 -4.6513208453392663 -4.6293571210960813 3.0922533382498196 3.1567831231130619 3.1183466056874858 -4.6513208453392663 3.1567831231130423 -4.6513208453392663 -4.6513208453392663 -4.6513208453392663 3.1567831231130619 1.8554324617042575 -4.6513208453392645 -2.699294853226184 -4.6511100002969705 -4.6513208453392654 -4.6513208453392663 3.156783123113045 -4.0006455146349067 -4.6513208453392663 3.1567831231130405
leaf_weight=0.40983060002327576 0.46105942502617736 29.533417614176869 9.1059236442670208 1.5496719563379873 13.69090348202735 18.211847288534052 0.17930088751017947 0.3842161875218153 0.5507098687812676 0.14087926875799794 2.2540683001279835 0.35860177502035995 0.07684323750436306 0.03842161875218153 0.051228825002907707 3319.9736547572538 0.089650443755090237 1.9210809376090754 0.58913148753345046 0.92211885005235672 3.6116321627050629 0.28175853751599766
leaf_count=32 36 2306 711 121 1069 1422 14 30 43 11 176 28 6 3 4 259227 7 150 46 72 282 22
internal_value=-4.57048 -4.60174 0.404746 -4.64362 2.88924 2.81501 2.98411 -4.64718 -1.44251 3.05871 -4.64808 -3.59515 -3.62394 2.40116 3.13495 -4.64891 -4.45104 -2.882 2.12552 -4.5698 -4.06987 -2.3255
internal_weight=0 3390.18 28.1246 3362.06 14.2032 19.0187 18.532 3360.51 0.934926 18.3527 3359.57 2.65109 0.486674 0.397023 13.7421 3356.92 36.9488 2.59986 0.678782 34.3489 4.81551 1.20388
internal_count=265818 264709 2196 262513 1109 1485 1447 262392 73 1433 262319 207 38 31 1073 262112 2885 203 53 2682 376 94
is_linear=0
shrinkage=1


Tree=3
num_leaves=23
num_cat=0
split_feature=6 8 2 2 2 15 18 1 6 23 0 9 2 0 27 20 28 1 1 29 35 34
split_gain=63254.2 29775.3 96392.2 14138.3 2917.72 1439.03 845.717 560.941 282.821 282.207 261.081 242.432 141.232 141.419 9.91078 1404.23 1.61887 5.54286 63.9751 212.128 1.57413 280.831
threshold=3.1523789548803482 1.0000000180025095e-35 -0.026226793853435282 -0.021656571483418461 0.05071032710406647 1.0000000180025095e-35 1.0000000180025095e-35 -0.0027135841846425129 1.873773008269578 3.8319410166612893 0.52564172140999277 1.662540874847106 -0.02400221541504961 -0.06143350508445003 1.6573569742431766 -0.72225033205839362 1.0000000180025095e-35 -0.0025132233531760723 -0.0020214285850311724 -1.7461815751649301 0.49500641393273015 1.0989333809298845
decision_type=2 2 2 2 2 2 2 2 2 2 2 2 2 2 2 2 2 2 2 2 2 2
left_child=1 3 9 8 7 6 12 -2 14 -3 -6 -7 13 -4 16 -16 17 20 19 -19 -1 -22
right_child=4 2 5 -5 10 11 -8 -9 -10 -11 -12 -13 -14 -15 15 -17 -18 18 -20 -21 21 -23
leaf_value=-5.9454023425907332 -5.9454023425907225 22.338326006692469 22.338326006685378 22.338326006692462 -5.9454023425907314 22.338326006691279 22.338326006690096 22.338326006692462 22.338326006692462 -5.9454023425907083 22.338326006684493 -5.945402342590711 -5.9454023425907332 -5.945402342590711 -5.9454023425907332 22.338326006692462 -5.9454023425907332 -5.9454023425907261 -5.9454023425907332 22.338326006684476 22.338326006685378 -5.9454023425907332
leaf_weight=1.8172993129119284 0.0070712035521864882 1.5839495956897722 0.0035356017760931327 0.17678008880466123 0.042427221313118935 0.021213610656559356 0.010606805328279623 0.83793762093409796 0.0035356017760922445 0.0035356017760933547 0.0035356017760932437 0.0035356017760932437 5.349365487229079 0.0035356017760932446 2.4925992521457379 0.017678008880465224 926.80143597442657 0.010606805328279734 0.13435286749154229 0.0035356017760932454 0.0035356017760931327 0.49498424865305424
leaf_count=514 2 448 1 50 12 6 3 237 1 1 1 1 1513 1 705 5 262134 3 38 1 1 140
internal_value=-5.86517 -5.89045 0.616881 -5.93918 20.767 -5.75994 -5.87087 22.1016 -5.94454 22.2753 -3.76973 18.2978 -5.92673 8.19646 -5.94465 -5.74622 -5.94519 -5.86424 -5.27198 1.12553 -5.90222 -5.74481
internal_weight=0 938.936 6.97928 931.956 0.890972 5.39179 5.36704 0.845009 931.78 1.58749 0.0459628 0.0247492 5.35644 0.0070712 931.776 2.51028 929.266 2.46431 0.148495 0.0141424 2.31582 0.49852
internal_count=265818 265566 1974 263592 252 1525 1518 239 263542 449 13 7 1515 2 263541 710 262831 697 42 4 655 141
is_linear=0
shrinkage=1


Tree=4
num_leaves=22
num_cat=0
split_feature=10 13 2 2 0 28 2 1 2 0 0 19 32 29 1 0 0 0 1 0 33
split_gain=89470.9 27064.3 9470.09 404.675 462.982 238.365 13437.3 17578.9 501.422 55.1733 812.849 5.80314 17.5456 193.651 651.069 2.77556e-17 2.77556e-17 1.38778e-17 1.38778e-17 1.73472e-18 2.1684e-19
threshold=1.0000000180025095e-35 1.0000000180025095e-35 0.20717234393719211 0.59191848147132364 -0.054368821251785257 -3.5210389834398135 0.10886716342186332 0.041711876537780114 -0.026226793853435282 -0.039532985203189229 0.1660493143273557 -1.5519119925872891 -1.2402324669504066 -1.7650423237516808 -0.0030384115932320455 7.0767230394400373 -0.051542947718719347 -0.062846441850982981 0.051885754313353821 43.500113475509814 3.0455227738444948
decision_type=2 2 2 2 2 2 2 2 2 2 2 2 2 2 2 2 2 2 2 2 2
left_child=1 3 -2 5 -5 6 8 -8 15 11 -11 12 13 14 -7 16 -1 18 -14 -12 -18
right_child=2 -3 -4 4 -6 9 7 -9 -10 10 19 -13 17 -15 -16 -17 20 -19 -20 -21 -22
leaf_value=-9.0152296131953076 598.64877790484707 377.68004789828626 251.41220218002539 -9.0152296131953076 77.793914317878318 -9.0152296131952845 511.83963397324646 -9.0152296131952543 41.623437679949312 77.793914317953607 -9.0152296131953022 -9.0152296131953076 -9.0152296131953076 -9.0152296131953058 77.793914317878375 -9.0152296131952543 -9.0152296131952383 -9.0152296131952898 -9.0152296131952898 -9.0152296131952809 -9.0152296131952596
leaf_weight=0.19517364664352399 0.0024684693926236836 0.001810210887923768 0.0011519523832248524 0.0013165170093988312 0.0011519523832248524 0.0034558571496745571 0.0011519523832248515 0.0014810816355748102 0.0019747755140997461 0.0011519523832238523 0.013987993224873208 43.342537548087421 0.12029674173390859 0.038178993272595108 0.0011519523832248515 0.0014810816355748093 0.0011519523832248515 0.0044432449067244298 0.0041141156543744719 0.0029621632711496195 0.0016456462617497891
leaf_count=1186 15 11 7 8 7 21 7 9 12 7 85 263377 731 232 7 9 7 27 25 18 10
internal_value=-8.93522 -8.97636 488.164 -8.99237 31.4957 -8.99465 -5.58487 218.859 -8.51877 -9.01064 -3.49101 -9.01293 -8.43262 -6.67806 12.6871 -9.01523 -9.01523 -9.01523 -9.01523 -9.01523 -9.01523
internal_weight=0 43.7406 0.00362042 43.7388 0.00246847 43.7363 0.20406 0.00263303 0.201427 43.5323 0.0181021 43.5142 0.171641 0.0427868 0.00460781 0.199452 0.197971 0.128854 0.124411 0.0169502 0.0027976
internal_count=265818 265796 22 265785 15 265770 1240 16 1224 264530 110 264420 1043 260 28 1212 1203 783 756 103 17
is_linear=0
shrinkage=1


end of trees

feature_importances:
src_bytes=15
duration=12
dst_bytes=10
count=5
dst_host_same_src_port_rate=5
diff_srv_rate=4
rerror_rate=3
dst_host_count=3
dst_host_diff_srv_rate=3
wrong_fragment=2
hot=2
logged_in=2
dst_host_srv_count=2
dst_host_same_srv_rate=2
dst_host_srv_diff_host_rate=2
dst_host_serror_rate=2
dst_host_rerror_rate=2
land=1
num_failed_logins=1
num_compromised=1
root_shell=1
num_file_creations=1
num_access_files=1
is_guest_login=1
srv_count=1
serror_rate=1
srv_diff_host_rate=1
dst_host_srv_serror_rate=1

parameters:
[boosting: gbdt]
[objective: multiclass]
[metric: multi_error]
[tree_learner: serial]
[device_type: cpu]
[data: ]
[valid: ]
[num_iterations: 100]
[learning_rate: 0.1]
[num_leaves: 23]
[num_threads: 0]
[deterministic: 0]
[force_col_wise: 0]
[force_row_wise: 0]
[histogram_pool_size: -1]
[max_depth: -1]
[min_data_in_leaf: 1]
[min_sum_hessian_in_leaf: 0.001]
[bagging_fraction: 1]
[pos_bagging_fraction: 1]
[neg_bagging_fraction: 1]
[bagging_freq: 0]
[bagging_seed: 5587]
[feature_fraction: 1]
[feature_fraction_bynode: 1]
[feature_fraction_seed: 28]
[extra_trees: 0]
[extra_seed: 6082]
[early_stopping_round: 0]
[first_metric_only: 0]
[max_delta_step: 0]
[lambda_l1: 0]
[lambda_l2: 0]
[linear_lambda: 0]
[min_gain_to_split: 0]
[drop_rate: 0.1]
[max_drop: 50]
[skip_drop: 0.5]
[xgboost_dart_mode: 0]
[uniform_drop: 0]
[drop_seed: 26336]
[top_rate: 0.2]
[other_rate: 0.1]
[min_data_per_group: 100]
[max_cat_threshold: 32]
[cat_l2: 10]
[cat_smooth: 10]
[max_cat_to_onehot: 4]
[top_k: 20]
[monotone_constraints: ]
[monotone_constraints_method: basic]
[monotone_penalty: 0]
[feature_contri: ]
[forcedsplits_filename: ]
[refit_decay_rate: 0.9]
[cegb_tradeoff: 1]
[cegb_penalty_split: 0]
[cegb_penalty_feature_lazy: ]
[cegb_penalty_feature_coupled: ]
[path_smooth: 0]
[interaction_constraints: ]
[verbosity: -1]
[saved_feature_importance_type: 0]
[linear_tree: 0]
[max_bin: 255]
[max_bin_by_feature: ]
[min_data_in_bin: 3]
[bin_construct_sample_cnt: 200000]
[data_random_seed: 6628]
[is_enable_sparse: 1]
[enable_bundle: 1]
[use_missing: 1]
[zero_as_missing: 0]
[feature_pre_filter: 1]
[pre_partition: 0]
[two_round: 0]
[header: 0]
[label_column: ]
[weight_column: ]
[group_column: ]
[ignore_column: ]
[categorical_feature: ]
[forcedbins_filename: ]
[precise_float_parser: 0]
[objective_seed: 15986]
[num_class: 5]
[is_unbalance: 0]
[scale_pos_weight: 1]
[sigmoid: 1]
[boost_from_average: 1]
[reg_sqrt: 0]
[alpha: 0.9]
[fair_c: 1]
[poisson_max_delta_step: 0.7]
[tweedie_variance_power: 1.5]
[lambdarank_truncation_level: 30]
[lambdarank_norm: 1]
[label_gain: ]
[eval_at: ]
[multi_error_top_k: 1]
[auc_mu_weights: ]
[num_machines: 1]
[local_listen_port: 12400]
[time_out: 120]
[machine_list_filename: ]
[machines: ]
[gpu_platform_id: -1]
[gpu_device_id: -1]
[gpu_use_dp: 0]
[num_gpu: 1]

end of parameters

pandas_categorical:[]
